{"learner":{"attributes":{"scikit_learn":"{\"_estimator_type\": \"regressor\"}"},"feature_names":["PI-content","CF-content","Sizing agent-content","GP-content","CF/S"],"feature_types":["float","float","float","float","float"],"gradient_booster":{"model":{"gbtree_model_param":{"num_parallel_tree":"1","num_trees":"100"},"iteration_indptr":[0,1,2,3,4,5,6,7,8,9,10,11,12,13,14,15,16,17,18,19,20,21,22,23,24,25,26,27,28,29,30,31,32,33,34,35,36,37,38,39,40,41,42,43,44,45,46,47,48,49,50,51,52,53,54,55,56,57,58,59,60,61,62,63,64,65,66,67,68,69,70,71,72,73,74,75,76,77,78,79,80,81,82,83,84,85,86,87,88,89,90,91,92,93,94,95,96,97,98,99,100],"tree_info":[0,0,0,0,0,0,0,0,0,0,0,0,0,0,0,0,0,0,0,0,0,0,0,0,0,0,0,0,0,0,0,0,0,0,0,0,0,0,0,0,0,0,0,0,0,0,0,0,0,0,0,0,0,0,0,0,0,0,0,0,0,0,0,0,0,0,0,0,0,0,0,0,0,0,0,0,0,0,0,0,0,0,0,0,0,0,0,0,0,0,0,0,0,0,0,0,0,0,0,0],"trees":[{"base_weights":[-7.705461E-2,-3.4593967E-1,1.6012739E0,6.681299E-2,4.6701956E-1,2.8889133E-2,-7.0761875E-3],"categories":[],"categories_nodes":[],"categories_segments":[],"categories_sizes":[],"default_left":[0,0,0,0,0,0,0],"id":0,"left_children":[1,-1,3,5,-1,-1,-1],"loss_changes":[4.9914345E1,0E0,9.666172E0,6.293339E-2,0E0,0E0,0E0],"parents":[2147483647,0,0,2,2,3,3],"right_children":[2,-1,4,6,-1,-1,-1],"split_conditions":[1E-1,-3.4593967E-1,2.5E0,8E-1,4.6701956E-1,2.8889133E-2,-7.0761875E-3],"split_indices":[1,0,4,0,0,0,0],"split_type":[0,0,0,0,0,0,0],"sum_hessian":[1.2E1,6E0,6E0,3E0,3E0,1E0,2E0],"tree_param":{"num_deleted":"0","num_feature":"5","num_nodes":"7","size_leaf_vector":"1"}},{"base_weights":[2.5643274E-2,-3.3492282E-1,1.2552004E0,-1.5981606E-1,2.132274E0,2.7444674E-2,-5.5586863E-2,1.29354475E-2,4.8890695E-1],"categories":[],"categories_nodes":[],"categories_segments":[],"categories_sizes":[],"default_left":[0,0,0,0,0,0,0,0,0],"id":1,"left_children":[1,-1,3,5,7,-1,-1,-1,-1],"loss_changes":[3.9754944E1,0E0,1.4674124E1,3.600177E-1,4.045088E0,0E0,0E0,0E0,0E0],"parents":[2147483647,0,0,2,2,3,3,4,4],"right_children":[2,-1,4,6,8,-1,-1,-1,-1],"split_conditions":[1E-1,-3.3492282E-1,2E-2,8E-1,2.5E0,2.7444674E-2,-5.5586863E-2,1.29354475E-2,4.8890695E-1],"split_indices":[3,0,2,0,4,0,0,0,0],"split_type":[0,0,0,0,0,0,0,0,0],"sum_hessian":[1.3E1,5E0,8E0,4E0,4E0,1E0,3E0,1E0,3E0],"tree_param":{"num_deleted":"0","num_feature":"5","num_nodes":"9","size_leaf_vector":"1"}},{"base_weights":[-2.0487163E-2,-2.6757294E-1,9.7266775E-1,-2.613806E-1,1.6877096E0,-7.837043E-2,2.6072431E-2,1.2288666E-2,3.787401E-1],"categories":[],"categories_nodes":[],"categories_segments":[],"categories_sizes":[],"default_left":[0,0,0,0,0,0,0,0,0],"id":2,"left_children":[1,-1,3,5,7,-1,-1,-1,-1],"loss_changes":[2.745437E1,0E0,1.191216E1,5.110269E-1,2.3309002E0,0E0,0E0,0E0,0E0],"parents":[2147483647,0,0,2,2,3,3,4,4],"right_children":[2,-1,4,6,8,-1,-1,-1,-1],"split_conditions":[1E-1,-2.6757294E-1,2E-2,1.25E-1,2.5E0,-7.837043E-2,2.6072431E-2,1.2288666E-2,3.787401E-1],"split_indices":[1,0,2,3,4,0,0,0,0],"split_type":[0,0,0,0,0,0,0,0,0],"sum_hessian":[1.5E1,6E0,9E0,4E0,5E0,3E0,1E0,1E0,4E0],"tree_param":{"num_deleted":"0","num_feature":"5","num_nodes":"9","size_leaf_vector":"1"}},{"base_weights":[-2.8554332E-1,-6.030174E-1,7.112152E-1,-8.7004244E-1,1.4353307E-1,-1.1744476E-2,1.8954828E-1,2.4768805E-2,-2.0435111E-1,-3.5935782E-3,4.7551896E-2],"categories":[],"categories_nodes":[],"categories_segments":[],"categories_sizes":[],"default_left":[0,0,0,0,0,0,0,0,0,0,0],"id":3,"left_children":[1,3,5,7,9,-1,-1,-1,-1,-1,-1],"loss_changes":[6.0332994E0,2.9661593E0,1.077513E0,1.8874717E0,1.04122035E-1,0E0,0E0,0E0,0E0,0E0,0E0],"parents":[2147483647,0,0,1,1,2,2,3,3,4,4],"right_children":[2,4,6,8,10,-1,-1,-1,-1,-1,-1],"split_conditions":[3.3333333E0,3E-2,2E-2,8E-1,8.5E-1,-1.1744476E-2,1.8954828E-1,2.4768805E-2,-2.0435111E-1,-3.5935782E-3,4.7551896E-2],"split_indices":[4,2,2,0,0,0,0,0,0,0,0],"split_type":[0,0,0,0,0,0,0,0,0,0,0],"sum_hessian":[1.2E1,1E1,2E0,7E0,3E0,1E0,1E0,1E0,6E0,2E0,1E0],"tree_param":{"num_deleted":"0","num_feature":"5","num_nodes":"11","size_leaf_vector":"1"}},{"base_weights":[1.0923211E-1,-9.6093285E-1,8.2490814E-1,-2.3742144E-1,-6.772909E-2,-5.2760184E-2,1.3932359E0,-6.210656E-2,4.517429E-2,-4.186457E-2,2.0817757E-2,3.2482952E-1,-1.1157251E-2],"categories":[],"categories_nodes":[],"categories_segments":[],"categories_sizes":[],"default_left":[0,0,0,0,0,0,0,0,0,0,0,0,0],"id":4,"left_children":[1,3,5,-1,7,9,11,-1,-1,-1,-1,-1,-1],"loss_changes":[1.6929981E1,1.576972E0,6.7049646E0,0E0,5.66858E-1,2.61818E-1,2.9485836E0,0E0,0E0,0E0,0E0,0E0,0E0],"parents":[2147483647,0,0,1,1,2,2,4,4,5,5,6,6],"right_children":[2,4,6,-1,8,10,12,-1,-1,-1,-1,-1,-1],"split_conditions":[1E-1,7.5E-2,2.5E0,-2.3742144E-1,2E0,7.5E-2,1E1,-6.210656E-2,4.517429E-2,-4.186457E-2,2.0817757E-2,3.2482952E-1,-1.1157251E-2],"split_indices":[3,3,4,0,4,1,4,0,0,0,0,0,0],"split_type":[0,0,0,0,0,0,0,0,0,0,0,0,0],"sum_hessian":[1.6E1,6E0,1E1,4E0,2E0,5E0,5E0,1E0,1E0,2E0,3E0,4E0,1E0],"tree_param":{"num_deleted":"0","num_feature":"5","num_nodes":"13","size_leaf_vector":"1"}},{"base_weights":[5.093507E-2,-2.1350221E-1,7.274554E-1,-1.03631794E-1,1.2857468E0,-3.6538396E-2,2.2489477E-2,1.0813022E-2,2.877061E-1],"categories":[],"categories_nodes":[],"categories_segments":[],"categories_sizes":[],"default_left":[0,0,0,0,0,0,0,0,0],"id":5,"left_children":[1,-1,3,5,7,-1,-1,-1,-1],"loss_changes":[1.59494295E1,0E0,6.431587E0,1.9829577E-1,1.2721243E0,0E0,0E0,0E0,0E0],"parents":[2147483647,0,0,2,2,3,3,4,4],"right_children":[2,-1,4,6,8,-1,-1,-1,-1],"split_conditions":[1E-1,-2.1350221E-1,2E-2,1.25E-1,2.5E0,-3.6538396E-2,2.2489477E-2,1.0813022E-2,2.877061E-1],"split_indices":[3,0,2,1,4,0,0,0,0],"split_type":[0,0,0,0,0,0,0,0,0],"sum_hessian":[1.5E1,5E0,1E1,5E0,5E0,4E0,1E0,1E0,4E0],"tree_param":{"num_deleted":"0","num_feature":"5","num_nodes":"9","size_leaf_vector":"1"}},{"base_weights":[1.1586758E-1,-1.8588728E-1,6.136908E-1,-2.0055997E-1,1.1329056E0,2.1365E-2,-5.8050852E-2,1.027236E-2,2.4976759E-1],"categories":[],"categories_nodes":[],"categories_segments":[],"categories_sizes":[],"default_left":[0,0,0,0,0,0,0,0,0],"id":6,"left_children":[1,-1,3,5,7,-1,-1,-1,-1],"loss_changes":[1.1077938E1,0E0,6.6004424E0,3.135846E-1,9.360447E-1,0E0,0E0,0E0,0E0],"parents":[2147483647,0,0,2,2,3,3,4,4],"right_children":[2,-1,4,6,8,-1,-1,-1,-1],"split_conditions":[7.5E-2,-1.8588728E-1,2E-2,8E-1,2.5E0,2.1365E-2,-5.8050852E-2,1.027236E-2,2.4976759E-1],"split_indices":[3,0,2,0,4,0,0,0,0],"split_type":[0,0,0,0,0,0,0,0,0],"sum_hessian":[1.5E1,4E0,1.1E1,5E0,6E0,1E0,4E0,1E0,5E0],"tree_param":{"num_deleted":"0","num_feature":"5","num_nodes":"9","size_leaf_vector":"1"}},{"base_weights":[9.323744E-2,-1.6464302E-1,5.022678E-1,-1.2116114E-1,9.582741E-1,-5.607262E-2,1.9724274E-2,2.1854663E-1,-5.869937E-3],"categories":[],"categories_nodes":[],"categories_segments":[],"categories_sizes":[],"default_left":[0,0,0,0,0,0,0,0,0],"id":7,"left_children":[1,-1,3,5,7,-1,-1,-1,-1],"loss_changes":[8.362703E0,0E0,4.61263E0,3.978576E-1,1.2913685E0,0E0,0E0,0E0,0E0],"parents":[2147483647,0,0,2,2,3,3,4,4],"right_children":[2,-1,4,6,8,-1,-1,-1,-1],"split_conditions":[7.5E-2,-1.6464302E-1,2.5E0,1E-1,1E1,-5.607262E-2,1.9724274E-2,2.1854663E-1,-5.869937E-3],"split_indices":[3,0,4,1,4,0,0,0,0],"split_type":[0,0,0,0,0,0,0,0,0],"sum_hessian":[1.6E1,4E0,1.2E1,6E0,6E0,3E0,3E0,5E0,1E0],"tree_param":{"num_deleted":"0","num_feature":"5","num_nodes":"9","size_leaf_vector":"1"}},{"base_weights":[1.3488476E-1,2.7308446E-1,-2.2023553E-1,-5.1471066E-1,4.7883248E-1,-3.68977E-2,-1.5053771E-1,-5.576444E-3,1.1938095E-1],"categories":[],"categories_nodes":[],"categories_segments":[],"categories_sizes":[],"default_left":[0,0,0,0,0,0,0,0,0],"id":8,"left_children":[1,-1,3,5,7,-1,-1,-1,-1],"loss_changes":[7.893965E0,0E0,3.8272524E0,5.2643967E-1,4.0890276E-1,0E0,0E0,0E0,0E0],"parents":[2147483647,0,0,2,2,3,3,4,4],"right_children":[2,-1,4,6,8,-1,-1,-1,-1],"split_conditions":[8E-1,2.7308446E-1,3.3333333E0,9E-1,2E-2,-3.68977E-2,-1.5053771E-1,-5.576444E-3,1.1938095E-1],"split_indices":[0,0,4,0,2,0,0,0,0],"split_type":[0,0,0,0,0,0,0,0,0],"sum_hessian":[1.3E1,1E0,1.2E1,9E0,3E0,6E0,3E0,1E0,2E0],"tree_param":{"num_deleted":"0","num_feature":"5","num_nodes":"9","size_leaf_vector":"1"}},{"base_weights":[1.6187862E-1,-1.7660107E-1,1.0801904E0,-3.803269E-1,4.5904675E-1,2.5943023E-1,1.06174E-2,5.6562903E-3,-8.4289595E-2,-5.2976133E-3,1.20059304E-1],"categories":[],"categories_nodes":[],"categories_segments":[],"categories_sizes":[],"default_left":[0,0,0,0,0,0,0,0,0,0,0],"id":9,"left_children":[1,3,5,7,9,-1,-1,-1,-1,-1,-1],"loss_changes":[5.8563967E0,2.4662316E0,9.076195E-1,2.5418866E-1,3.9061034E-1,0E0,0E0,0E0,0E0,0E0,0E0],"parents":[2147483647,0,0,1,1,2,2,3,3,4,4],"right_children":[2,4,6,8,10,-1,-1,-1,-1,-1,-1],"split_conditions":[5E-2,3.3333333E0,8E-1,8E-1,2E-2,2.5943023E-1,1.06174E-2,5.6562903E-3,-8.4289595E-2,-5.2976133E-3,1.20059304E-1],"split_indices":[2,4,0,0,2,0,0,0,0,0,0],"split_type":[0,0,0,0,0,0,0,0,0,0,0],"sum_hessian":[1.4E1,1.2E1,2E0,1E1,2E0,1E0,1E0,1E0,9E0,1E0,1E0],"tree_param":{"num_deleted":"0","num_feature":"5","num_nodes":"11","size_leaf_vector":"1"}},{"base_weights":[1.2509464E-1,-2.0028642E-1,1.026181E0,-4.507738E-1,4.0083155E-1,2.4645872E-1,1.0086536E-2,5.373478E-3,-1.0030464E-1,-5.0327303E-3,1.0022576E-1],"categories":[],"categories_nodes":[],"categories_segments":[],"categories_sizes":[],"default_left":[0,0,0,0,0,0,0,0,0,0,0],"id":10,"left_children":[1,3,5,7,9,-1,-1,-1,-1,-1,-1],"loss_changes":[5.6009297E0,2.80064E0,8.191266E-1,3.3130383E-1,2.941876E-1,0E0,0E0,0E0,0E0,0E0,0E0],"parents":[2147483647,0,0,1,1,2,2,3,3,4,4],"right_children":[2,4,6,8,10,-1,-1,-1,-1,-1,-1],"split_conditions":[5E-2,3.3333333E0,8E-1,8E-1,2E-2,2.4645872E-1,1.0086536E-2,5.373478E-3,-1.0030464E-1,-5.0327303E-3,1.0022576E-1],"split_indices":[2,4,0,0,2,0,0,0,0,0,0],"split_type":[0,0,0,0,0,0,0,0,0,0,0],"sum_hessian":[1.4E1,1.2E1,2E0,9E0,3E0,1E0,1E0,1E0,8E0,1E0,2E0],"tree_param":{"num_deleted":"0","num_feature":"5","num_nodes":"11","size_leaf_vector":"1"}},{"base_weights":[1.2093597E-1,-1.515633E-1,9.7487193E-1,-1.10772766E-1,1.0003618E-1,2.3413578E-1,9.582209E-3,4.132599E-2,-5.8954455E-2],"categories":[],"categories_nodes":[],"categories_segments":[],"categories_sizes":[],"default_left":[0,0,0,0,0,0,0,0,0],"id":11,"left_children":[1,3,5,-1,7,-1,-1,-1,-1],"loss_changes":[4.8645062E0,1.8869355E0,7.392616E-1,0E0,7.298199E-1,0E0,0E0,0E0,0E0],"parents":[2147483647,0,0,1,1,2,2,4,4],"right_children":[2,4,6,-1,8,-1,-1,-1,-1],"split_conditions":[5E-2,7.5E-2,8E-1,-1.10772766E-1,4E-2,2.3413578E-1,9.582209E-3,4.132599E-2,-5.8954455E-2],"split_indices":[2,3,0,0,2,0,0,0,0],"split_type":[0,0,0,0,0,0,0,0,0],"sum_hessian":[1.6E1,1.4E1,2E0,4E0,1E1,1E0,1E0,9E0,1E0],"tree_param":{"num_deleted":"0","num_feature":"5","num_nodes":"9","size_leaf_vector":"1"}},{"base_weights":[1.1673399E-1,-1.5808938E-1,9.261284E-1,-3.2371843E-1,4.0052557E-1,2.2242899E-1,9.103107E-3,-2.4611656E-2,-1.05947234E-1,-6.8474053E-3,1.069788E-1],"categories":[],"categories_nodes":[],"categories_segments":[],"categories_sizes":[],"default_left":[0,0,0,0,0,0,0,0,0,0,0],"id":12,"left_children":[1,3,5,7,9,-1,-1,-1,-1,-1,-1],"loss_changes":[4.4431624E0,1.869338E0,6.671829E-1,3.831885E-1,3.4703147E-1,0E0,0E0,0E0,0E0,0E0,0E0],"parents":[2147483647,0,0,1,1,2,2,3,3,4,4],"right_children":[2,4,6,8,10,-1,-1,-1,-1,-1,-1],"split_conditions":[5E-2,3.3333333E0,8E-1,9E-1,2E-2,2.2242899E-1,9.103107E-3,-2.4611656E-2,-1.05947234E-1,-6.8474053E-3,1.069788E-1],"split_indices":[2,4,0,0,2,0,0,0,0,0,0],"split_type":[0,0,0,0,0,0,0,0,0,0,0],"sum_hessian":[1.5E1,1.3E1,2E0,1.1E1,2E0,1E0,1E0,8E0,3E0,1E0,1E0],"tree_param":{"num_deleted":"0","num_feature":"5","num_nodes":"11","size_leaf_vector":"1"}},{"base_weights":[7.7835E-2,-2.969368E-1,7.404819E-1,-3.910907E-2,-1.002342E-1,2.1130753E-1,1.5953715E-1,4.2690756E-3,-1.0934079E-2,5.9578517E-3,4.0413834E-2],"categories":[],"categories_nodes":[],"categories_segments":[],"categories_sizes":[],"default_left":[0,0,0,0,0,0,0,0,0,0,0],"id":13,"left_children":[1,3,5,7,-1,-1,9,-1,-1,-1,-1],"loss_changes":[4.8814325E0,6.2574303E-1,7.796054E-1,1.1967639E-2,0E0,0E0,1.5052155E-2,0E0,0E0,0E0,0E0],"parents":[2147483647,0,0,1,1,2,2,3,3,6,6],"right_children":[2,4,6,8,-1,-1,10,-1,-1,-1,-1],"split_conditions":[3E-2,8.5E-1,8E-1,8E-1,-1.002342E-1,2.1130753E-1,8.5E-1,4.2690756E-3,-1.0934079E-2,5.9578517E-3,4.0413834E-2],"split_indices":[2,0,0,0,0,0,0,0,0,0,0],"split_type":[0,0,0,0,0,0,0,0,0,0,0],"sum_hessian":[1.4E1,1E1,4E0,6E0,4E0,1E0,3E0,1E0,5E0,2E0,1E0],"tree_param":{"num_deleted":"0","num_feature":"5","num_nodes":"11","size_leaf_vector":"1"}},{"base_weights":[1.6827658E-1,-3.9712363E-1,4.338898E-1,-1.0999656E-2,-8.532908E-2,-6.777346E-3,7.1184826E-1,1.4090538E-2,-2.736938E-2,2.0074216E-1,4.7998376E-2],"categories":[],"categories_nodes":[],"categories_segments":[],"categories_sizes":[],"default_left":[0,0,0,0,0,0,0,0,0,0,0],"id":14,"left_children":[1,3,5,-1,-1,7,9,-1,-1,-1,-1],"loss_changes":[3.0699458E0,3.067255E-4,1.6068065E0,0E0,0E0,1.09285906E-1,3.790903E-1,0E0,0E0,0E0,0E0],"parents":[2147483647,0,0,1,1,2,2,5,5,6,6],"right_children":[2,4,6,-1,-1,8,10,-1,-1,-1,-1],"split_conditions":[7.5E-2,8.5E-1,2.5E0,-1.0999656E-2,-8.532908E-2,8.5E-1,8E-1,1.4090538E-2,-2.736938E-2,2.0074216E-1,4.7998376E-2],"split_indices":[3,0,4,0,0,0,0,0,0,0,0],"split_type":[0,0,0,0,0,0,0,0,0,0,0],"sum_hessian":[1.4E1,4E0,1E1,1E0,3E0,5E0,5E0,4E0,1E0,1E0,4E0],"tree_param":{"num_deleted":"0","num_feature":"5","num_nodes":"11","size_leaf_vector":"1"}},{"base_weights":[1.1464446E-1,-1.189632E-1,7.934023E-1,-2.6655564E-1,3.6567354E-1,7.6455115E-3,1.9070506E-1,-6.4372376E-2,-6.376616E-3,-8.358264E-3,9.977665E-2],"categories":[],"categories_nodes":[],"categories_segments":[],"categories_sizes":[],"default_left":[0,0,0,0,0,0,0,0,0,0,0],"id":15,"left_children":[1,3,5,7,9,-1,-1,-1,-1,-1,-1],"loss_changes":[3.1372914E0,1.4368764E0,4.9525142E-1,1.5091813E-1,3.3393836E-1,0E0,0E0,0E0,0E0,0E0,0E0],"parents":[2147483647,0,0,1,1,2,2,3,3,4,4],"right_children":[2,4,6,8,10,-1,-1,-1,-1,-1,-1],"split_conditions":[5E-2,5E0,1.25E-1,1.25E-1,2E-2,7.6455115E-3,1.9070506E-1,-6.4372376E-2,-6.376616E-3,-8.358264E-3,9.977665E-2],"split_indices":[2,4,1,3,2,0,0,0,0,0,0],"split_type":[0,0,0,0,0,0,0,0,0,0,0],"sum_hessian":[1.5E1,1.3E1,2E0,1.1E1,2E0,1E0,1E0,8E0,3E0,1E0,1E0],"tree_param":{"num_deleted":"0","num_feature":"5","num_nodes":"11","size_leaf_vector":"1"}},{"base_weights":[1.5784062E-1,7.393589E-1,-5.3478956E-2,3.6699295E-3,1.811698E-1,-1.8518665E-1,3.4739E-1,-8.760816E-3,-7.035895E-2,9.4787836E-2,-7.94034E-3],"categories":[],"categories_nodes":[],"categories_segments":[],"categories_sizes":[],"default_left":[0,0,0,0,0,0,0,0,0,0,0],"id":16,"left_children":[1,3,5,-1,-1,7,9,-1,-1,-1,-1],"loss_changes":[2.3305717E0,5.503385E-1,1.0377563E0,0E0,0E0,2.835465E-1,3.0137932E-1,0E0,0E0,0E0,0E0],"parents":[2147483647,0,0,1,1,2,2,5,5,6,6],"right_children":[2,4,6,-1,-1,8,10,-1,-1,-1,-1],"split_conditions":[8E-1,2E0,5E0,3.6699295E-3,1.811698E-1,9E-1,1E1,-8.760816E-3,-7.035895E-2,9.4787836E-2,-7.94034E-3],"split_indices":[0,4,4,0,0,0,4,0,0,0,0],"split_type":[0,0,0,0,0,0,0,0,0,0,0],"sum_hessian":[1.5E1,2E0,1.3E1,1E0,1E0,1.1E1,2E0,8E0,3E0,1E0,1E0],"tree_param":{"num_deleted":"0","num_feature":"5","num_nodes":"11","size_leaf_vector":"1"}},{"base_weights":[1.4266121E-1,-1.7955582E-1,5.247302E-1,-2.9873365E-1,-7.9417825E-3,-1.9565022E-2,6.39234E-1,-6.517585E-2,-6.7929984E-3,-9.1218E-3,5.483691E-3,7.7012777E-3,1.4170991E-1],"categories":[],"categories_nodes":[],"categories_segments":[],"categories_sizes":[],"default_left":[0,0,0,0,0,0,0,0,0,0,0,0,0],"id":17,"left_children":[1,3,5,7,9,-1,11,-1,-1,-1,-1,-1,-1],"loss_changes":[2.4986196E0,2.3831356E-1,8.29164E-1,1.7105699E-2,1.4406958E-2,0E0,2.5126672E-1,0E0,0E0,0E0,0E0,0E0,0E0],"parents":[2147483647,0,0,1,1,2,2,3,3,4,4,6,6],"right_children":[2,4,6,8,10,-1,12,-1,-1,-1,-1,-1,-1],"split_conditions":[2E-2,1E-1,6.7E-2,1E-1,7.5E-2,-1.9565022E-2,2.5E0,-6.517585E-2,-6.7929984E-3,-9.1218E-3,5.483691E-3,7.7012777E-3,1.4170991E-1],"split_indices":[2,3,1,1,1,0,4,0,0,0,0,0,0],"split_type":[0,0,0,0,0,0,0,0,0,0,0,0,0],"sum_hessian":[1.5E1,9E0,6E0,4E0,5E0,1E0,5E0,3E0,1E0,2E0,3E0,1E0,4E0],"tree_param":{"num_deleted":"0","num_feature":"5","num_nodes":"13","size_leaf_vector":"1"}},{"base_weights":[-1.1066543E-1,-2.2561474E-1,3.0058175E-1,-2.521818E-1,7.316208E-3,-7.817507E-3,8.2962945E-2,-6.154526E-2,-4.851866E-3],"categories":[],"categories_nodes":[],"categories_segments":[],"categories_sizes":[],"default_left":[0,0,0,0,0,0,0,0,0],"id":18,"left_children":[1,3,5,7,-1,-1,-1,-1,-1],"loss_changes":[1.0070807E0,1.321618E-1,2.4264944E-1,1.5484214E-1,0E0,0E0,0E0,0E0,0E0],"parents":[2147483647,0,0,1,1,2,2,3,3],"right_children":[2,4,6,8,-1,-1,-1,-1,-1],"split_conditions":[5E0,5E-2,2E-2,1.25E-1,7.316208E-3,-7.817507E-3,8.2962945E-2,-6.154526E-2,-4.851866E-3],"split_indices":[4,2,2,3,0,0,0,0,0],"split_type":[0,0,0,0,0,0,0,0,0],"sum_hessian":[1.4E1,1.2E1,2E0,1.1E1,1E0,1E0,1E0,8E0,3E0],"tree_param":{"num_deleted":"0","num_feature":"5","num_nodes":"9","size_leaf_vector":"1"}},{"base_weights":[1.5681924E-1,-3.809133E-2,6.8644154E-1,-1.4551605E-1,2.8555268E-1,1.6465998E-1,6.950402E-3,-8.5833855E-3,-5.2171286E-2,-7.4266195E-3,7.88148E-2],"categories":[],"categories_nodes":[],"categories_segments":[],"categories_sizes":[],"default_left":[0,0,0,0,0,0,0,0,0,0,0],"id":19,"left_children":[1,3,5,7,9,-1,-1,-1,-1,-1,-1],"loss_changes":[1.9365643E0,6.809354E-1,3.601117E-1,1.3208804E-1,2.1899092E-1,0E0,0E0,0E0,0E0,0E0,0E0],"parents":[2147483647,0,0,1,1,2,2,3,3,4,4],"right_children":[2,4,6,8,10,-1,-1,-1,-1,-1,-1],"split_conditions":[5E-2,5E0,8E-1,9E-1,2E-2,1.6465998E-1,6.950402E-3,-8.5833855E-3,-5.2171286E-2,-7.4266195E-3,7.88148E-2],"split_indices":[2,4,0,0,2,0,0,0,0,0,0],"split_type":[0,0,0,0,0,0,0,0,0,0,0],"sum_hessian":[1.5E1,1.3E1,2E0,1.1E1,2E0,1E0,1E0,8E0,3E0,1E0,1E0],"tree_param":{"num_deleted":"0","num_feature":"5","num_nodes":"11","size_leaf_vector":"1"}},{"base_weights":[2.0337401E-1,1.3117361E-2,6.521195E-1,-9.2908636E-2,7.4874066E-2,6.6028833E-3,1.5642701E-1,-2.3506496E-3,-5.7396438E-2],"categories":[],"categories_nodes":[],"categories_segments":[],"categories_sizes":[],"default_left":[0,0,0,0,0,0,0,0,0],"id":20,"left_children":[1,3,5,7,-1,-1,-1,-1,-1],"loss_changes":[1.4257435E0,6.7887986E-1,3.25001E-1,2.1038267E-1,0E0,0E0,0E0,0E0,0E0],"parents":[2147483647,0,0,1,1,2,2,3,3],"right_children":[2,4,6,8,-1,-1,-1,-1,-1],"split_conditions":[5E-2,5E0,1.25E-1,4E-2,7.4874066E-2,6.6028833E-3,1.5642701E-1,-2.3506496E-3,-5.7396438E-2],"split_indices":[2,4,1,2,0,0,0,0,0],"split_type":[0,0,0,0,0,0,0,0,0],"sum_hessian":[1.4E1,1.2E1,2E0,1.1E1,1E0,1E0,1E0,1E1,1E0],"tree_param":{"num_deleted":"0","num_feature":"5","num_nodes":"9","size_leaf_vector":"1"}},{"base_weights":[1.2160112E-1,6.104288E-1,-4.3630753E-2,4.00157E-3,1.4860563E-1,-1.2989004E-1,2.4132557E-1,-9.112958E-3,-4.6719108E-2,7.113037E-2,-1.0798979E-2],"categories":[],"categories_nodes":[],"categories_segments":[],"categories_sizes":[],"default_left":[0,0,0,0,0,0,0,0,0,0,0],"id":21,"left_children":[1,3,5,-1,-1,7,9,-1,-1,-1,-1],"loss_changes":[1.6145287E0,3.468479E-1,5.118996E-1,0E0,0E0,9.924364E-2,2.2642457E-1,0E0,0E0,0E0,0E0],"parents":[2147483647,0,0,1,1,2,2,5,5,6,6],"right_children":[2,4,6,-1,-1,8,10,-1,-1,-1,-1],"split_conditions":[8E-1,2E0,5E0,4.00157E-3,1.4860563E-1,9E-1,1E1,-9.112958E-3,-4.6719108E-2,7.113037E-2,-1.0798979E-2],"split_indices":[0,4,4,0,0,0,4,0,0,0,0],"split_type":[0,0,0,0,0,0,0,0,0,0,0],"sum_hessian":[1.6E1,2E0,1.4E1,1E0,1E0,1.2E1,2E0,9E0,3E0,1E0,1E0],"tree_param":{"num_deleted":"0","num_feature":"5","num_nodes":"11","size_leaf_vector":"1"}},{"base_weights":[5.378776E-2,-1.2436846E-1,5.91615E-1,-6.056512E-2,-5.4070927E-2,1.4117537E-1,6.728387E-3,-2.4252364E-2,2.6717072E-2],"categories":[],"categories_nodes":[],"categories_segments":[],"categories_sizes":[],"default_left":[0,0,0,0,0,0,0,0,0],"id":22,"left_children":[1,3,5,7,-1,-1,-1,-1,-1],"loss_changes":[1.9454457E0,9.990829E-2,2.4753392E-1,2.2536081E-1,0E0,0E0,0E0,0E0,0E0],"parents":[2147483647,0,0,1,1,2,2,3,3],"right_children":[2,4,6,8,-1,-1,-1,-1,-1],"split_conditions":[5E-2,4E-2,8E-1,3E-2,-5.4070927E-2,1.4117537E-1,6.728387E-3,-2.4252364E-2,2.6717072E-2],"split_indices":[2,2,0,2,0,0,0,0,0],"split_type":[0,0,0,0,0,0,0,0,0],"sum_hessian":[1.5E1,1.3E1,2E0,1.2E1,1E0,1E0,1E0,1E1,2E0],"tree_param":{"num_deleted":"0","num_feature":"5","num_nodes":"9","size_leaf_vector":"1"}},{"base_weights":[2.1016065E-2,5.5652285E-1,-1.6168942E-1,5.01411E-3,1.341166E-1,-1.8165085E-1,5.888534E-3,-3.8767535E-2,-1.1610985E-3],"categories":[],"categories_nodes":[],"categories_segments":[],"categories_sizes":[],"default_left":[0,0,0,0,0,0,0,0,0],"id":23,"left_children":[1,3,5,-1,-1,7,-1,-1,-1],"loss_changes":[1.9332318E0,2.5265205E-1,7.327393E-2,0E0,0E0,2.662602E-2,0E0,0E0,0E0],"parents":[2147483647,0,0,1,1,2,2,5,5],"right_children":[2,4,6,-1,-1,8,-1,-1,-1],"split_conditions":[8E-1,2E0,1.5E-1,5.01411E-3,1.341166E-1,1.25E-1,5.888534E-3,-3.8767535E-2,-1.1610985E-3],"split_indices":[0,4,3,0,0,1,0,0,0],"split_type":[0,0,0,0,0,0,0,0,0],"sum_hessian":[1.4E1,2E0,1.2E1,1E0,1E0,1.1E1,1E0,1E1,1E0],"tree_param":{"num_deleted":"0","num_feature":"5","num_nodes":"9","size_leaf_vector":"1"}},{"base_weights":[1.615336E-1,1.274108E-1,2.4214427E-3,-9.507799E-2,2.544671E-1,4.746824E-3,-4.1417744E-2,-7.108045E-3,7.072482E-2],"categories":[],"categories_nodes":[],"categories_segments":[],"categories_sizes":[],"default_left":[0,0,0,0,0,0,0,0,0],"id":24,"left_children":[1,-1,3,5,7,-1,-1,-1,-1],"loss_changes":[1.2059493E0,0E0,4.411973E-1,1.8775219E-1,1.8148494E-1,0E0,0E0,0E0,0E0],"parents":[2147483647,0,0,2,2,3,3,4,4],"right_children":[2,-1,4,6,8,-1,-1,-1,-1],"split_conditions":[8E-1,1.274108E-1,5E0,2.5E0,2E-2,4.746824E-3,-4.1417744E-2,-7.108045E-3,7.072482E-2],"split_indices":[0,0,4,4,2,0,0,0,0],"split_type":[0,0,0,0,0,0,0,0,0],"sum_hessian":[1.3E1,1E0,1.2E1,1E1,2E0,6E0,4E0,1E0,1E0],"tree_param":{"num_deleted":"0","num_feature":"5","num_nodes":"9","size_leaf_vector":"1"}},{"base_weights":[2.2963777E-2,-5.455567E-2,2.4174385E-1,1.4661014E-2,-3.3142243E-2,6.71886E-2,-6.752634E-3,2.1721339E-2,-1.0571289E-2],"categories":[],"categories_nodes":[],"categories_segments":[],"categories_sizes":[],"default_left":[0,0,0,0,0,0,0,0,0],"id":25,"left_children":[1,3,5,7,-1,-1,-1,-1,-1],"loss_changes":[3.278806E-1,1.22695744E-1,1.6379014E-1,9.333738E-2,0E0,0E0,0E0,0E0,0E0],"parents":[2147483647,0,0,1,1,2,2,3,3],"right_children":[2,4,6,8,-1,-1,-1,-1,-1],"split_conditions":[5E0,9E-1,1E1,1E-1,-3.3142243E-2,6.71886E-2,-6.752634E-3,2.1721339E-2,-1.0571289E-2],"split_indices":[4,0,4,1,0,0,0,0,0],"split_type":[0,0,0,0,0,0,0,0,0],"sum_hessian":[1.4E1,1.2E1,2E0,9E0,3E0,1E0,1E0,3E0,6E0],"tree_param":{"num_deleted":"0","num_feature":"5","num_nodes":"9","size_leaf_vector":"1"}},{"base_weights":[8.159024E-2,1.2156882E-1,-6.527139E-2,-1.5776498E-2,-3.2938853E-2,9.054813E-3,-3.0566389E-2],"categories":[],"categories_nodes":[],"categories_segments":[],"categories_sizes":[],"default_left":[0,0,0,0,0,0,0],"id":26,"left_children":[1,-1,3,5,-1,-1,-1],"loss_changes":[1.4328951E0,0E0,7.09399E-2,1.3790032E-1,0E0,0E0,0E0],"parents":[2147483647,0,0,2,2,3,3],"right_children":[2,-1,4,6,-1,-1,-1],"split_conditions":[8E-1,1.2156882E-1,9.5E-1,4E-2,-3.2938853E-2,9.054813E-3,-3.0566389E-2],"split_indices":[0,0,0,2,0,0,0],"split_type":[0,0,0,0,0,0,0],"sum_hessian":[1.4E1,1E0,1.3E1,1.1E1,2E0,9E0,2E0],"tree_param":{"num_deleted":"0","num_feature":"5","num_nodes":"7","size_leaf_vector":"1"}},{"base_weights":[1.5282455E-1,-1.2346032E-1,2.9880834E-1,-3.0401198E-2,3.8179636E-3,2.4112156E-2,4.2711437E-1,1.4713495E-2,-1.3630986E-2,1.1549039E-1,3.1631634E-2],"categories":[],"categories_nodes":[],"categories_segments":[],"categories_sizes":[],"default_left":[0,0,0,0,0,0,0,0,0,0,0],"id":27,"left_children":[1,3,5,-1,-1,7,9,-1,-1,-1,-1],"loss_changes":[7.963358E-1,4.125882E-2,3.920462E-1,0E0,0E0,4.698364E-2,4.948759E-2,0E0,0E0,0E0,0E0],"parents":[2147483647,0,0,1,1,2,2,5,5,6,6],"right_children":[2,4,6,-1,-1,8,10,-1,-1,-1,-1],"split_conditions":[7.5E-2,1.5E-1,2.5E0,-3.0401198E-2,3.8179636E-3,8.5E-1,8E-1,1.4713495E-2,-1.3630986E-2,1.1549039E-1,3.1631634E-2],"split_indices":[1,3,4,0,0,0,0,0,0,0,0],"split_type":[0,0,0,0,0,0,0,0,0,0,0],"sum_hessian":[1.4E1,5E0,9E0,4E0,1E0,4E0,5E0,3E0,1E0,1E0,4E0],"tree_param":{"num_deleted":"0","num_feature":"5","num_nodes":"11","size_leaf_vector":"1"}},{"base_weights":[2.2665985E-1,-6.242597E-2,4.7231305E-1,9.066403E-3,-2.7871639E-2,5.37605E-1,-2.50113E-3,9.012953E-3,-7.914295E-3,9.41422E-3,1.1750158E-1],"categories":[],"categories_nodes":[],"categories_segments":[],"categories_sizes":[],"default_left":[0,0,0,0,0,0,0,0,0,0,0],"id":28,"left_children":[1,3,5,7,-1,9,-1,-1,-1,-1,-1],"loss_changes":[1.2246914E0,5.87911E-2,3.0506206E-1,1.935691E-2,0E0,1.12868786E-1,0E0,0E0,0E0,0E0,0E0],"parents":[2147483647,0,0,1,1,2,2,3,3,5,5],"right_children":[2,4,6,8,-1,10,-1,-1,-1,-1,-1],"split_conditions":[2E-2,8.5E-1,9E-1,1.25E-1,-2.7871639E-2,2.5E0,-2.50113E-3,9.012953E-3,-7.914295E-3,9.41422E-3,1.1750158E-1],"split_indices":[2,0,0,1,0,4,0,0,0,0,0],"split_type":[0,0,0,0,0,0,0,0,0,0,0],"sum_hessian":[1.3E1,7E0,6E0,5E0,2E0,5E0,1E0,3E0,2E0,1E0,4E0],"tree_param":{"num_deleted":"0","num_feature":"5","num_nodes":"11","size_leaf_vector":"1"}},{"base_weights":[-1.7374009E-2,-8.702718E-2,1.8807927E-1,-2.850771E-2,-1.752576E-1,-8.899975E-3,5.5919793E-2,-1.724603E-2,3.0321956E-2,-5.2757908E-2,8.94351E-3],"categories":[],"categories_nodes":[],"categories_segments":[],"categories_sizes":[],"default_left":[0,0,0,0,0,0,0,0,0,0,0],"id":29,"left_children":[1,3,5,7,9,-1,-1,-1,-1,-1,-1],"loss_changes":[2.7807155E-1,5.729617E-2,1.437542E-1,1.6398185E-1,1.3276222E-1,0E0,0E0,0E0,0E0,0E0,0E0],"parents":[2147483647,0,0,1,1,2,2,3,3,4,4],"right_children":[2,4,6,8,10,-1,-1,-1,-1,-1,-1],"split_conditions":[3.3333333E0,4E-2,2E-2,3E-2,5E-2,-8.899975E-3,5.5919793E-2,-1.724603E-2,3.0321956E-2,-5.2757908E-2,8.94351E-3],"split_indices":[4,2,2,2,2,0,0,0,0,0,0],"split_type":[0,0,0,0,0,0,0,0,0,0,0],"sum_hessian":[1.3E1,1.1E1,2E0,9E0,2E0,1E0,1E0,8E0,1E0,1E0,1E0],"tree_param":{"num_deleted":"0","num_feature":"5","num_nodes":"11","size_leaf_vector":"1"}},{"base_weights":[1.2980442E-1,-2.0749727E-3,4.4755992E-1,6.937681E-2,-5.0119996E-2,1.0339365E-1,8.496332E-3,-8.4404275E-3,3.980848E-2],"categories":[],"categories_nodes":[],"categories_segments":[],"categories_sizes":[],"default_left":[0,0,0,0,0,0,0,0,0],"id":30,"left_children":[1,3,5,7,-1,-1,-1,-1,-1],"loss_changes":[7.151779E-1,3.1852078E-1,7.469392E-2,2.2775131E-1,0E0,0E0,0E0,0E0,0E0],"parents":[2147483647,0,0,1,1,2,2,3,3],"right_children":[2,4,6,8,-1,-1,-1,-1,-1],"split_conditions":[5E-2,4E-2,8E-1,2E-2,-5.0119996E-2,1.0339365E-1,8.496332E-3,-8.4404275E-3,3.980848E-2],"split_indices":[2,2,0,2,0,0,0,0,0],"split_type":[0,0,0,0,0,0,0,0,0],"sum_hessian":[1.4E1,1.2E1,2E0,1.1E1,1E0,1E0,1E0,7E0,4E0],"tree_param":{"num_deleted":"0","num_feature":"5","num_nodes":"9","size_leaf_vector":"1"}},{"base_weights":[5.9929807E-2,-6.544833E-2,4.2518196E-1,-1.3637017E-1,1.7240182E-1,9.822398E-2,8.0715185E-3,-1.1701214E-2,-4.8284378E-2,-8.032942E-3,5.1133394E-2],"categories":[],"categories_nodes":[],"categories_segments":[],"categories_sizes":[],"default_left":[0,0,0,0,0,0,0,0,0,0,0],"id":31,"left_children":[1,3,5,7,9,-1,-1,-1,-1,-1,-1],"loss_changes":[9.077858E-1,3.404317E-1,6.74113E-2,7.214269E-2,1.193033E-1,0E0,0E0,0E0,0E0,0E0,0E0],"parents":[2147483647,0,0,1,1,2,2,3,3,4,4],"right_children":[2,4,6,8,10,-1,-1,-1,-1,-1,-1],"split_conditions":[5E-2,5E0,8E-1,3E-2,2E-2,9.822398E-2,8.0715185E-3,-1.1701214E-2,-4.8284378E-2,-8.032942E-3,5.1133394E-2],"split_indices":[2,4,0,2,2,0,0,0,0,0,0],"split_type":[0,0,0,0,0,0,0,0,0,0,0],"sum_hessian":[1.5E1,1.3E1,2E0,1.1E1,2E0,1E0,1E0,9E0,2E0,1E0,1E0],"tree_param":{"num_deleted":"0","num_feature":"5","num_nodes":"11","size_leaf_vector":"1"}},{"base_weights":[-6.308912E-2,-1.848495E-2,-1.5012732E-1,-8.637351E-2,4.8022084E-2,-4.5199778E-2,7.667947E-3,-2.2625828E-2,5.0457953E-3,2.2610562E-2,-1.4366837E-2],"categories":[],"categories_nodes":[],"categories_segments":[],"categories_sizes":[],"default_left":[0,0,0,0,0,0,0,0,0,0,0],"id":32,"left_children":[1,3,5,7,9,-1,-1,-1,-1,-1,-1],"loss_changes":[5.379098E-2,7.565445E-2,9.749065E-2,3.2450356E-2,9.4512224E-2,0E0,0E0,0E0,0E0,0E0,0E0],"parents":[2147483647,0,0,1,1,2,2,3,3,4,4],"right_children":[2,4,6,8,10,-1,-1,-1,-1,-1,-1],"split_conditions":[4E-2,7.5E-2,5E-2,1.5E-1,3.3333333E0,-4.5199778E-2,7.667947E-3,-2.2625828E-2,5.0457953E-3,2.2610562E-2,-1.4366837E-2],"split_indices":[2,1,2,3,4,0,0,0,0,0,0],"split_type":[0,0,0,0,0,0,0,0,0,0,0],"sum_hessian":[1.3E1,1.1E1,2E0,5E0,6E0,1E0,1E0,4E0,1E0,4E0,2E0],"tree_param":{"num_deleted":"0","num_feature":"5","num_nodes":"11","size_leaf_vector":"1"}},{"base_weights":[9.269384E-2,3.4468526E-1,2.2209813E-3,-6.758094E-3,9.2929415E-2,-5.3992383E-2,1.6952848E-1,-4.6469723E-3,-2.4229884E-2,4.9295094E-2,-6.9129704E-3],"categories":[],"categories_nodes":[],"categories_segments":[],"categories_sizes":[],"default_left":[0,0,0,0,0,0,0,0,0,0,0],"id":33,"left_children":[1,3,5,-1,-1,7,9,-1,-1,-1,-1],"loss_changes":[4.3087274E-1,2.741151E-1,1.8734333E-1,0E0,0E0,2.2539094E-2,1.0407999E-1,0E0,0E0,0E0,0E0],"parents":[2147483647,0,0,1,1,2,2,5,5,6,6],"right_children":[2,4,6,-1,-1,8,10,-1,-1,-1,-1],"split_conditions":[8E-1,2E0,5E0,-6.758094E-3,9.2929415E-2,1E0,1E1,-4.6469723E-3,-2.4229884E-2,4.9295094E-2,-6.9129704E-3],"split_indices":[0,4,4,0,0,0,4,0,0,0,0],"split_type":[0,0,0,0,0,0,0,0,0,0,0],"sum_hessian":[1.6E1,2E0,1.4E1,1E0,1E0,1.2E1,2E0,1.1E1,1E0,1E0,1E0],"tree_param":{"num_deleted":"0","num_feature":"5","num_nodes":"11","size_leaf_vector":"1"}},{"base_weights":[8.9893416E-2,-1.2236539E-2,3.8319921E-1,4.038298E-2,-4.2707443E-2,8.828292E-2,7.5168847E-3,-1.0641131E-2,3.670273E-2],"categories":[],"categories_nodes":[],"categories_segments":[],"categories_sizes":[],"default_left":[0,0,0,0,0,0,0,0,0],"id":34,"left_children":[1,3,5,7,-1,-1,-1,-1,-1],"loss_changes":[5.83218E-1,2.0593967E-1,5.082947E-2,2.4361834E-1,0E0,0E0,0E0,0E0,0E0],"parents":[2147483647,0,0,1,1,2,2,3,3],"right_children":[2,4,6,8,-1,-1,-1,-1,-1],"split_conditions":[5E-2,4E-2,8E-1,2E-2,-4.2707443E-2,8.828292E-2,7.5168847E-3,-1.0641131E-2,3.670273E-2],"split_indices":[2,2,0,2,0,0,0,0,0],"split_type":[0,0,0,0,0,0,0,0,0],"sum_hessian":[1.6E1,1.4E1,2E0,1.3E1,1E0,1E0,1E0,9E0,4E0],"tree_param":{"num_deleted":"0","num_feature":"5","num_nodes":"9","size_leaf_vector":"1"}},{"base_weights":[9.3179785E-2,-3.249999E-2,3.6403933E-1,-1.1020026E-1,4.4995166E-2,7.141042E-3,8.3868794E-2,-5.734563E-3,-4.1427E-2],"categories":[],"categories_nodes":[],"categories_segments":[],"categories_sizes":[],"default_left":[0,0,0,0,0,0,0,0,0],"id":35,"left_children":[1,3,5,7,-1,-1,-1,-1,-1],"loss_changes":[5.461173E-1,3.3445442E-1,4.58737E-2,7.701667E-2,0E0,0E0,0E0,0E0,0E0],"parents":[2147483647,0,0,1,1,2,2,3,3],"right_children":[2,4,6,8,-1,-1,-1,-1,-1],"split_conditions":[5E-2,5E0,1.25E-1,3E-2,4.4995166E-2,7.141042E-3,8.3868794E-2,-5.734563E-3,-4.1427E-2],"split_indices":[2,4,1,2,0,0,0,0,0],"split_type":[0,0,0,0,0,0,0,0,0],"sum_hessian":[1.2E1,1E1,2E0,9E0,1E0,1E0,1E0,7E0,2E0],"tree_param":{"num_deleted":"0","num_feature":"5","num_nodes":"9","size_leaf_vector":"1"}},{"base_weights":[9.5685154E-2,-4.2836368E-4,3.458373E-1,5.0877366E-2,-3.8500715E-2,7.967534E-2,6.783986E-3,-7.6039406E-3,3.3753633E-2],"categories":[],"categories_nodes":[],"categories_segments":[],"categories_sizes":[],"default_left":[0,0,0,0,0,0,0,0,0],"id":36,"left_children":[1,3,5,7,-1,-1,-1,-1,-1],"loss_changes":[4.3321848E-1,1.8705516E-1,4.140103E-2,1.7645174E-1,0E0,0E0,0E0,0E0,0E0],"parents":[2147483647,0,0,1,1,2,2,3,3],"right_children":[2,4,6,8,-1,-1,-1,-1,-1],"split_conditions":[5E-2,4E-2,8E-1,2E-2,-3.8500715E-2,7.967534E-2,6.783986E-3,-7.6039406E-3,3.3753633E-2],"split_indices":[2,2,0,2,0,0,0,0,0],"split_type":[0,0,0,0,0,0,0,0,0],"sum_hessian":[1.5E1,1.3E1,2E0,1.2E1,1E0,1E0,1E0,8E0,4E0],"tree_param":{"num_deleted":"0","num_feature":"5","num_nodes":"9","size_leaf_vector":"1"}},{"base_weights":[4.5825735E-2,-5.7579294E-2,3.285454E-1,-9.441137E-3,-3.6575675E-2,7.569156E-2,6.444788E-3,7.4152774E-3,-1.800054E-2],"categories":[],"categories_nodes":[],"categories_segments":[],"categories_sizes":[],"default_left":[0,0,0,0,0,0,0,0,0],"id":37,"left_children":[1,3,5,7,-1,-1,-1,-1,-1],"loss_changes":[5.53741E-1,8.5295275E-2,3.7364364E-2,6.2476262E-2,0E0,0E0,0E0,0E0,0E0],"parents":[2147483647,0,0,1,1,2,2,3,3],"right_children":[2,4,6,8,-1,-1,-1,-1,-1],"split_conditions":[5E-2,4E-2,8E-1,9E-1,-3.6575675E-2,7.569156E-2,6.444788E-3,7.4152774E-3,-1.800054E-2],"split_indices":[2,2,0,0,0,0,0,0,0],"split_type":[0,0,0,0,0,0,0,0,0],"sum_hessian":[1.4E1,1.2E1,2E0,1.1E1,1E0,1E0,1E0,8E0,3E0],"tree_param":{"num_deleted":"0","num_feature":"5","num_nodes":"9","size_leaf_vector":"1"}},{"base_weights":[7.465711E-2,-8.359152E-3,3.1211814E-1,3.4552008E-2,-3.4746885E-2,7.1907E-2,6.1225416E-3,-8.1547825E-3,2.977483E-2],"categories":[],"categories_nodes":[],"categories_segments":[],"categories_sizes":[],"default_left":[0,0,0,0,0,0,0,0,0],"id":38,"left_children":[1,3,5,7,-1,-1,-1,-1,-1],"loss_changes":[3.8237655E-1,1.3864818E-1,3.3721447E-2,1.5599325E-1,0E0,0E0,0E0,0E0,0E0],"parents":[2147483647,0,0,1,1,2,2,3,3],"right_children":[2,4,6,8,-1,-1,-1,-1,-1],"split_conditions":[5E-2,4E-2,8E-1,2E-2,-3.4746885E-2,7.1907E-2,6.1225416E-3,-8.1547825E-3,2.977483E-2],"split_indices":[2,2,0,2,0,0,0,0,0],"split_type":[0,0,0,0,0,0,0,0,0],"sum_hessian":[1.6E1,1.4E1,2E0,1.3E1,1E0,1E0,1E0,9E0,4E0],"tree_param":{"num_deleted":"0","num_feature":"5","num_nodes":"9","size_leaf_vector":"1"}},{"base_weights":[3.0307332E-2,-5.856432E-2,2.9651222E-1,-1.845587E-2,-3.3009555E-2,5.816412E-3,6.831165E-2,-1.6649319E-2,3.7106914E-3],"categories":[],"categories_nodes":[],"categories_segments":[],"categories_sizes":[],"default_left":[0,0,0,0,0,0,0,0,0],"id":39,"left_children":[1,3,5,7,-1,-1,-1,-1,-1],"loss_changes":[4.7794038E-1,5.9195872E-2,3.0433625E-2,4.0601447E-2,0E0,0E0,0E0,0E0,0E0],"parents":[2147483647,0,0,1,1,2,2,3,3],"right_children":[2,4,6,8,-1,-1,-1,-1,-1],"split_conditions":[5E-2,4E-2,1.25E-1,6.7E-2,-3.3009555E-2,5.816412E-3,6.831165E-2,-1.6649319E-2,3.7106914E-3],"split_indices":[2,2,1,3,0,0,0,0,0],"split_type":[0,0,0,0,0,0,0,0,0],"sum_hessian":[1.5E1,1.3E1,2E0,1.2E1,1E0,1E0,1E0,3E0,9E0],"tree_param":{"num_deleted":"0","num_feature":"5","num_nodes":"9","size_leaf_vector":"1"}},{"base_weights":[7.182646E-2,-7.222295E-3,2.816866E-1,3.4108322E-2,-3.1359076E-2,6.489606E-2,5.525589E-3,-7.580224E-3,2.652963E-2],"categories":[],"categories_nodes":[],"categories_segments":[],"categories_sizes":[],"default_left":[0,0,0,0,0,0,0,0,0],"id":40,"left_children":[1,3,5,7,-1,-1,-1,-1,-1],"loss_changes":[3.0470854E-1,1.1495525E-1,2.7466387E-2,1.2151952E-1,0E0,0E0,0E0,0E0,0E0],"parents":[2147483647,0,0,1,1,2,2,3,3],"right_children":[2,4,6,8,-1,-1,-1,-1,-1],"split_conditions":[5E-2,4E-2,8E-1,2E-2,-3.1359076E-2,6.489606E-2,5.525589E-3,-7.580224E-3,2.652963E-2],"split_indices":[2,2,0,2,0,0,0,0,0],"split_type":[0,0,0,0,0,0,0,0,0],"sum_hessian":[1.5E1,1.3E1,2E0,1.2E1,1E0,1E0,1E0,8E0,4E0],"tree_param":{"num_deleted":"0","num_feature":"5","num_nodes":"9","size_leaf_vector":"1"}},{"base_weights":[7.4202694E-2,-1.4770031E-4,2.6760235E-1,3.9563943E-2,-2.9791117E-2,6.165128E-2,5.24931E-3,1.7572666E-2,-1.536336E-2],"categories":[],"categories_nodes":[],"categories_segments":[],"categories_sizes":[],"default_left":[0,0,0,0,0,0,0,0,0],"id":41,"left_children":[1,3,5,7,-1,-1,-1,-1,-1],"loss_changes":[2.5894672E-1,1.1223029E-1,2.478844E-2,1.04564905E-1,0E0,0E0,0E0,0E0,0E0],"parents":[2147483647,0,0,1,1,2,2,3,3],"right_children":[2,4,6,8,-1,-1,-1,-1,-1],"split_conditions":[5E-2,4E-2,8E-1,9E-1,-2.9791117E-2,6.165128E-2,5.24931E-3,1.7572666E-2,-1.536336E-2],"split_indices":[2,2,0,0,0,0,0,0,0],"split_type":[0,0,0,0,0,0,0,0,0],"sum_hessian":[1.5E1,1.3E1,2E0,1.2E1,1E0,1E0,1E0,9E0,3E0],"tree_param":{"num_deleted":"0","num_feature":"5","num_nodes":"9","size_leaf_vector":"1"}},{"base_weights":[8.435419E-2,-4.946934E-2,2.3672873E-1,-9.176077E-2,1.4023236E-2,4.9868347E-3,5.1259805E-2,-2.3342585E-2,2.8976083E-3,8.974091E-3,-8.553005E-3],"categories":[],"categories_nodes":[],"categories_segments":[],"categories_sizes":[],"default_left":[0,0,0,0,0,0,0,0,0,0,0],"id":42,"left_children":[1,3,5,7,9,-1,-1,-1,-1,-1,-1],"loss_changes":[3.613932E-1,3.339746E-2,1.3987243E-2,2.3630787E-2,1.8018978E-2,0E0,0E0,0E0,0E0,0E0,0E0],"parents":[2147483647,0,0,1,1,2,2,3,3,4,4],"right_children":[2,4,6,8,10,-1,-1,-1,-1,-1,-1],"split_conditions":[2E-2,1E-1,2.5E0,1E-2,1E-2,4.9868347E-3,5.1259805E-2,-2.3342585E-2,2.8976083E-3,8.974091E-3,-8.553005E-3],"split_indices":[2,1,4,2,2,0,0,0,0,0,0],"split_type":[0,0,0,0,0,0,0,0,0,0,0],"sum_hessian":[1.3E1,8E0,5E0,4E0,4E0,1E0,4E0,3E0,1E0,3E0,1E0],"tree_param":{"num_deleted":"0","num_feature":"5","num_nodes":"11","size_leaf_vector":"1"}},{"base_weights":[5.4421067E-2,-1.4705315E-2,2.4297285E-1,-6.134518E-2,3.4244634E-2,5.6005716E-2,4.7374964E-3,-4.3269536E-3,-3.086455E-2],"categories":[],"categories_nodes":[],"categories_segments":[],"categories_sizes":[],"default_left":[0,0,0,0,0,0,0,0,0],"id":43,"left_children":[1,3,5,7,-1,-1,-1,-1,-1],"loss_changes":[2.4532923E-1,1.70258E-1,2.0729363E-2,4.536645E-2,0E0,0E0,0E0,0E0,0E0],"parents":[2147483647,0,0,1,1,2,2,3,3],"right_children":[2,4,6,8,-1,-1,-1,-1,-1],"split_conditions":[5E-2,5E0,8E-1,4E-2,3.4244634E-2,5.6005716E-2,4.7374964E-3,-4.3269536E-3,-3.086455E-2],"split_indices":[2,4,0,2,0,0,0,0,0],"split_type":[0,0,0,0,0,0,0,0,0],"sum_hessian":[1.5E1,1.3E1,2E0,1.2E1,1E0,1E0,1E0,1.1E1,1E0],"tree_param":{"num_deleted":"0","num_feature":"5","num_nodes":"9","size_leaf_vector":"1"}},{"base_weights":[6.425169E-3,-6.490427E-2,2.3082428E-1,-3.013614E-2,-2.9321313E-2,5.320544E-2,4.5006275E-3,-3.2330354E-4,-1.4421463E-2],"categories":[],"categories_nodes":[],"categories_segments":[],"categories_sizes":[],"default_left":[0,0,0,0,0,0,0,0,0],"id":44,"left_children":[1,3,5,7,-1,-1,-1,-1,-1],"loss_changes":[3.3305717E-1,3.219571E-2,1.8708259E-2,1.7605342E-2,0E0,0E0,0E0,0E0,0E0],"parents":[2147483647,0,0,1,1,2,2,3,3],"right_children":[2,4,6,8,-1,-1,-1,-1,-1],"split_conditions":[5E-2,4E-2,8E-1,9E-1,-2.9321313E-2,5.320544E-2,4.5006275E-3,-3.2330354E-4,-1.4421463E-2],"split_indices":[2,2,0,0,0,0,0,0,0],"split_type":[0,0,0,0,0,0,0,0,0],"sum_hessian":[1.5E1,1.3E1,2E0,1.2E1,1E0,1E0,1E0,9E0,3E0],"tree_param":{"num_deleted":"0","num_feature":"5","num_nodes":"9","size_leaf_vector":"1"}},{"base_weights":[1.9447971E-2,-5.647901E-2,5.5843737E-2,-1.1134028E-2,-1.6427446E-2,7.686641E-2,-9.821415E-3,-5.6242943E-3,3.6901594E-3,2.234557E-2,-2.7717908E-3],"categories":[],"categories_nodes":[],"categories_segments":[],"categories_sizes":[],"default_left":[0,0,0,0,0,0,0,0,0,0,0],"id":45,"left_children":[1,3,5,7,-1,9,-1,-1,-1,-1,-1],"loss_changes":[5.644015E-2,5.4007433E-3,4.0006556E-2,4.572014E-3,0E0,4.259909E-2,0E0,0E0,0E0,0E0,0E0],"parents":[2147483647,0,0,1,1,2,2,3,3,5,5],"right_children":[2,4,6,8,-1,10,-1,-1,-1,-1,-1],"split_conditions":[7.5E-2,1E0,1E1,9.5E-1,-1.6427446E-2,1.25E-1,-9.821415E-3,-5.6242943E-3,3.6901594E-3,2.234557E-2,-2.7717908E-3],"split_indices":[3,0,4,0,0,3,0,0,0,0,0],"split_type":[0,0,0,0,0,0,0,0,0,0,0],"sum_hessian":[1.4E1,4E0,1E1,3E0,1E0,9E0,1E0,2E0,1E0,6E0,3E0],"tree_param":{"num_deleted":"0","num_feature":"5","num_nodes":"11","size_leaf_vector":"1"}},{"base_weights":[4.2838044E-2,-1.9109786E-2,2.1536827E-1,1.8246269E-2,-2.897253E-2,5.0683737E-2,3.158331E-3,1.07452E-2,-1.2367264E-2],"categories":[],"categories_nodes":[],"categories_segments":[],"categories_sizes":[],"default_left":[0,0,0,0,0,0,0,0,0],"id":46,"left_children":[1,3,5,7,-1,-1,-1,-1,-1],"loss_changes":[2.0472863E-1,8.3091706E-2,2.5964186E-2,5.2586287E-2,0E0,0E0,0E0,0E0,0E0],"parents":[2147483647,0,0,1,1,2,2,3,3],"right_children":[2,4,6,8,-1,-1,-1,-1,-1],"split_conditions":[5E-2,4E-2,8E-1,9E-1,-2.897253E-2,5.0683737E-2,3.158331E-3,1.07452E-2,-1.2367264E-2],"split_indices":[2,2,0,0,0,0,0,0,0],"split_type":[0,0,0,0,0,0,0,0,0],"sum_hessian":[1.5E1,1.3E1,2E0,1.2E1,1E0,1E0,1E0,9E0,3E0],"tree_param":{"num_deleted":"0","num_feature":"5","num_nodes":"9","size_leaf_vector":"1"}},{"base_weights":[-2.3003325E-2,-9.4270356E-2,2.0459977E-1,-1.1040054E-1,6.577611E-3,4.8149537E-2,3.0004026E-3,-3.953097E-3,-3.4192957E-2],"categories":[],"categories_nodes":[],"categories_segments":[],"categories_sizes":[],"default_left":[0,0,0,0,0,0,0,0,0],"id":47,"left_children":[1,3,5,7,-1,-1,-1,-1,-1],"loss_changes":[3.3361322E-1,4.1658908E-2,2.3432717E-2,6.67118E-2,0E0,0E0,0E0,0E0,0E0],"parents":[2147483647,0,0,1,1,2,2,3,3],"right_children":[2,4,6,8,-1,-1,-1,-1,-1],"split_conditions":[5E-2,1.5E-1,8E-1,1E-1,6.577611E-3,4.8149537E-2,3.0004026E-3,-3.953097E-3,-3.4192957E-2],"split_indices":[2,3,0,3,0,0,0,0,0],"split_type":[0,0,0,0,0,0,0,0,0],"sum_hessian":[1.4E1,1.2E1,2E0,1.1E1,1E0,1E0,1E0,6E0,5E0],"tree_param":{"num_deleted":"0","num_feature":"5","num_nodes":"9","size_leaf_vector":"1"}},{"base_weights":[-7.323848E-3,-3.8796514E-2,9.778299E-2,-1.1533363E-2,-9.185543E-2,-8.157945E-3,3.2603692E-2,2.8554257E-3,-1.7353488E-2,-2.5814248E-2,2.8503896E-3],"categories":[],"categories_nodes":[],"categories_segments":[],"categories_sizes":[],"default_left":[0,0,0,0,0,0,0,0,0,0,0],"id":48,"left_children":[1,3,5,7,9,-1,-1,-1,-1,-1,-1],"loss_changes":[7.092478E-2,1.9966647E-2,6.514772E-2,3.0901965E-2,2.5262907E-2,0E0,0E0,0E0,0E0,0E0,0E0],"parents":[2147483647,0,0,1,1,2,2,3,3,4,4],"right_children":[2,4,6,8,10,-1,-1,-1,-1,-1,-1],"split_conditions":[5E0,4E-2,2E-2,3.3333333E0,5E-2,-8.157945E-3,3.2603692E-2,2.8554257E-3,-1.7353488E-2,-2.5814248E-2,2.8503896E-3],"split_indices":[4,2,2,4,2,0,0,0,0,0,0],"split_type":[0,0,0,0,0,0,0,0,0,0,0],"sum_hessian":[1.5E1,1.3E1,2E0,1.1E1,2E0,1E0,1E0,1E1,1E0,1E0,1E0],"tree_param":{"num_deleted":"0","num_feature":"5","num_nodes":"11","size_leaf_vector":"1"}},{"base_weights":[8.664738E-2,3.0014975E-2,1.9322968E-1,7.005235E-2,-2.4523545E-2,4.5599557E-2,2.707863E-3,1.8527724E-2,-4.3337727E-3],"categories":[],"categories_nodes":[],"categories_segments":[],"categories_sizes":[],"default_left":[0,0,0,0,0,0,0,0,0],"id":49,"left_children":[1,3,5,7,-1,-1,-1,-1,-1],"loss_changes":[7.9176836E-2,1.11323155E-1,2.1976665E-2,3.295344E-2,0E0,0E0,0E0,0E0,0E0],"parents":[2147483647,0,0,1,1,2,2,3,3],"right_children":[2,4,6,8,-1,-1,-1,-1,-1],"split_conditions":[5E-2,4E-2,8E-1,1.25E-1,-2.4523545E-2,4.5599557E-2,2.707863E-3,1.8527724E-2,-4.3337727E-3],"split_indices":[2,2,0,1,0,0,0,0,0],"split_type":[0,0,0,0,0,0,0,0,0],"sum_hessian":[1.3E1,1.1E1,2E0,1E1,1E0,1E0,1E0,8E0,2E0],"tree_param":{"num_deleted":"0","num_feature":"5","num_nodes":"9","size_leaf_vector":"1"}},{"base_weights":[2.8871462E-2,-2.1722512E-2,1.8356809E-1,-5.311311E-2,8.548279E-2,4.331956E-2,2.572465E-3,-4.7249934E-3,-2.3297358E-2,-8.676434E-3,3.0047132E-2],"categories":[],"categories_nodes":[],"categories_segments":[],"categories_sizes":[],"default_left":[0,0,0,0,0,0,0,0,0,0,0],"id":50,"left_children":[1,3,5,7,9,-1,-1,-1,-1,-1,-1],"loss_changes":[1.6067031E-1,7.082983E-2,1.9833952E-2,1.9775592E-2,6.127452E-2,0E0,0E0,0E0,0E0,0E0,0E0],"parents":[2147483647,0,0,1,1,2,2,3,3,4,4],"right_children":[2,4,6,8,10,-1,-1,-1,-1,-1,-1],"split_conditions":[5E-2,5E0,8E-1,4E-2,2E-2,4.331956E-2,2.572465E-3,-4.7249934E-3,-2.3297358E-2,-8.676434E-3,3.0047132E-2],"split_indices":[2,4,0,2,2,0,0,0,0,0,0],"split_type":[0,0,0,0,0,0,0,0,0,0,0],"sum_hessian":[1.6E1,1.4E1,2E0,1.2E1,2E0,1E0,1E0,1.1E1,1E0,1E0,1E0],"tree_param":{"num_deleted":"0","num_feature":"5","num_nodes":"11","size_leaf_vector":"1"}},{"base_weights":[4.305821E-2,-4.4390082E-2,8.6936034E-2,-6.620537E-2,5.415845E-3,1.0791838E-1,-8.242607E-3,-1.6154595E-2,-2.3829078E-3,2.3562891E-2,-4.6920777E-5],"categories":[],"categories_nodes":[],"categories_segments":[],"categories_sizes":[],"default_left":[0,0,0,0,0,0,0,0,0,0,0],"id":51,"left_children":[1,3,5,7,-1,9,-1,-1,-1,-1,-1],"loss_changes":[8.064403E-2,1.7851355E-2,4.8298202E-2,2.6490912E-3,0E0,1.2926415E-2,0E0,0E0,0E0,0E0,0E0],"parents":[2147483647,0,0,1,1,2,2,3,3,5,5],"right_children":[2,4,6,8,-1,10,-1,-1,-1,-1,-1],"split_conditions":[7.5E-2,1.5E-1,1E1,2E0,5.415845E-3,1.33E-1,-8.242607E-3,-1.6154595E-2,-2.3829078E-3,2.3562891E-2,-4.6920777E-5],"split_indices":[1,3,4,4,0,1,0,0,0,0,0],"split_type":[0,0,0,0,0,0,0,0,0,0,0],"sum_hessian":[1.5E1,5E0,1E1,4E0,1E0,9E0,1E0,2E0,2E0,8E0,1E0],"tree_param":{"num_deleted":"0","num_feature":"5","num_nodes":"11","size_leaf_vector":"1"}},{"base_weights":[-9.5288195E-3,-6.5787524E-2,1.6496459E-1,-7.78367E-2,5.145049E-3,3.9975453E-2,1.2656928E-3,-1.851528E-2,-6.4131557E-3],"categories":[],"categories_nodes":[],"categories_segments":[],"categories_sizes":[],"default_left":[0,0,0,0,0,0,0,0,0],"id":52,"left_children":[1,3,5,7,-1,-1,-1,-1,-1],"loss_changes":[1.9944297E-1,2.254691E-2,2.3897305E-2,5.3949654E-4,0E0,0E0,0E0,0E0,0E0],"parents":[2147483647,0,0,1,1,2,2,3,3],"right_children":[2,4,6,8,-1,-1,-1,-1,-1],"split_conditions":[5E-2,1.5E-1,8E-1,8.5E-1,5.145049E-3,3.9975453E-2,1.2656928E-3,-1.851528E-2,-6.4131557E-3],"split_indices":[2,3,0,0,0,0,0,0,0],"split_type":[0,0,0,0,0,0,0,0,0],"sum_hessian":[1.4E1,1.2E1,2E0,1.1E1,1E0,1E0,1E0,6E0,5E0],"tree_param":{"num_deleted":"0","num_feature":"5","num_nodes":"9","size_leaf_vector":"1"}},{"base_weights":[8.606685E-3,-3.9291367E-2,1.5671644E-1,-1.2064282E-2,-2.2384882E-2,3.7976693E-2,1.2024165E-3,-1.1286128E-2,1.2564938E-2],"categories":[],"categories_nodes":[],"categories_segments":[],"categories_sizes":[],"default_left":[0,0,0,0,0,0,0,0,0],"id":53,"left_children":[1,3,5,7,-1,-1,-1,-1,-1],"loss_changes":[1.4616784E-1,2.7590513E-2,2.15673E-2,6.0473982E-2,0E0,0E0,0E0,0E0,0E0],"parents":[2147483647,0,0,1,1,2,2,3,3],"right_children":[2,4,6,8,-1,-1,-1,-1,-1],"split_conditions":[5E-2,4E-2,8E-1,2E-2,-2.2384882E-2,3.7976693E-2,1.2024165E-3,-1.1286128E-2,1.2564938E-2],"split_indices":[2,2,0,2,0,0,0,0,0],"split_type":[0,0,0,0,0,0,0,0,0],"sum_hessian":[1.5E1,1.3E1,2E0,1.2E1,1E0,1E0,1E0,8E0,4E0],"tree_param":{"num_deleted":"0","num_feature":"5","num_nodes":"9","size_leaf_vector":"1"}},{"base_weights":[-3.3424795E-3,-3.4282513E-2,8.52951E-2,9.586864E-3,-7.077962E-2,-6.340408E-3,2.7664185E-2,9.122187E-3,-1.3930285E-2,-2.5453249E-2,7.894421E-3],"categories":[],"categories_nodes":[],"categories_segments":[],"categories_sizes":[],"default_left":[0,0,0,0,0,0,0,0,0,0,0],"id":54,"left_children":[1,3,5,7,9,-1,-1,-1,-1,-1,-1],"loss_changes":[5.265159E-2,2.445114E-2,4.4174515E-2,3.5220973E-2,6.489238E-2,0E0,0E0,0E0,0E0,0E0,0E0],"parents":[2147483647,0,0,1,1,2,2,3,3,4,4],"right_children":[2,4,6,8,10,-1,-1,-1,-1,-1,-1],"split_conditions":[5E0,2E-2,2E-2,1E0,8.5E-1,-6.340408E-3,2.7664185E-2,9.122187E-3,-1.3930285E-2,-2.5453249E-2,7.894421E-3],"split_indices":[4,2,2,0,0,0,0,0,0,0,0],"split_type":[0,0,0,0,0,0,0,0,0,0,0],"sum_hessian":[1.3E1,1.1E1,2E0,6E0,5E0,1E0,1E0,5E0,1E0,3E0,2E0],"tree_param":{"num_deleted":"0","num_feature":"5","num_nodes":"11","size_leaf_vector":"1"}},{"base_weights":[2.98711E-2,-1.3397596E-2,1.59062E-1,1.0756269E-2,-1.9992972E-2,3.735056E-2,2.4149418E-3,7.646946E-3,-1.0831705E-2],"categories":[],"categories_nodes":[],"categories_segments":[],"categories_sizes":[],"default_left":[0,0,0,0,0,0,0,0,0],"id":55,"left_children":[1,3,5,7,-1,-1,-1,-1,-1],"loss_changes":[1.12601675E-1,3.8771622E-2,1.35860145E-2,3.4752347E-2,0E0,0E0,0E0,0E0,0E0],"parents":[2147483647,0,0,1,1,2,2,3,3],"right_children":[2,4,6,8,-1,-1,-1,-1,-1],"split_conditions":[5E-2,4E-2,8E-1,9E-1,-1.9992972E-2,3.735056E-2,2.4149418E-3,7.646946E-3,-1.0831705E-2],"split_indices":[2,2,0,0,0,0,0,0,0],"split_type":[0,0,0,0,0,0,0,0,0],"sum_hessian":[1.6E1,1.4E1,2E0,1.3E1,1E0,1E0,1E0,1E1,3E0],"tree_param":{"num_deleted":"0","num_feature":"5","num_nodes":"9","size_leaf_vector":"1"}},{"base_weights":[-7.871787E-4,1.2196827E-1,-3.900066E-2,-4.990959E-3,3.548303E-2,-1.0898011E-2,-1.8857537E-2,1.5580251E-3,-1.269219E-2],"categories":[],"categories_nodes":[],"categories_segments":[],"categories_sizes":[],"default_left":[0,0,0,0,0,0,0,0,0],"id":56,"left_children":[1,3,5,-1,-1,7,-1,-1,-1],"loss_changes":[9.870696E-2,5.401419E-2,2.1776741E-2,0E0,0E0,1.5235351E-2,0E0,0E0,0E0],"parents":[2147483647,0,0,1,1,2,2,5,5],"right_children":[2,4,6,-1,-1,8,-1,-1,-1],"split_conditions":[8E-1,2E0,3.3333333E0,-4.990959E-3,3.548303E-2,1E0,-1.8857537E-2,1.5580251E-3,-1.269219E-2],"split_indices":[0,4,4,0,0,0,0,0,0],"split_type":[0,0,0,0,0,0,0,0,0],"sum_hessian":[1.5E1,2E0,1.3E1,1E0,1E0,1.1E1,2E0,1E1,1E0],"tree_param":{"num_deleted":"0","num_feature":"5","num_nodes":"9","size_leaf_vector":"1"}},{"base_weights":[2.4237938E-2,-1.7638788E-2,1.4370069E-1,-5.069959E-2,8.551474E-2,3.370886E-2,2.2163154E-3,-5.051844E-3,-1.9071221E-2,-5.462861E-3,2.6841545E-2],"categories":[],"categories_nodes":[],"categories_segments":[],"categories_sizes":[],"default_left":[0,0,0,0,0,0,0,0,0,0,0],"id":57,"left_children":[1,3,5,7,9,-1,-1,-1,-1,-1,-1],"loss_changes":[9.765289E-2,6.75721E-2,1.0870464E-2,8.679237E-3,3.8467288E-2,0E0,0E0,0E0,0E0,0E0,0E0],"parents":[2147483647,0,0,1,1,2,2,3,3,4,4],"right_children":[2,4,6,8,10,-1,-1,-1,-1,-1,-1],"split_conditions":[5E-2,5E0,8E-1,4E-2,2E-2,3.370886E-2,2.2163154E-3,-5.051844E-3,-1.9071221E-2,-5.462861E-3,2.6841545E-2],"split_indices":[2,4,0,2,2,0,0,0,0,0,0],"split_type":[0,0,0,0,0,0,0,0,0,0,0],"sum_hessian":[1.5E1,1.3E1,2E0,1.1E1,2E0,1E0,1E0,1E1,1E0,1E0,1E0],"tree_param":{"num_deleted":"0","num_feature":"5","num_nodes":"11","size_leaf_vector":"1"}},{"base_weights":[5.0371543E-2,-2.8835386E-2,8.749007E-2,-4.663566E-2,4.7883275E-3,1.1461526E-2,1.3070983E-1,-1.1792984E-2,-1.2650014E-3,9.40891E-3,-1.1880982E-2,3.2842092E-2,-5.189729E-3],"categories":[],"categories_nodes":[],"categories_segments":[],"categories_sizes":[],"default_left":[0,0,0,0,0,0,0,0,0,0,0,0,0],"id":58,"left_children":[1,3,5,7,-1,9,11,-1,-1,-1,-1,-1,-1],"loss_changes":[6.048922E-2,1.0865167E-2,3.822276E-2,2.3601437E-3,0E0,2.8557168E-2,5.476837E-2,0E0,0E0,0E0,0E0,0E0,0E0],"parents":[2147483647,0,0,1,1,2,2,3,3,5,5,6,6],"right_children":[2,4,6,8,-1,10,12,-1,-1,-1,-1,-1,-1],"split_conditions":[7.5E-2,1.5E-1,2.5E0,2E0,4.7883275E-3,8.5E-1,1E1,-1.1792984E-2,-1.2650014E-3,9.40891E-3,-1.1880982E-2,3.2842092E-2,-5.189729E-3],"split_indices":[1,3,4,4,0,0,4,0,0,0,0,0,0],"split_type":[0,0,0,0,0,0,0,0,0,0,0,0,0],"sum_hessian":[1.5E1,5E0,1E1,4E0,1E0,5E0,5E0,2E0,2E0,4E0,1E0,4E0,1E0],"tree_param":{"num_deleted":"0","num_feature":"5","num_nodes":"13","size_leaf_vector":"1"}},{"base_weights":[4.3115735E-2,-1.2441953E-2,1.0282074E-1,2.2712972E-2,-5.8953363E-2,1.3135087E-1,-6.271017E-3,8.496475E-3,-3.7183953E-3,-1.8001823E-2,4.81627E-3,1.6350508E-3,2.9088741E-2],"categories":[],"categories_nodes":[],"categories_segments":[],"categories_sizes":[],"default_left":[0,0,0,0,0,0,0,0,0,0,0,0,0],"id":59,"left_children":[1,3,5,7,9,11,-1,-1,-1,-1,-1,-1,-1],"loss_changes":[6.354517E-2,2.3638282E-2,4.680804E-2,9.718661E-3,2.1974852E-2,1.0320038E-2,0E0,0E0,0E0,0E0,0E0,0E0,0E0],"parents":[2147483647,0,0,1,1,2,2,3,3,4,4,5,5],"right_children":[2,4,6,8,10,12,-1,-1,-1,-1,-1,-1,-1],"split_conditions":[2E-2,8.5E-1,9E-1,1.25E-1,1E-2,2.5E0,-6.271017E-3,8.496475E-3,-3.7183953E-3,-1.8001823E-2,4.81627E-3,1.6350508E-3,2.9088741E-2],"split_indices":[2,0,0,1,2,4,0,0,0,0,0,0,0],"split_type":[0,0,0,0,0,0,0,0,0,0,0,0,0],"sum_hessian":[1.5E1,9E0,6E0,6E0,3E0,5E0,1E0,4E0,2E0,2E0,1E0,1E0,4E0],"tree_param":{"num_deleted":"0","num_feature":"5","num_nodes":"13","size_leaf_vector":"1"}},{"base_weights":[1.2016717E-3,-3.9278366E-2,1.2192078E-1,-3.3370059E-3,-9.15219E-2,2.8926898E-2,1.553297E-3,-8.874603E-3,2.2402955E-2,-3.2225173E-2,1.2824893E-2],"categories":[],"categories_nodes":[],"categories_segments":[],"categories_sizes":[],"default_left":[0,0,0,0,0,0,0,0,0,0,0],"id":60,"left_children":[1,3,5,7,9,-1,-1,-1,-1,-1,-1],"loss_changes":[9.744068E-2,2.7249325E-2,9.594433E-3,7.1714215E-2,9.599793E-2,0E0,0E0,0E0,0E0,0E0,0E0],"parents":[2147483647,0,0,1,1,2,2,3,3,4,4],"right_children":[2,4,6,8,10,-1,-1,-1,-1,-1,-1],"split_conditions":[5E-2,3E-2,8E-1,2E-2,8.5E-1,2.8926898E-2,1.553297E-3,-8.874603E-3,2.2402955E-2,-3.2225173E-2,1.2824893E-2],"split_indices":[2,2,0,2,0,0,0,0,0,0,0],"split_type":[0,0,0,0,0,0,0,0,0,0,0],"sum_hessian":[1.4E1,1.2E1,2E0,9E0,3E0,1E0,1E0,8E0,1E0,2E0,1E0],"tree_param":{"num_deleted":"0","num_feature":"5","num_nodes":"11","size_leaf_vector":"1"}},{"base_weights":[2.1517992E-2,-1.6773973E-2,1.158247E-1,-4.685545E-2,6.5485954E-2,2.7480556E-2,1.4756203E-3,-3.094656E-3,-1.9602967E-2,-4.9113273E-3,2.1282816E-2],"categories":[],"categories_nodes":[],"categories_segments":[],"categories_sizes":[],"default_left":[0,0,0,0,0,0,0,0,0,0,0],"id":61,"left_children":[1,3,5,7,9,-1,-1,-1,-1,-1,-1],"loss_changes":[6.360755E-2,4.3848123E-2,8.6590275E-3,1.4716076E-2,2.626589E-2,0E0,0E0,0E0,0E0,0E0,0E0],"parents":[2147483647,0,0,1,1,2,2,3,3,4,4],"right_children":[2,4,6,8,10,-1,-1,-1,-1,-1,-1],"split_conditions":[5E-2,3.3333333E0,8E-1,4E-2,2E-2,2.7480556E-2,1.4756203E-3,-3.094656E-3,-1.9602967E-2,-4.9113273E-3,2.1282816E-2],"split_indices":[2,4,0,2,2,0,0,0,0,0,0],"split_type":[0,0,0,0,0,0,0,0,0,0,0],"sum_hessian":[1.3E1,1.1E1,2E0,9E0,2E0,1E0,1E0,8E0,1E0,1E0,1E0],"tree_param":{"num_deleted":"0","num_feature":"5","num_nodes":"11","size_leaf_vector":"1"}},{"base_weights":[7.697884E-2,-1.737796E-2,1.4567603E-1,-5.0396144E-2,1.2338377E-2,1.7554992E-1,-4.665756E-3,-1.2145213E-2,1.0956646E-3,4.7225477E-3,3.7427098E-2],"categories":[],"categories_nodes":[],"categories_segments":[],"categories_sizes":[],"default_left":[0,0,0,0,0,0,0,0,0,0,0],"id":62,"left_children":[1,3,5,7,-1,9,-1,-1,-1,-1,-1],"loss_changes":[1.04825355E-1,3.2823782E-2,5.772558E-2,5.6154598E-3,0E0,8.2588196E-4,0E0,0E0,0E0,0E0,0E0],"parents":[2147483647,0,0,1,1,2,2,3,3,5,5],"right_children":[2,4,6,8,-1,10,-1,-1,-1,-1,-1],"split_conditions":[1E-1,3E-2,1E1,1E-1,1.2338377E-2,6.7E-2,-4.665756E-3,-1.2145213E-2,1.0956646E-3,4.7225477E-3,3.7427098E-2],"split_indices":[3,2,4,1,0,1,0,0,0,0,0],"split_type":[0,0,0,0,0,0,0,0,0,0,0],"sum_hessian":[1.2E1,6E0,6E0,5E0,1E0,5E0,1E0,4E0,1E0,1E0,4E0],"tree_param":{"num_deleted":"0","num_feature":"5","num_nodes":"11","size_leaf_vector":"1"}},{"base_weights":[1.339646E-2,-1.6504923E-2,9.506273E-2,2.7975798E-2,-9.72139E-2,2.4235202E-2,-4.6951772E-4,1.3019971E-2,-8.339635E-3,-3.270851E-2,1.17214685E-2],"categories":[],"categories_nodes":[],"categories_segments":[],"categories_sizes":[],"default_left":[0,0,0,0,0,0,0,0,0,0,0],"id":63,"left_children":[1,3,5,7,9,-1,-1,-1,-1,-1,-1],"loss_changes":[4.6219897E-2,6.2008813E-2,1.3571925E-2,3.91826E-2,9.076688E-2,0E0,0E0,0E0,0E0,0E0,0E0],"parents":[2147483647,0,0,1,1,2,2,3,3,4,4],"right_children":[2,4,6,8,10,-1,-1,-1,-1,-1,-1],"split_conditions":[5E-2,3E-2,8E-1,8.5E-1,8.5E-1,2.4235202E-2,-4.6951772E-4,1.3019971E-2,-8.339635E-3,-3.270851E-2,1.17214685E-2],"split_indices":[2,2,0,0,0,0,0,0,0,0,0],"split_type":[0,0,0,0,0,0,0,0,0,0,0],"sum_hessian":[1.4E1,1.2E1,2E0,9E0,3E0,1E0,1E0,6E0,3E0,2E0,1E0],"tree_param":{"num_deleted":"0","num_feature":"5","num_nodes":"11","size_leaf_vector":"1"}},{"base_weights":[9.252297E-3,-1.7812952E-2,9.030972E-2,1.8813921E-2,-8.8264704E-2,2.3023462E-2,-4.460335E-4,-4.6622395E-3,1.0776765E-2,-3.009184E-2,1.1135387E-2],"categories":[],"categories_nodes":[],"categories_segments":[],"categories_sizes":[],"default_left":[0,0,0,0,0,0,0,0,0,0,0],"id":64,"left_children":[1,3,5,7,9,-1,-1,-1,-1,-1,-1],"loss_changes":[4.431516E-2,4.6268653E-2,1.224865E-2,2.2973496E-2,7.8845575E-2,0E0,0E0,0E0,0E0,0E0,0E0],"parents":[2147483647,0,0,1,1,2,2,3,3,4,4],"right_children":[2,4,6,8,10,-1,-1,-1,-1,-1,-1],"split_conditions":[5E-2,3E-2,8E-1,1E-1,8.5E-1,2.3023462E-2,-4.460335E-4,-4.6622395E-3,1.0776765E-2,-3.009184E-2,1.1135387E-2],"split_indices":[2,2,0,1,0,0,0,0,0,0,0],"split_type":[0,0,0,0,0,0,0,0,0,0,0],"sum_hessian":[1.5E1,1.3E1,2E0,1E1,3E0,1E0,1E0,5E0,5E0,2E0,1E0],"tree_param":{"num_deleted":"0","num_feature":"5","num_nodes":"11","size_leaf_vector":"1"}},{"base_weights":[-3.5525623E-4,5.8544733E-2,-1.761609E-2,-7.2360993E-3,2.1872282E-2,-3.5345156E-2,4.6140768E-2,-2.6449782E-3,-1.7251445E-2,1.7157508E-2,-5.6223157E-3],"categories":[],"categories_nodes":[],"categories_segments":[],"categories_sizes":[],"default_left":[0,0,0,0,0,0,0,0,0,0,0],"id":65,"left_children":[1,3,5,-1,-1,7,9,-1,-1,-1,-1],"loss_changes":[2.241058E-2,3.5938356E-2,2.41085E-2,0E0,0E0,1.3470601E-2,2.1954196E-2,0E0,0E0,0E0,0E0],"parents":[2147483647,0,0,1,1,2,2,5,5,6,6],"right_children":[2,4,6,-1,-1,8,10,-1,-1,-1,-1],"split_conditions":[8E-1,2E0,5E0,-7.2360993E-3,2.1872282E-2,3.3333333E0,1E1,-2.6449782E-3,-1.7251445E-2,1.7157508E-2,-5.6223157E-3],"split_indices":[0,4,4,0,0,4,4,0,0,0,0],"split_type":[0,0,0,0,0,0,0,0,0,0,0],"sum_hessian":[1.6E1,2E0,1.4E1,1E0,1E0,1.2E1,2E0,1.1E1,1E0,1E0,1E0],"tree_param":{"num_deleted":"0","num_feature":"5","num_nodes":"11","size_leaf_vector":"1"}},{"base_weights":[6.8938863E-3,-1.7853335E-2,8.194866E-2,1.3257339E-2,-7.633313E-2,2.0778656E-2,-2.9149055E-4,-2.5607864E-3,1.629963E-2,-2.6888639E-2,1.071086E-2],"categories":[],"categories_nodes":[],"categories_segments":[],"categories_sizes":[],"default_left":[0,0,0,0,0,0,0,0,0,0,0],"id":66,"left_children":[1,3,5,7,9,-1,-1,-1,-1,-1,-1],"loss_changes":[3.782232E-2,3.2145448E-2,9.605836E-3,2.6250238E-2,6.688662E-2,0E0,0E0,0E0,0E0,0E0,0E0],"parents":[2147483647,0,0,1,1,2,2,3,3,4,4],"right_children":[2,4,6,8,10,-1,-1,-1,-1,-1,-1],"split_conditions":[5E-2,3E-2,8E-1,2E-2,8.5E-1,2.0778656E-2,-2.9149055E-4,-2.5607864E-3,1.629963E-2,-2.6888639E-2,1.071086E-2],"split_indices":[2,2,0,2,0,0,0,0,0,0,0],"split_type":[0,0,0,0,0,0,0,0,0,0,0],"sum_hessian":[1.5E1,1.3E1,2E0,1E1,3E0,1E0,1E0,9E0,1E0,2E0,1E0],"tree_param":{"num_deleted":"0","num_feature":"5","num_nodes":"11","size_leaf_vector":"1"}},{"base_weights":[-1.6723787E-2,1.0474296E-2,-6.0067177E-2,5.096629E-2,-4.607582E-2,-1.0399612E-1,1.0175324E-2,1.6897012E-2,-5.307951E-3,-1.3175889E-2,2.746582E-4,-2.473753E-2,-2.7692318E-4],"categories":[],"categories_nodes":[],"categories_segments":[],"categories_sizes":[],"default_left":[0,0,0,0,0,0,0,0,0,0,0,0,0],"id":67,"left_children":[1,3,5,7,9,11,-1,-1,-1,-1,-1,-1,-1],"loss_changes":[2.1928055E-2,3.6812693E-2,4.9988415E-2,3.0107798E-2,6.8490654E-3,1.1609688E-2,0E0,0E0,0E0,0E0,0E0,0E0,0E0],"parents":[2147483647,0,0,1,1,2,2,3,3,4,4,5,5],"right_children":[2,4,6,8,10,12,-1,-1,-1,-1,-1,-1,-1],"split_conditions":[3E-2,8.5E-1,8.5E-1,1.25E-1,1E-2,5E-2,1.0175324E-2,1.6897012E-2,-5.307951E-3,-1.3175889E-2,2.746582E-4,-2.473753E-2,-2.7692318E-4],"split_indices":[2,0,0,1,2,2,0,0,0,0,0,0,0],"split_type":[0,0,0,0,0,0,0,0,0,0,0,0,0],"sum_hessian":[1.4E1,1E1,4E0,6E0,4E0,3E0,1E0,4E0,2E0,2E0,2E0,2E0,1E0],"tree_param":{"num_deleted":"0","num_feature":"5","num_nodes":"13","size_leaf_vector":"1"}},{"base_weights":[-1.5253252E-2,7.6721013E-3,-1.5892487E-2,5.3090762E-2,-1.0192871E-2,-6.480861E-3,1.9753551E-2,1.2471492E-4,-7.5403336E-3],"categories":[],"categories_nodes":[],"categories_segments":[],"categories_sizes":[],"default_left":[0,0,0,0,0,0,0,0,0],"id":68,"left_children":[1,3,-1,5,7,-1,-1,-1,-1],"loss_changes":[2.832526E-2,1.4605892E-2,0E0,2.9127292E-2,4.236193E-3,0E0,0E0,0E0,0E0],"parents":[2147483647,0,0,1,1,3,3,4,4],"right_children":[2,4,-1,6,8,-1,-1,-1,-1],"split_conditions":[3.3333333E0,8E-1,-1.5892487E-2,2E0,1E0,-6.480861E-3,1.9753551E-2,1.2471492E-4,-7.5403336E-3],"split_indices":[4,0,0,4,0,0,0,0,0],"split_type":[0,0,0,0,0,0,0,0,0],"sum_hessian":[1.5E1,1.3E1,2E0,2E0,1.1E1,1E0,1E0,1E1,1E0],"tree_param":{"num_deleted":"0","num_feature":"5","num_nodes":"9","size_leaf_vector":"1"}},{"base_weights":[3.1017505E-3,-1.8293997E-2,7.398625E-2,-3.4294542E-2,4.0684033E-2,1.876588E-2,-2.6931762E-4,-4.920656E-4,-1.3924415E-2,-5.2634003E-3,1.5434409E-2],"categories":[],"categories_nodes":[],"categories_segments":[],"categories_sizes":[],"default_left":[0,0,0,0,0,0,0,0,0,0,0],"id":69,"left_children":[1,3,5,7,9,-1,-1,-1,-1,-1,-1],"loss_changes":[3.287642E-2,2.0228289E-2,7.853253E-3,1.6355487E-2,1.8316481E-2,0E0,0E0,0E0,0E0,0E0,0E0],"parents":[2147483647,0,0,1,1,2,2,3,3,4,4],"right_children":[2,4,6,8,10,-1,-1,-1,-1,-1,-1],"split_conditions":[5E-2,5E0,8E-1,2E-2,2E-2,1.876588E-2,-2.6931762E-4,-4.920656E-4,-1.3924415E-2,-5.2634003E-3,1.5434409E-2],"split_indices":[2,4,0,2,2,0,0,0,0,0,0],"split_type":[0,0,0,0,0,0,0,0,0,0,0],"sum_hessian":[1.6E1,1.4E1,2E0,1.2E1,2E0,1E0,1E0,8E0,4E0,1E0,1E0],"tree_param":{"num_deleted":"0","num_feature":"5","num_nodes":"11","size_leaf_vector":"1"}},{"base_weights":[-8.47097E-3,-2.2483714E-2,3.8649846E-2,-6.494335E-3,-1.2316751E-2,1.4662695E-2,-5.0002337E-3,7.9774857E-4,-7.1387175E-3],"categories":[],"categories_nodes":[],"categories_segments":[],"categories_sizes":[],"default_left":[0,0,0,0,0,0,0,0,0],"id":70,"left_children":[1,3,5,7,-1,-1,-1,-1,-1],"loss_changes":[1.383194E-2,8.177945E-3,1.6530644E-2,4.71249E-3,0E0,0E0,0E0,0E0,0E0],"parents":[2147483647,0,0,1,1,2,2,3,3],"right_children":[2,4,6,8,-1,-1,-1,-1,-1],"split_conditions":[5E0,3.3333333E0,1E1,1E0,-1.2316751E-2,1.4662695E-2,-5.0002337E-3,7.9774857E-4,-7.1387175E-3],"split_indices":[4,4,4,0,0,0,0,0,0],"split_type":[0,0,0,0,0,0,0,0,0],"sum_hessian":[1.4E1,1.2E1,2E0,1.1E1,1E0,1E0,1E0,1E1,1E0],"tree_param":{"num_deleted":"0","num_feature":"5","num_nodes":"9","size_leaf_vector":"1"}},{"base_weights":[4.743237E-3,4.6462536E-2,-8.364187E-3,-6.172109E-3,1.7787743E-2,-2.1718519E-2,3.6717318E-2,-1.3108492E-3,-1.1700916E-2,1.3929558E-2,-4.750228E-3],"categories":[],"categories_nodes":[],"categories_segments":[],"categories_sizes":[],"default_left":[0,0,0,0,0,0,0,0,0,0,0],"id":71,"left_children":[1,3,5,-1,-1,7,9,-1,-1,-1,-1],"loss_changes":[1.1555683E-2,2.4656033E-2,1.2626903E-2,0E0,0E0,7.217148E-3,1.4918917E-2,0E0,0E0,0E0,0E0],"parents":[2147483647,0,0,1,1,2,2,5,5,6,6],"right_children":[2,4,6,-1,-1,8,10,-1,-1,-1,-1],"split_conditions":[8E-1,2E0,5E0,-6.172109E-3,1.7787743E-2,3.3333333E0,1E1,-1.3108492E-3,-1.1700916E-2,1.3929558E-2,-4.750228E-3],"split_indices":[0,4,4,0,0,4,4,0,0,0,0],"split_type":[0,0,0,0,0,0,0,0,0,0,0],"sum_hessian":[1.6E1,2E0,1.4E1,1E0,1E0,1.2E1,2E0,1.1E1,1E0,1E0,1E0],"tree_param":{"num_deleted":"0","num_feature":"5","num_nodes":"11","size_leaf_vector":"1"}},{"base_weights":[5.023492E-3,-1.3995101E-2,6.667261E-2,2.5364012E-3,-1.3924956E-2,1.6898347E-2,-2.3019314E-4,-1.9117866E-3,6.976299E-3],"categories":[],"categories_nodes":[],"categories_segments":[],"categories_sizes":[],"default_left":[0,0,0,0,0,0,0,0,0],"id":72,"left_children":[1,3,5,7,-1,-1,-1,-1,-1],"loss_changes":[2.507638E-2,1.6163707E-2,6.3345227E-3,7.259885E-3,0E0,0E0,0E0,0E0,0E0],"parents":[2147483647,0,0,1,1,2,2,3,3],"right_children":[2,4,6,8,-1,-1,-1,-1,-1],"split_conditions":[5E-2,4E-2,8E-1,5E0,-1.3924956E-2,1.6898347E-2,-2.3019314E-4,-1.9117866E-3,6.976299E-3],"split_indices":[2,2,0,4,0,0,0,0,0],"split_type":[0,0,0,0,0,0,0,0,0],"sum_hessian":[1.6E1,1.4E1,2E0,1.3E1,1E0,1E0,1E0,1.1E1,2E0],"tree_param":{"num_deleted":"0","num_feature":"5","num_nodes":"9","size_leaf_vector":"1"}},{"base_weights":[1.4052966E-2,-5.1863194E-3,6.333904E-2,1.3341376E-2,-1.3228702E-2,1.6053438E-2,-2.1867752E-4,-3.3187927E-3,7.100688E-3],"categories":[],"categories_nodes":[],"categories_segments":[],"categories_sizes":[],"default_left":[0,0,0,0,0,0,0,0,0],"id":73,"left_children":[1,3,5,7,-1,-1,-1,-1,-1],"loss_changes":[1.7105382E-2,1.9588279E-2,5.7168975E-3,1.1055433E-2,0E0,0E0,0E0,0E0,0E0],"parents":[2147483647,0,0,1,1,2,2,3,3],"right_children":[2,4,6,8,-1,-1,-1,-1,-1],"split_conditions":[5E-2,4E-2,8E-1,7.5E-2,-1.3228702E-2,1.6053438E-2,-2.1867752E-4,-3.3187927E-3,7.100688E-3],"split_indices":[2,2,0,1,0,0,0,0,0],"split_type":[0,0,0,0,0,0,0,0,0],"sum_hessian":[1.4E1,1.2E1,2E0,1.1E1,1E0,1E0,1E0,5E0,6E0],"tree_param":{"num_deleted":"0","num_feature":"5","num_nodes":"9","size_leaf_vector":"1"}},{"base_weights":[3.5280862E-3,-1.9072276E-2,6.0172178E-2,2.837976E-4,-1.2567258E-2,1.5250779E-2,-2.077341E-4,-3.619081E-3,1.0122753E-2],"categories":[],"categories_nodes":[],"categories_segments":[],"categories_sizes":[],"default_left":[0,0,0,0,0,0,0,0,0],"id":74,"left_children":[1,3,5,7,-1,-1,-1,-1,-1],"loss_changes":[2.2645514E-2,1.1065792E-2,5.159484E-3,1.3847925E-2,0E0,0E0,0E0,0E0,0E0],"parents":[2147483647,0,0,1,1,2,2,3,3],"right_children":[2,4,6,8,-1,-1,-1,-1,-1],"split_conditions":[5E-2,4E-2,8E-1,3E-2,-1.2567258E-2,1.5250779E-2,-2.077341E-4,-3.619081E-3,1.0122753E-2],"split_indices":[2,2,0,2,0,0,0,0,0],"split_type":[0,0,0,0,0,0,0,0,0],"sum_hessian":[1.2E1,1E1,2E0,9E0,1E0,1E0,1E0,8E0,1E0],"tree_param":{"num_deleted":"0","num_feature":"5","num_nodes":"9","size_leaf_vector":"1"}},{"base_weights":[-4.35178E-3,-1.5937176E-2,3.0698394E-2,1.1160374E-3,-1.1881447E-2,1.271019E-2,-5.0355913E-3,2.3330569E-3,-6.2737465E-3],"categories":[],"categories_nodes":[],"categories_segments":[],"categories_sizes":[],"default_left":[0,0,0,0,0,0,0,0,0],"id":75,"left_children":[1,3,5,7,-1,-1,-1,-1,-1],"loss_changes":[7.964859E-3,1.057716E-2,1.3978653E-2,5.552744E-3,0E0,0E0,0E0,0E0,0E0],"parents":[2147483647,0,0,1,1,2,2,3,3],"right_children":[2,4,6,8,-1,-1,-1,-1,-1],"split_conditions":[5E0,3.3333333E0,1E1,1E0,-1.1881447E-2,1.271019E-2,-5.0355913E-3,2.3330569E-3,-6.2737465E-3],"split_indices":[4,4,4,0,0,0,0,0,0],"split_type":[0,0,0,0,0,0,0,0,0],"sum_hessian":[1.3E1,1.1E1,2E0,1E1,1E0,1E0,1E0,9E0,1E0],"tree_param":{"num_deleted":"0","num_feature":"5","num_nodes":"9","size_leaf_vector":"1"}},{"base_weights":[9.872754E-3,1.4371586E-2,-6.4542433E-3,-1.703593E-2,2.916336E-2,-4.2559762E-4,-1.1287356E-2,1.2074661E-2,-4.7838213E-3],"categories":[],"categories_nodes":[],"categories_segments":[],"categories_sizes":[],"default_left":[0,0,0,0,0,0,0,0,0],"id":76,"left_children":[1,-1,3,5,7,-1,-1,-1,-1],"loss_changes":[1.9607939E-2,0E0,7.897678E-3,8.450492E-3,1.2615731E-2,0E0,0E0,0E0,0E0],"parents":[2147483647,0,0,2,2,3,3,4,4],"right_children":[2,-1,4,6,8,-1,-1,-1,-1],"split_conditions":[8E-1,1.4371586E-2,5E0,3.3333333E0,1E1,-4.2559762E-4,-1.1287356E-2,1.2074661E-2,-4.7838213E-3],"split_indices":[0,0,4,4,4,0,0,0,0],"split_type":[0,0,0,0,0,0,0,0,0],"sum_hessian":[1.5E1,1E0,1.4E1,1.2E1,2E0,1.1E1,1E0,1E0,1E0],"tree_param":{"num_deleted":"0","num_feature":"5","num_nodes":"9","size_leaf_vector":"1"}},{"base_weights":[6.4529926E-3,-4.2568304E-2,5.87701E-2,-5.590937E-2,3.875065E-3,2.0162147E-2,-1.2655576E-2,-1.27030555E-2,2.4689437E-4,-1.07229715E-2,5.5410387E-3],"categories":[],"categories_nodes":[],"categories_segments":[],"categories_sizes":[],"default_left":[0,0,0,0,0,0,0,0,0,0,0],"id":77,"left_children":[1,3,5,7,-1,-1,9,-1,-1,-1,-1],"loss_changes":[4.853967E-2,1.1513725E-2,3.0852476E-2,4.146902E-3,0E0,0E0,1.4375118E-2,0E0,0E0,0E0,0E0],"parents":[2147483647,0,0,1,1,2,2,3,3,6,6],"right_children":[2,4,6,8,-1,-1,10,-1,-1,-1,-1],"split_conditions":[2.5E0,1.5E-1,3.3333333E0,1.33E-1,3.875065E-3,2.0162147E-2,5E0,-1.27030555E-2,2.4689437E-4,-1.07229715E-2,5.5410387E-3],"split_indices":[4,3,4,1,0,0,4,0,0,0,0],"split_type":[0,0,0,0,0,0,0,0,0,0,0],"sum_hessian":[1.3E1,7E0,6E0,6E0,1E0,3E0,3E0,5E0,1E0,1E0,2E0],"tree_param":{"num_deleted":"0","num_feature":"5","num_nodes":"11","size_leaf_vector":"1"}},{"base_weights":[7.419202E-3,-7.887527E-3,5.1949214E-2,8.976475E-3,-1.3042378E-2,1.2644864E-2,3.4244062E-4,-6.142068E-3,3.6784073E-3],"categories":[],"categories_nodes":[],"categories_segments":[],"categories_sizes":[],"default_left":[0,0,0,0,0,0,0,0,0],"id":78,"left_children":[1,3,5,7,-1,-1,-1,-1,-1],"loss_changes":[1.3498212E-2,1.7223611E-2,2.5073793E-3,7.2995806E-3,0E0,0E0,0E0,0E0,0E0],"parents":[2147483647,0,0,1,1,2,2,3,3],"right_children":[2,4,6,8,-1,-1,-1,-1,-1],"split_conditions":[5E-2,4E-2,8E-1,8E-1,-1.3042378E-2,1.2644864E-2,3.4244062E-4,-6.142068E-3,3.6784073E-3],"split_indices":[2,2,0,0,0,0,0,0,0],"split_type":[0,0,0,0,0,0,0,0,0],"sum_hessian":[1.5E1,1.3E1,2E0,1.2E1,1E0,1E0,1E0,1E0,1.1E1],"tree_param":{"num_deleted":"0","num_feature":"5","num_nodes":"9","size_leaf_vector":"1"}},{"base_weights":[-1.6075561E-3,2.4710655E-2,-9.06452E-3,-5.834961E-3,1.2012625E-2,-1.8278964E-2,2.4017524E-2,5.3473475E-4,-7.52303E-3,1.1009979E-2,-5.005598E-3],"categories":[],"categories_nodes":[],"categories_segments":[],"categories_sizes":[],"default_left":[0,0,0,0,0,0,0,0,0,0,0],"id":79,"left_children":[1,3,5,-1,-1,7,9,-1,-1,-1,-1],"loss_changes":[4.400796E-3,1.4781909E-2,6.4992015E-3,0E0,0E0,6.3788737E-3,1.1743358E-2,0E0,0E0,0E0,0E0],"parents":[2147483647,0,0,1,1,2,2,5,5,6,6],"right_children":[2,4,6,-1,-1,8,10,-1,-1,-1,-1],"split_conditions":[8E-1,2E0,5E0,-5.834961E-3,1.2012625E-2,2.5E0,1E1,5.3473475E-4,-7.52303E-3,1.1009979E-2,-5.005598E-3],"split_indices":[0,4,4,0,0,4,4,0,0,0,0],"split_type":[0,0,0,0,0,0,0,0,0,0,0],"sum_hessian":[1.6E1,2E0,1.4E1,1E0,1E0,1.2E1,2E0,7E0,5E0,1E0,1E0],"tree_param":{"num_deleted":"0","num_feature":"5","num_nodes":"11","size_leaf_vector":"1"}},{"base_weights":[1.2488029E-2,1.1412001E-2,-9.964705E-4,-9.400384E-3,6.2531116E-3,2.9617788E-3,-6.09524E-3],"categories":[],"categories_nodes":[],"categories_segments":[],"categories_sizes":[],"default_left":[0,0,0,0,0,0,0],"id":80,"left_children":[1,-1,3,5,-1,-1,-1],"loss_changes":[1.0388099E-2,0E0,5.219761E-3,9.00741E-3,0E0,0E0,0E0],"parents":[2147483647,0,0,2,2,3,3],"right_children":[2,-1,4,6,-1,-1,-1],"split_conditions":[8E-1,1.1412001E-2,9.5E-1,2.5E0,6.2531116E-3,2.9617788E-3,-6.09524E-3],"split_indices":[0,0,0,4,0,0,0],"split_type":[0,0,0,0,0,0,0],"sum_hessian":[1.4E1,1E0,1.3E1,1.2E1,1E0,6E0,6E0],"tree_param":{"num_deleted":"0","num_feature":"5","num_nodes":"7","size_leaf_vector":"1"}},{"base_weights":[5.3830016E-3,-7.684037E-3,4.3967724E-2,7.416137E-3,-1.17093325E-2,1.5051365E-4,1.0841417E-2,-3.3767342E-3,4.9262284E-3],"categories":[],"categories_nodes":[],"categories_segments":[],"categories_sizes":[],"default_left":[0,0,0,0,0,0,0,0,0],"id":81,"left_children":[1,3,5,7,-1,-1,-1,-1,-1],"loss_changes":[1.0088935E-2,1.3591122E-2,2.0900937E-3,7.522412E-3,0E0,0E0,0E0,0E0,0E0],"parents":[2147483647,0,0,1,1,2,2,3,3],"right_children":[2,4,6,8,-1,-1,-1,-1,-1],"split_conditions":[5E-2,4E-2,1.25E-1,7.5E-2,-1.17093325E-2,1.5051365E-4,1.0841417E-2,-3.3767342E-3,4.9262284E-3],"split_indices":[2,2,1,1,0,0,0,0,0],"split_type":[0,0,0,0,0,0,0,0,0],"sum_hessian":[1.5E1,1.3E1,2E0,1.2E1,1E0,1E0,1E0,5E0,7E0],"tree_param":{"num_deleted":"0","num_feature":"5","num_nodes":"9","size_leaf_vector":"1"}},{"base_weights":[-2.4837696E-3,-1.506107E-2,4.1769315E-2,-2.097547E-3,-1.1123872E-2,1.0299349E-2,1.4297962E-4,-6.3601257E-3,1.2485568E-3],"categories":[],"categories_nodes":[],"categories_segments":[],"categories_sizes":[],"default_left":[0,0,0,0,0,0,0,0,0],"id":82,"left_children":[1,3,5,7,-1,-1,-1,-1,-1],"loss_changes":[1.2462374E-2,8.588239E-3,1.886325E-3,4.559309E-3,0E0,0E0,0E0,0E0,0E0],"parents":[2147483647,0,0,1,1,2,2,3,3],"right_children":[2,4,6,8,-1,-1,-1,-1,-1],"split_conditions":[5E-2,4E-2,8E-1,8E-1,-1.1123872E-2,1.0299349E-2,1.4297962E-4,-6.3601257E-3,1.2485568E-3],"split_indices":[2,2,0,0,0,0,0,0,0],"split_type":[0,0,0,0,0,0,0,0,0],"sum_hessian":[1.6E1,1.4E1,2E0,1.3E1,1E0,1E0,1E0,1E0,1.2E1],"tree_param":{"num_deleted":"0","num_feature":"5","num_nodes":"9","size_leaf_vector":"1"}},{"base_weights":[1.4974266E-2,2.3599926E-2,-5.720532E-3,3.928926E-2,-4.8617125E-3,-6.042123E-3,1.1416335E-2,9.784365E-3,-6.7023146E-3],"categories":[],"categories_nodes":[],"categories_segments":[],"categories_sizes":[],"default_left":[0,0,0,0,0,0,0,0,0],"id":83,"left_children":[1,3,-1,5,7,-1,-1,-1,-1],"loss_changes":[8.039138E-3,7.2712013E-3,0E0,1.7539121E-2,1.7245466E-2,0E0,0E0,0E0,0E0],"parents":[2147483647,0,0,1,1,3,3,4,4],"right_children":[2,4,-1,6,8,-1,-1,-1,-1],"split_conditions":[1E0,3E-2,-5.720532E-3,8E-1,8E-1,-6.042123E-3,1.1416335E-2,9.784365E-3,-6.7023146E-3],"split_indices":[0,2,0,0,0,0,0,0,0],"split_type":[0,0,0,0,0,0,0,0,0],"sum_hessian":[1.3E1,1.2E1,1E0,7E0,5E0,1E0,6E0,1E0,4E0],"tree_param":{"num_deleted":"0","num_feature":"5","num_nodes":"9","size_leaf_vector":"1"}},{"base_weights":[-6.7943395E-3,-1.9083178E-2,3.906431E-2,-7.485166E-3,-1.0232568E-2,9.29513E-3,4.7094823E-4,5.345601E-4,-5.1503023E-3],"categories":[],"categories_nodes":[],"categories_segments":[],"categories_sizes":[],"default_left":[0,0,0,0,0,0,0,0,0],"id":84,"left_children":[1,3,5,7,-1,-1,-1,-1,-1],"loss_changes":[1.2943854E-2,5.1761377E-3,1.0320209E-3,3.1752686E-3,0E0,0E0,0E0,0E0,0E0],"parents":[2147483647,0,0,1,1,2,2,3,3],"right_children":[2,4,6,8,-1,-1,-1,-1,-1],"split_conditions":[5E-2,4E-2,8E-1,1.25E-1,-1.0232568E-2,9.29513E-3,4.7094823E-4,5.345601E-4,-5.1503023E-3],"split_indices":[2,2,0,3,0,0,0,0,0],"split_type":[0,0,0,0,0,0,0,0,0],"sum_hessian":[1.6E1,1.4E1,2E0,1.3E1,1E0,1E0,1E0,1E1,3E0],"tree_param":{"num_deleted":"0","num_feature":"5","num_nodes":"9","size_leaf_vector":"1"}},{"base_weights":[-6.2379963E-3,-1.7886877E-2,3.7110996E-2,-2.6273202E-2,1.8004227E-2,8.830356E-3,4.4739246E-4,-1.0916537E-3,-9.544488E-3,-5.3568366E-3,9.857893E-3],"categories":[],"categories_nodes":[],"categories_segments":[],"categories_sizes":[],"default_left":[0,0,0,0,0,0,0,0,0,0,0],"id":85,"left_children":[1,3,5,7,9,-1,-1,-1,-1,-1,-1],"loss_changes":[1.1585778E-2,6.5359925E-3,9.31405E-4,5.9155216E-3,1.0966614E-2,0E0,0E0,0E0,0E0,0E0,0E0],"parents":[2147483647,0,0,1,1,2,2,3,3,4,4],"right_children":[2,4,6,8,10,-1,-1,-1,-1,-1,-1],"split_conditions":[5E-2,5E0,8E-1,2E-2,2E-2,8.830356E-3,4.4739246E-4,-1.0916537E-3,-9.544488E-3,-5.3568366E-3,9.857893E-3],"split_indices":[2,4,0,2,2,0,0,0,0,0,0],"split_type":[0,0,0,0,0,0,0,0,0,0,0],"sum_hessian":[1.6E1,1.4E1,2E0,1.2E1,2E0,1E0,1E0,8E0,4E0,1E0,1E0],"tree_param":{"num_deleted":"0","num_feature":"5","num_nodes":"11","size_leaf_vector":"1"}},{"base_weights":[-9.33671E-3,-5.1282227E-2,2.3715496E-2,-1.3533237E-2,3.1702758E-3,2.9697524E-2,-1.2814521E-3,-5.088997E-3,9.226441E-3,-5.824268E-3,5.503905E-3],"categories":[],"categories_nodes":[],"categories_segments":[],"categories_sizes":[],"default_left":[0,0,0,0,0,0,0,0,0,0,0],"id":86,"left_children":[1,3,5,-1,-1,7,9,-1,-1,-1,-1],"loss_changes":[2.583082E-2,1.2017123E-2,1.7590257E-3,0E0,0E0,1.1677746E-2,6.413296E-3,0E0,0E0,0E0,0E0],"parents":[2147483647,0,0,1,1,2,2,5,5,6,6],"right_children":[2,4,6,-1,-1,8,10,-1,-1,-1,-1],"split_conditions":[1E-2,1.5E-1,9E-1,-1.3533237E-2,3.1702758E-3,2E-2,9.5E-1,-5.088997E-3,9.226441E-3,-5.824268E-3,5.503905E-3],"split_indices":[2,3,0,0,0,2,0,0,0,0,0],"split_type":[0,0,0,0,0,0,0,0,0,0,0],"sum_hessian":[1.3E1,5E0,8E0,4E0,1E0,6E0,2E0,1E0,5E0,1E0,1E0],"tree_param":{"num_deleted":"0","num_feature":"5","num_nodes":"11","size_leaf_vector":"1"}},{"base_weights":[7.5652995E-3,-1.4693588E-2,1.951724E-2,-2.5397675E-2,3.0117512E-3,2.920127E-2,-4.8345565E-3,-7.510338E-3,3.9898875E-4,6.84464E-4,9.229619E-3],"categories":[],"categories_nodes":[],"categories_segments":[],"categories_sizes":[],"default_left":[0,0,0,0,0,0,0,0,0,0,0],"id":87,"left_children":[1,3,5,7,-1,9,-1,-1,-1,-1,-1],"loss_changes":[5.648998E-3,3.6951457E-3,7.61787E-3,2.5552525E-3,0E0,4.7686556E-3,0E0,0E0,0E0,0E0,0E0],"parents":[2147483647,0,0,1,1,2,2,3,3,5,5],"right_children":[2,4,6,8,-1,10,-1,-1,-1,-1,-1],"split_conditions":[7.5E-2,1.5E-1,1E1,9.5E-1,3.0117512E-3,2.5E0,-4.8345565E-3,-7.510338E-3,3.9898875E-4,6.84464E-4,9.229619E-3],"split_indices":[1,3,4,0,0,4,0,0,0,0,0],"split_type":[0,0,0,0,0,0,0,0,0,0,0],"sum_hessian":[1.5E1,5E0,1E1,4E0,1E0,9E0,1E0,2E0,2E0,5E0,4E0],"tree_param":{"num_deleted":"0","num_feature":"5","num_nodes":"11","size_leaf_vector":"1"}},{"base_weights":[-4.780845E-3,-9.871932E-3,1.5397358E-2,2.1808743E-3,-1.0135842E-2,8.4421635E-3,-4.5928243E-3,1.731898E-3,-4.749918E-3],"categories":[],"categories_nodes":[],"categories_segments":[],"categories_sizes":[],"default_left":[0,0,0,0,0,0,0,0,0],"id":88,"left_children":[1,3,5,7,-1,-1,-1,-1,-1],"loss_changes":[2.4078558E-3,8.692892E-3,8.051023E-3,3.304874E-3,0E0,0E0,0E0,0E0,0E0],"parents":[2147483647,0,0,1,1,2,2,3,3],"right_children":[2,4,6,8,-1,-1,-1,-1,-1],"split_conditions":[5E0,3.3333333E0,1E1,1E0,-1.0135842E-2,8.4421635E-3,-4.5928243E-3,1.731898E-3,-4.749918E-3],"split_indices":[4,4,4,0,0,0,0,0,0],"split_type":[0,0,0,0,0,0,0,0,0],"sum_hessian":[1.6E1,1.4E1,2E0,1.3E1,1E0,1E0,1E0,1.2E1,1E0],"tree_param":{"num_deleted":"0","num_feature":"5","num_nodes":"9","size_leaf_vector":"1"}},{"base_weights":[1.0030344E-2,2.1532994E-2,-1.9907236E-2,3.7261628E-2,-1.5447895E-2,1.4627552E-2,-9.629059E-3,1.2378053E-2,-2.020518E-3,-5.244124E-3,4.878044E-4,-4.363179E-3,8.020068E-3],"categories":[],"categories_nodes":[],"categories_segments":[],"categories_sizes":[],"default_left":[0,0,0,0,0,0,0,0,0,0,0,0,0],"id":89,"left_children":[1,3,5,7,9,11,-1,-1,-1,-1,-1,-1,-1],"loss_changes":[6.7957714E-3,9.288406E-3,7.963915E-3,1.3540918E-2,1.348003E-3,7.266055E-3,0E0,0E0,0E0,0E0,0E0,0E0,0E0],"parents":[2147483647,0,0,1,1,2,2,3,3,4,4,5,5],"right_children":[2,4,6,8,10,12,-1,-1,-1,-1,-1,-1,-1],"split_conditions":[3.3333333E0,9E-1,3E-2,4E-2,9.5E-1,2E-2,-9.629059E-3,1.2378053E-2,-2.020518E-3,-5.244124E-3,4.878044E-4,-4.363179E-3,8.020068E-3],"split_indices":[4,0,2,2,0,2,0,0,0,0,0,0,0],"split_type":[0,0,0,0,0,0,0,0,0,0,0,0,0],"sum_hessian":[1.3E1,1E1,3E0,7E0,3E0,2E0,1E0,4E0,3E0,1E0,2E0,1E0,1E0],"tree_param":{"num_deleted":"0","num_feature":"5","num_nodes":"13","size_leaf_vector":"1"}},{"base_weights":[-1.3832061E-2,-5.4557018E-2,1.58562E-2,-1.0389806E-3,-1.2037317E-2,2.5731873E-2,-4.145026E-3,8.910649E-3,-1.8184662E-3],"categories":[],"categories_nodes":[],"categories_segments":[],"categories_sizes":[],"default_left":[0,0,0,0,0,0,0,0,0],"id":90,"left_children":[1,3,5,-1,-1,7,-1,-1,-1],"loss_changes":[2.0730998E-2,1.0072216E-3,5.5738073E-3,0E0,0E0,7.769673E-3,0E0,0E0,0E0],"parents":[2147483647,0,0,1,1,2,2,5,5],"right_children":[2,4,6,-1,-1,8,-1,-1,-1],"split_conditions":[1E-2,7.5E-2,1E1,-1.0389806E-3,-1.2037317E-2,4E-2,-4.145026E-3,8.910649E-3,-1.8184662E-3],"split_indices":[2,3,4,0,0,2,0,0,0],"split_type":[0,0,0,0,0,0,0,0,0],"sum_hessian":[1.2E1,4E0,8E0,1E0,3E0,7E0,1E0,4E0,3E0],"tree_param":{"num_deleted":"0","num_feature":"5","num_nodes":"9","size_leaf_vector":"1"}},{"base_weights":[6.0311556E-3,-3.131485E-3,7.173538E-3,1.0349274E-2,-9.593106E-3,-1.2059212E-4,6.0850144E-3],"categories":[],"categories_nodes":[],"categories_segments":[],"categories_sizes":[],"default_left":[0,0,0,0,0,0,0],"id":91,"left_children":[1,3,-1,5,-1,-1,-1],"loss_changes":[4.711061E-3,1.0555179E-2,0E0,3.1332832E-3,0E0,0E0,0E0],"parents":[2147483647,0,0,1,1,3,3],"right_children":[2,4,-1,6,-1,-1,-1],"split_conditions":[5E0,3.3333333E0,7.173538E-3,5E-2,-9.593106E-3,-1.2059212E-4,6.0850144E-3],"split_indices":[4,4,0,2,0,0,0],"split_type":[0,0,0,0,0,0,0],"sum_hessian":[1.3E1,1.2E1,1E0,1.1E1,1E0,9E0,2E0],"tree_param":{"num_deleted":"0","num_feature":"5","num_nodes":"7","size_leaf_vector":"1"}},{"base_weights":[-2.8212732E-3,-1.1921123E-2,2.7991008E-2,6.909847E-4,-1.0055137E-2,7.2671412E-3,-2.6938916E-4,2.3710928E-3,-4.3966933E-3],"categories":[],"categories_nodes":[],"categories_segments":[],"categories_sizes":[],"default_left":[0,0,0,0,0,0,0,0,0],"id":92,"left_children":[1,3,5,7,-1,-1,-1,-1,-1],"loss_changes":[6.048021E-3,7.843928E-3,1.3709087E-3,4.5790984E-3,0E0,0E0,0E0,0E0,0E0],"parents":[2147483647,0,0,1,1,2,2,3,3],"right_children":[2,4,6,8,-1,-1,-1,-1,-1],"split_conditions":[5E-2,4E-2,8E-1,3.3333333E0,-1.0055137E-2,7.2671412E-3,-2.6938916E-4,2.3710928E-3,-4.3966933E-3],"split_indices":[2,2,0,4,0,0,0,0,0],"split_type":[0,0,0,0,0,0,0,0,0],"sum_hessian":[1.5E1,1.3E1,2E0,1.2E1,1E0,1E0,1E0,9E0,3E0],"tree_param":{"num_deleted":"0","num_feature":"5","num_nodes":"9","size_leaf_vector":"1"}},{"base_weights":[-1.3732896E-2,1.729695E-3,-1.0376187E-2,-8.231695E-3,2.6591491E-2,1.400594E-3,-9.552384E-3,6.9037913E-3,-2.559185E-4],"categories":[],"categories_nodes":[],"categories_segments":[],"categories_sizes":[],"default_left":[0,0,0,0,0,0,0,0,0],"id":93,"left_children":[1,3,-1,5,7,-1,-1,-1,-1],"loss_changes":[1.0296961E-2,4.37155E-3,0E0,8.832412E-3,1.2372462E-3,0E0,0E0,0E0,0E0],"parents":[2147483647,0,0,1,1,3,3,4,4],"right_children":[2,4,-1,6,8,-1,-1,-1,-1],"split_conditions":[3.3333333E0,5E-2,-1.0376187E-2,4E-2,8E-1,1.400594E-3,-9.552384E-3,6.9037913E-3,-2.559185E-4],"split_indices":[4,2,0,2,0,0,0,0,0],"split_type":[0,0,0,0,0,0,0,0,0],"sum_hessian":[1.4E1,1.2E1,2E0,1E1,2E0,9E0,1E0,1E0,1E0],"tree_param":{"num_deleted":"0","num_feature":"5","num_nodes":"9","size_leaf_vector":"1"}},{"base_weights":[-5.54049E-3,1.342382E-2,-9.546109E-3,5.6357286E-3,2.0192624E-3,-3.7655593E-3,2.122307E-3],"categories":[],"categories_nodes":[],"categories_segments":[],"categories_sizes":[],"default_left":[0,0,0,0,0,0,0],"id":94,"left_children":[1,3,-1,-1,5,-1,-1],"loss_changes":[1.3123652E-2,1.848567E-3,0E0,0E0,2.3906115E-3,0E0,0E0],"parents":[2147483647,0,0,1,1,4,4],"right_children":[2,4,-1,-1,6,-1,-1],"split_conditions":[3.3333333E0,6.7E-2,-9.546109E-3,5.6357286E-3,7.5E-2,-3.7655593E-3,2.122307E-3],"split_indices":[4,1,0,0,1,0,0],"split_type":[0,0,0,0,0,0,0],"sum_hessian":[1.1E1,9E0,2E0,2E0,7E0,1E0,6E0],"tree_param":{"num_deleted":"0","num_feature":"5","num_nodes":"7","size_leaf_vector":"1"}},{"base_weights":[-3.6926858E-2,-5.199757E-2,2.4413109E-2,-6.00675E-2,-3.0451776E-3,6.452513E-3,-3.4923555E-4,-1.2704568E-2,-1.2757063E-3,4.1879057E-3,-4.9492004E-3],"categories":[],"categories_nodes":[],"categories_segments":[],"categories_sizes":[],"default_left":[0,0,0,0,0,0,0,0,0,0,0],"id":95,"left_children":[1,3,5,7,9,-1,-1,-1,-1,-1,-1],"loss_changes":[1.7674819E-2,4.5868047E-3,1.1956892E-3,8.2509965E-4,4.1569485E-3,0E0,0E0,0E0,0E0,0E0,0E0],"parents":[2147483647,0,0,1,1,2,2,3,3,4,4],"right_children":[2,4,6,8,10,-1,-1,-1,-1,-1,-1],"split_conditions":[5E-2,9.5E-1,8E-1,1.33E-1,1E0,6.452513E-3,-3.4923555E-4,-1.2704568E-2,-1.2757063E-3,4.1879057E-3,-4.9492004E-3],"split_indices":[2,0,0,1,0,0,0,0,0,0,0],"split_type":[0,0,0,0,0,0,0,0,0,0,0],"sum_hessian":[1.2E1,1E1,2E0,8E0,2E0,1E0,1E0,7E0,1E0,1E0,1E0],"tree_param":{"num_deleted":"0","num_feature":"5","num_nodes":"11","size_leaf_vector":"1"}},{"base_weights":[1.7123222E-3,-8.382292E-3,8.6660385E-3,1.7166138E-4,-7.262278E-3,-4.1095596E-3,2.4430195E-3],"categories":[],"categories_nodes":[],"categories_segments":[],"categories_sizes":[],"default_left":[0,0,0,0,0,0,0],"id":96,"left_children":[1,3,-1,5,-1,-1,-1],"loss_changes":[8.651713E-3,4.080071E-3,0E0,4.745516E-3,0E0,0E0,0E0],"parents":[2147483647,0,0,1,1,3,3],"right_children":[2,4,-1,6,-1,-1,-1],"split_conditions":[5E0,3.3333333E0,8.6660385E-3,7.5E-2,-7.262278E-3,-4.1095596E-3,2.4430195E-3],"split_indices":[4,4,0,3,0,0,0],"split_type":[0,0,0,0,0,0,0],"sum_hessian":[1.5E1,1.4E1,1E0,1.3E1,1E0,4E0,9E0],"tree_param":{"num_deleted":"0","num_feature":"5","num_nodes":"7","size_leaf_vector":"1"}},{"base_weights":[-1.0358519E-2,-3.4809172E-2,7.078464E-3,-4.5371335E-2,-1.2490749E-3,2.6457174E-2,-1.0353353E-2,-1.0064602E-3,-1.0083952E-2,4.183996E-3,-4.4962647E-3,1.4182687E-2,-3.281784E-3,6.0077193E-3,-5.333364E-3],"categories":[],"categories_nodes":[],"categories_segments":[],"categories_sizes":[],"default_left":[0,0,0,0,0,0,0,0,0,0,0,0,0,0,0],"id":97,"left_children":[1,3,5,7,9,11,13,-1,-1,-1,-1,-1,-1,-1,-1],"loss_changes":[8.413408E-3,2.6657209E-3,5.213241E-3,4.607085E-4,3.7644205E-3,1.6830504E-2,8.333496E-3,0E0,0E0,0E0,0E0,0E0,0E0,0E0,0E0],"parents":[2147483647,0,0,1,1,2,2,3,3,4,4,5,5,6,6],"right_children":[2,4,6,8,10,12,14,-1,-1,-1,-1,-1,-1,-1,-1],"split_conditions":[1E-1,9.5E-1,2E0,8.5E-1,1E0,1.25E-1,8E-1,-1.0064602E-3,-1.0083952E-2,4.183996E-3,-4.4962647E-3,1.4182687E-2,-3.281784E-3,6.0077193E-3,-5.333364E-3],"split_indices":[3,0,4,0,0,3,0,0,0,0,0,0,0,0,0],"split_type":[0,0,0,0,0,0,0,0,0,0,0,0,0,0,0],"sum_hessian":[1.5E1,5E0,1E1,3E0,2E0,4E0,6E0,1E0,2E0,1E0,1E0,1E0,3E0,1E0,5E0],"tree_param":{"num_deleted":"0","num_feature":"5","num_nodes":"15","size_leaf_vector":"1"}},{"base_weights":[5.8404207E-3,1.1209208E-2,-4.2714477E-3,1.5174657E-2,-2.6118995E-3,9.7075786E-4,8.499384E-3],"categories":[],"categories_nodes":[],"categories_segments":[],"categories_sizes":[],"default_left":[0,0,0,0,0,0,0],"id":98,"left_children":[1,3,-1,5,-1,-1,-1],"loss_changes":[3.3465247E-3,2.2305378E-3,0E0,3.893018E-3,0E0,0E0,0E0],"parents":[2147483647,0,0,1,1,3,3],"right_children":[2,4,-1,6,-1,-1,-1],"split_conditions":[1E0,1E1,-4.2714477E-3,5E0,-2.6118995E-3,9.7075786E-4,8.499384E-3],"split_indices":[0,4,0,4,0,0,0],"split_type":[0,0,0,0,0,0,0],"sum_hessian":[1.5E1,1.4E1,1E0,1.3E1,1E0,1.2E1,1E0],"tree_param":{"num_deleted":"0","num_feature":"5","num_nodes":"7","size_leaf_vector":"1"}},{"base_weights":[-2.2581886E-3,-2.1930626E-2,8.855783E-3,-6.0352804E-3,-5.264759E-4,1.7565917E-2,-1.0089E-2,3.9262534E-3,-4.0578726E-3,-4.5491937E-3,5.925401E-3,-8.449674E-3,4.338379E-3],"categories":[],"categories_nodes":[],"categories_segments":[],"categories_sizes":[],"default_left":[0,0,0,0,0,0,0,0,0,0,0,0,0],"id":99,"left_children":[1,3,5,-1,7,9,11,-1,-1,-1,-1,-1,-1],"loss_changes":[4.2995E-3,1.1877951E-3,2.6768185E-3,0E0,3.1867935E-3,6.8837362E-3,8.881662E-3,0E0,0E0,0E0,0E0,0E0,0E0],"parents":[2147483647,0,0,1,1,2,2,4,4,5,5,6,6],"right_children":[2,4,6,-1,8,10,12,-1,-1,-1,-1,-1,-1],"split_conditions":[7.5E-2,9.5E-1,4E-2,-6.0352804E-3,1E0,8E-1,5E-2,3.9262534E-3,-4.0578726E-3,-4.5491937E-3,5.925401E-3,-8.449674E-3,4.338379E-3],"split_indices":[1,0,2,0,0,0,2,0,0,0,0,0,0],"split_type":[0,0,0,0,0,0,0,0,0,0,0,0,0],"sum_hessian":[1.4E1,4E0,1E1,2E0,2E0,7E0,3E0,1E0,1E0,1E0,6E0,1E0,2E0],"tree_param":{"num_deleted":"0","num_feature":"5","num_nodes":"13","size_leaf_vector":"1"}}]},"name":"gbtree"},"learner_model_param":{"base_score":"6.0001974E0","boost_from_average":"1","num_class":"0","num_feature":"5","num_target":"1"},"objective":{"name":"reg:squarederror","reg_loss_param":{"scale_pos_weight":"1"}}},"version":[2,1,1]}