{"learner":{"attributes":{"scikit_learn":"{\"_estimator_type\": \"regressor\"}"},"feature_names":["PI-content","CF-content","Sizing agent-content","GP-content","CF/S"],"feature_types":["float","float","float","float","float"],"gradient_booster":{"model":{"gbtree_model_param":{"num_parallel_tree":"1","num_trees":"100"},"iteration_indptr":[0,1,2,3,4,5,6,7,8,9,10,11,12,13,14,15,16,17,18,19,20,21,22,23,24,25,26,27,28,29,30,31,32,33,34,35,36,37,38,39,40,41,42,43,44,45,46,47,48,49,50,51,52,53,54,55,56,57,58,59,60,61,62,63,64,65,66,67,68,69,70,71,72,73,74,75,76,77,78,79,80,81,82,83,84,85,86,87,88,89,90,91,92,93,94,95,96,97,98,99,100],"tree_info":[0,0,0,0,0,0,0,0,0,0,0,0,0,0,0,0,0,0,0,0,0,0,0,0,0,0,0,0,0,0,0,0,0,0,0,0,0,0,0,0,0,0,0,0,0,0,0,0,0,0,0,0,0,0,0,0,0,0,0,0,0,0,0,0,0,0,0,0,0,0,0,0,0,0,0,0,0,0,0,0,0,0,0,0,0,0,0,0,0,0,0,0,0,0,0,0,0,0,0,0],"trees":[{"base_weights":[-2.193411E0,1.8914692E0,-1.5078542E0,3.0997226E0,-4.4914055E-1,9.9265736E-1,5.48539E-1,-1.6833582E0,4.229792E-1,1.0010948E-1,-2.911874E-1],"categories":[],"categories_nodes":[],"categories_segments":[],"categories_sizes":[],"default_left":[0,0,0,0,0,0,0,0,0,0,0],"id":0,"left_children":[1,3,-1,5,-1,7,-1,9,-1,-1,-1],"loss_changes":[6.601312E2,9.10434E1,0E0,3.9795692E1,0E0,5.9095997E1,0E0,1.6106636E1,0E0,0E0,0E0],"parents":[2147483647,0,0,1,1,3,3,5,5,7,7],"right_children":[2,4,-1,6,-1,8,-1,10,-1,-1,-1],"split_conditions":[1.33E-1,1.33E-1,-1.5078542E0,8.5E-1,-4.4914055E-1,3.3333333E0,5.48539E-1,8E-1,4.229792E-1,1.0010948E-1,-2.911874E-1],"split_indices":[3,1,0,0,0,4,0,0,0,0,0],"split_type":[0,0,0,0,0,0,0,0,0,0,0],"sum_hessian":[1.1E1,9E0,2E0,8E0,1E0,5E0,3E0,3E0,2E0,1E0,2E0],"tree_param":{"num_deleted":"0","num_feature":"5","num_nodes":"11","size_leaf_vector":"1"}},{"base_weights":[2.814607E-1,-8.968657E0,1.256804E1,-1.321614E0,2.5158615E0,6.9039183E0,2.0444324E0,4.5846042E-1,-8.1081204E-2,2.7357662E0,8.7707645E-1,-4.8175813E-3,4.151825E-1],"categories":[],"categories_nodes":[],"categories_segments":[],"categories_sizes":[],"default_left":[0,0,0,0,0,0,0,0,0,0,0,0,0],"id":1,"left_children":[1,3,5,-1,7,9,-1,-1,-1,11,-1,-1,-1],"loss_changes":[1.5901984E3,4.234923E2,1.26527405E2,0E0,2.4363346E1,1.4911713E1,0E0,0E0,0E0,1.2026693E1,0E0,0E0,0E0],"parents":[2147483647,0,0,1,1,2,2,4,4,5,5,9,9],"right_children":[2,4,6,-1,8,10,-1,-1,-1,12,-1,-1,-1],"split_conditions":[8.5E-1,2.5E0,1E0,-1.321614E0,3E-2,1E-2,2.0444324E0,4.5846042E-1,-8.1081204E-2,9E-1,8.7707645E-1,-4.8175813E-3,4.151825E-1],"split_indices":[0,4,0,0,2,2,0,0,0,0,0,0,0],"split_type":[0,0,0,0,0,0,0,0,0,0,0,0,0],"sum_hessian":[1.2E1,7E0,5E0,5E0,2E0,4E0,1E0,1E0,1E0,2E0,2E0,1E0,1E0],"tree_param":{"num_deleted":"0","num_feature":"5","num_nodes":"13","size_leaf_vector":"1"}},{"base_weights":[2.8161285E0,7.3370233E0,-1.319223E0,1.5019814E1,1.8987111E0,1.9422108E0,7.0783466E-1,4.4093065E0,-2.918518E0,7.080714E-1,6.640772E-1,-7.7027135E-2,-3.607506E-1,-4.576874E-3,1.10787585E-1],"categories":[],"categories_nodes":[],"categories_segments":[],"categories_sizes":[],"default_left":[0,0,0,0,0,0,0,0,0,0,0,0,0,0,0],"id":2,"left_children":[1,3,-1,5,7,-1,-1,9,11,13,-1,-1,-1,-1,-1],"loss_changes":[9.652569E2,3.8929584E2,0E0,2.366272E0,9.7527435E1,0E0,0E0,3.659375E1,1.6615887E0,9.54872E-1,0E0,0E0,0E0,0E0,0E0],"parents":[2147483647,0,0,1,1,3,3,4,4,7,7,8,8,9,9],"right_children":[2,4,-1,6,8,-1,-1,10,12,14,-1,-1,-1,-1,-1],"split_conditions":[1.25E-1,6.7E-2,-1.319223E0,5E-2,4E-2,1.9422108E0,7.0783466E-1,2E-2,5E-2,1E-1,6.640772E-1,-7.7027135E-2,-3.607506E-1,-4.576874E-3,1.10787585E-1],"split_indices":[3,1,0,1,2,0,0,2,2,1,0,0,0,0,0],"split_type":[0,0,0,0,0,0,0,0,0,0,0,0,0,0,0],"sum_hessian":[1.1E1,9E0,2E0,3E0,6E0,1E0,2E0,4E0,2E0,2E0,2E0,1E0,1E0,1E0,1E0],"tree_param":{"num_deleted":"0","num_feature":"5","num_nodes":"15","size_leaf_vector":"1"}},{"base_weights":[8.497381E-1,-3.934389E0,1.6513582E0,-1.0345122E0,2.063619E0,3.383878E0,5.575199E-1,1.05248265E-1,4.0233347E-1,1.6511917E-1,-3.574346E-1,1.9560624E-2,-7.317581E-2],"categories":[],"categories_nodes":[],"categories_segments":[],"categories_sizes":[],"default_left":[0,0,0,0,0,0,0,0,0,0,0,0,0],"id":3,"left_children":[1,3,-1,-1,5,7,9,-1,-1,-1,11,-1,-1],"loss_changes":[9.642248E2,4.0586462E2,0E0,0E0,1.0044067E1,2.379837E-1,4.5928326E0,0E0,0E0,0E0,7.6418495E-1,0E0,0E0],"parents":[2147483647,0,0,1,1,4,4,5,5,6,6,10,10],"right_children":[2,4,-1,-1,6,8,10,-1,-1,-1,12,-1,-1],"split_conditions":[8.5E-1,1E-2,1.6513582E0,-1.0345122E0,3E-2,2E-2,8E-1,1.05248265E-1,4.0233347E-1,1.6511917E-1,4E-2,1.9560624E-2,-7.317581E-2],"split_indices":[0,2,0,0,2,2,0,0,0,0,2,0,0],"split_type":[0,0,0,0,0,0,0,0,0,0,0,0,0],"sum_hessian":[1.1E1,9E0,2E0,4E0,5E0,2E0,3E0,1E0,1E0,1E0,2E0,1E0,1E0],"tree_param":{"num_deleted":"0","num_feature":"5","num_nodes":"13","size_leaf_vector":"1"}},{"base_weights":[-7.679932E-1,-3.169236E0,1.7625325E0,-7.577478E0,2.9512515E0,-1.0284036E0,1.2636515E0,1.9604378E0,4.4480667E-1,-8.691597E-2,2.7646372E-1,5.29644E-1,3.2146835E0,1.5686321E-1,-3.3956274E-1,3.8221666E-1,9.998589E-2,-6.951695E-2,1.8582536E-2],"categories":[],"categories_nodes":[],"categories_segments":[],"categories_sizes":[],"default_left":[0,0,0,0,0,0,0,0,0,0,0,0,0,0,0,0,0,0,0],"id":4,"left_children":[1,3,-1,5,7,-1,9,11,-1,-1,-1,13,15,-1,17,-1,-1,-1,-1],"loss_changes":[7.6252795E2,4.270718E2,0E0,2.2835675E2,1.6612968E0,0E0,1.2006866E1,9.064762E0,0E0,0E0,0E0,4.145031E0,2.14777E-1,0E0,6.8967474E-1,0E0,0E0,0E0,0E0],"parents":[2147483647,0,0,1,1,3,3,4,4,6,6,7,7,11,11,12,12,14,14],"right_children":[2,4,-1,6,8,-1,10,12,-1,-1,-1,14,16,-1,18,-1,-1,-1,-1],"split_conditions":[1E0,2.5E0,1.7625325E0,8.5E-1,8.5E-1,-1.0284036E0,9E-1,5E0,4.4480667E-1,-8.691597E-2,2.7646372E-1,8E-1,1E1,1.5686321E-1,3.3333333E0,3.8221666E-1,9.998589E-2,-6.951695E-2,1.8582536E-2],"split_indices":[0,4,0,0,0,0,0,4,0,0,0,0,4,0,4,0,0,0,0],"split_type":[0,0,0,0,0,0,0,0,0,0,0,0,0,0,0,0,0,0,0],"sum_hessian":[1.5E1,1.4E1,1E0,8E0,6E0,6E0,2E0,5E0,1E0,1E0,1E0,3E0,2E0,1E0,2E0,1E0,1E0,1E0,1E0],"tree_param":{"num_deleted":"0","num_feature":"5","num_nodes":"19","size_leaf_vector":"1"}},{"base_weights":[-2.9968834E-1,1.6744057E0,-2.89875E0,-7.1195626E0,3.212125E0,-4.024014E0,-1.0937473E0,4.4032936E0,5.5319214E-1,1.2004675E0,-6.936372E0,9.498673E-2,5.2378136E-1,-6.604119E-2,1.4902E-1,2.626404E-1,-8.257027E-2,-3.0035198E-1,-9.367464E-1],"categories":[],"categories_nodes":[],"categories_segments":[],"categories_sizes":[],"default_left":[0,0,0,0,0,0,0,0,0,0,0,0,0,0,0,0,0,0,0],"id":5,"left_children":[1,-1,3,5,7,9,-1,11,13,15,17,-1,-1,-1,-1,-1,-1,-1,-1],"loss_changes":[6.6870526E2,0E0,3.581761E2,5.0535645E1,1.6567554E1,9.962025E1,0E0,6.5525894E0,4.3956156E0,1.0836197E1,1.0109146E1,0E0,0E0,0E0,0E0,0E0,0E0,0E0,0E0],"parents":[2147483647,0,0,2,2,3,3,4,4,5,5,7,7,8,8,9,9,10,10],"right_children":[2,-1,4,6,8,10,-1,12,14,16,18,-1,-1,-1,-1,-1,-1,-1,-1],"split_conditions":[5E-2,1.6744057E0,2.5E0,1.25E-1,4E-2,1E-1,-1.0937473E0,2E-2,1.25E-1,6.7E-2,1.25E-1,9.498673E-2,5.2378136E-1,-6.604119E-2,1.4902E-1,2.626404E-1,-8.257027E-2,-3.0035198E-1,-9.367464E-1],"split_indices":[1,0,4,3,2,1,0,2,1,1,1,0,0,0,0,0,0,0,0],"split_type":[0,0,0,0,0,0,0,0,0,0,0,0,0,0,0,0,0,0,0],"sum_hessian":[1.3E1,1E0,1.2E1,7E0,5E0,5E0,2E0,3E0,2E0,2E0,3E0,1E0,2E0,1E0,1E0,1E0,1E0,2E0,1E0],"tree_param":{"num_deleted":"0","num_feature":"5","num_nodes":"19","size_leaf_vector":"1"}},{"base_weights":[-3.8982365E-1,-3.667681E0,1.3944166E0,-7.8406224E0,2.5075214E0,-8.7365925E-1,-7.844162E-2,3.2599823E0,-6.2739186E-2,9.023743E-2,3.6237907E-1],"categories":[],"categories_nodes":[],"categories_segments":[],"categories_sizes":[],"default_left":[0,0,0,0,0,0,0,0,0,0,0],"id":6,"left_children":[1,3,-1,5,7,-1,-1,9,-1,-1,-1],"loss_changes":[7.559143E2,3.546544E2,0E0,4.372403E1,1.619868E1,0E0,0E0,1.0185776E0,0E0,0E0,0E0],"parents":[2147483647,0,0,1,1,3,3,4,4,7,7],"right_children":[2,4,-1,6,8,-1,-1,10,-1,-1,-1],"split_conditions":[9E-1,2.5E0,1.3944166E0,8.5E-1,4E-2,-8.7365925E-1,-7.844162E-2,2E-2,-6.2739186E-2,9.023743E-2,3.6237907E-1],"split_indices":[0,4,0,0,2,0,0,2,0,0,0],"split_type":[0,0,0,0,0,0,0,0,0,0,0],"sum_hessian":[1.4E1,1.2E1,2E0,7E0,5E0,6E0,1E0,4E0,1E0,1E0,3E0],"tree_param":{"num_deleted":"0","num_feature":"5","num_nodes":"11","size_leaf_vector":"1"}},{"base_weights":[-2.4656143E0,-5.978758E0,2.4035149E0,-7.98774E0,7.017873E-1,1.5432402E0,3.7825814E-1,-8.555919E-1,-2.2893333E-1,-7.451935E-2,1.7978744E-1,2.922449E-1,2.6968205E-1,1.4470597E-1,-5.7504654E-2],"categories":[],"categories_nodes":[],"categories_segments":[],"categories_sizes":[],"default_left":[0,0,0,0,0,0,0,0,0,0,0,0,0,0,0],"id":7,"left_children":[1,3,5,7,9,11,-1,-1,-1,-1,-1,13,-1,-1,-1],"loss_changes":[2.7095923E2,1.2639557E2,2.4672012E0,3.0766602E0,6.0978155E0,7.870612E0,0E0,0E0,0E0,0E0,0E0,4.83837E0,0E0,0E0,0E0],"parents":[2147483647,0,0,1,1,2,2,3,3,4,4,5,5,11,11],"right_children":[2,4,6,8,10,12,-1,-1,-1,-1,-1,14,-1,-1,-1],"split_conditions":[2.5E0,8.5E-1,8.5E-1,2E0,9E-1,5E0,3.7825814E-1,-8.555919E-1,-2.2893333E-1,-7.451935E-2,1.7978744E-1,8E-1,2.6968205E-1,1.4470597E-1,-5.7504654E-2],"split_indices":[4,0,0,4,0,4,0,0,0,0,0,0,0,0,0],"split_type":[0,0,0,0,0,0,0,0,0,0,0,0,0,0,0],"sum_hessian":[1.4E1,8E0,6E0,6E0,2E0,5E0,1E0,5E0,1E0,1E0,1E0,3E0,2E0,1E0,2E0],"tree_param":{"num_deleted":"0","num_feature":"5","num_nodes":"15","size_leaf_vector":"1"}},{"base_weights":[-1.7203923E0,-4.7825546E0,1.6285019E0,-7.673855E-1,6.666972E-1,5.1682127E-1,3.5934526E-1,-7.079353E-2,1.7079811E-1,1.3747063E-1,-4.1326523E-2,7.224121E-2,-5.367101E-2],"categories":[],"categories_nodes":[],"categories_segments":[],"categories_sizes":[],"default_left":[0,0,0,0,0,0,0,0,0,0,0,0,0],"id":8,"left_children":[1,3,5,-1,7,9,-1,-1,-1,-1,11,-1,-1],"loss_changes":[1.2059183E2,9.964867E1,1.1249213E1,0E0,5.503288E0,2.450945E0,0E0,0E0,0E0,0E0,1.9011002E0,0E0,0E0],"parents":[2147483647,0,0,1,1,2,2,4,4,5,5,10,10],"right_children":[2,4,6,-1,8,10,-1,-1,-1,-1,12,-1,-1],"split_conditions":[1E-2,8.5E-1,8.5E-1,-7.673855E-1,9E-1,8E-1,3.5934526E-1,-7.079353E-2,1.7079811E-1,1.3747063E-1,2E-2,7.224121E-2,-5.367101E-2],"split_indices":[2,0,0,0,0,0,0,0,0,0,2,0,0],"split_type":[0,0,0,0,0,0,0,0,0,0,0,0,0],"sum_hessian":[1E1,5E0,5E0,3E0,2E0,4E0,1E0,1E0,1E0,1E0,3E0,1E0,2E0],"tree_param":{"num_deleted":"0","num_feature":"5","num_nodes":"13","size_leaf_vector":"1"}},{"base_weights":[1.1508636E0,-3.3058548E0,1.2651825E1,-6.2207994E0,1.1642895E0,3.943386E-1,1.5034351E0,-7.4397296E-1,-6.725388E-2,3.0799714E-1,-5.0092824E-2],"categories":[],"categories_nodes":[],"categories_segments":[],"categories_sizes":[],"default_left":[0,0,0,0,0,0,0,0,0,0,0],"id":9,"left_children":[1,3,5,7,9,-1,-1,-1,-1,-1,-1],"loss_changes":[5.5439056E2,1.114846E2,2.9580078E0,2.8811218E1,1.4302954E1,0E0,0E0,0E0,0E0,0E0,0E0],"parents":[2147483647,0,0,1,1,2,2,3,3,4,4],"right_children":[2,4,6,8,10,-1,-1,-1,-1,-1,-1],"split_conditions":[9E-1,1E-2,1E0,8.5E-1,3E-2,3.943386E-1,1.5034351E0,-7.4397296E-1,-6.725388E-2,3.0799714E-1,-5.0092824E-2],"split_indices":[0,2,0,0,2,0,0,0,0,0,0],"split_type":[0,0,0,0,0,0,0,0,0,0,0],"sum_hessian":[9E0,7E0,2E0,4E0,3E0,1E0,1E0,3E0,1E0,1E0,2E0],"tree_param":{"num_deleted":"0","num_feature":"5","num_nodes":"11","size_leaf_vector":"1"}},{"base_weights":[9.179811E-1,-1.3859596E0,1.4282635E0,-5.2808566E0,2.1505177E0,-6.081463E-1,-6.3891225E-2,2.6844711E0,5.437558E-1,5.3229142E-2,3.089443E-1,1.3310185E-1,-5.1538467E-2],"categories":[],"categories_nodes":[],"categories_segments":[],"categories_sizes":[],"default_left":[0,0,0,0,0,0,0,0,0,0,0,0,0],"id":10,"left_children":[1,3,-1,5,7,-1,-1,9,11,-1,-1,-1,-1],"loss_changes":[4.2008295E2,1.7664713E2,0E0,1.8412704E1,4.5458603E0,0E0,0E0,2.713379E0,3.1874516E0,0E0,0E0,0E0,0E0],"parents":[2147483647,0,0,1,1,3,3,4,4,7,7,8,8],"right_children":[2,4,-1,6,8,-1,-1,10,12,-1,-1,-1,-1],"split_conditions":[9E-1,2.5E0,1.4282635E0,8.5E-1,4E-2,-6.081463E-1,-6.3891225E-2,2E-2,8E-1,5.3229142E-2,3.089443E-1,1.3310185E-1,-5.1538467E-2],"split_indices":[0,4,0,0,2,0,0,2,0,0,0,0,0],"split_type":[0,0,0,0,0,0,0,0,0,0,0,0,0],"sum_hessian":[1.2E1,1.1E1,1E0,5E0,6E0,4E0,1E0,4E0,2E0,1E0,3E0,1E0,1E0],"tree_param":{"num_deleted":"0","num_feature":"5","num_nodes":"13","size_leaf_vector":"1"}},{"base_weights":[-1.2584155E0,-5.381997E0,2.5070205E0,-6.076674E-1,-6.069679E-2,1.2372137E0,4.2109606E-1,2.184784E0,2.172327E-1,5.0567627E-2,2.7714998E-1,1.2644672E-1,-5.5333454E-2],"categories":[],"categories_nodes":[],"categories_segments":[],"categories_sizes":[],"default_left":[0,0,0,0,0,0,0,0,0,0,0,0,0],"id":11,"left_children":[1,3,5,-1,-1,7,-1,9,11,-1,-1,-1,-1],"loss_changes":[2.3087195E2,1.9531357E1,1.2099541E1,0E0,0E0,5.3244143E0,0E0,1.5539951E0,3.9275317E0,0E0,0E0,0E0,0E0],"parents":[2147483647,0,0,1,1,2,2,5,5,7,7,8,8],"right_children":[2,4,6,-1,-1,8,-1,10,12,-1,-1,-1,-1],"split_conditions":[1E-2,8.5E-1,8.5E-1,-6.076674E-1,-6.069679E-2,3E-2,4.2109606E-1,2E-2,8E-1,5.0567627E-2,2.7714998E-1,1.2644672E-1,-5.5333454E-2],"split_indices":[2,0,0,0,0,2,0,2,0,0,0,0,0],"split_type":[0,0,0,0,0,0,0,0,0,0,0,0,0],"sum_hessian":[1.3E1,6E0,7E0,5E0,1E0,5E0,2E0,2E0,3E0,1E0,1E0,1E0,2E0],"tree_param":{"num_deleted":"0","num_feature":"5","num_nodes":"13","size_leaf_vector":"1"}},{"base_weights":[4.5525843E-1,-1.4549166E0,1.3598855E0,-4.1364613E0,1.8175513E0,-5.570286E0,1.1000824E-1,2.9674263E0,2.132883E-1,-7.2373605E-1,-2.9274082E0,-5.766182E-2,7.416306E-2,4.8039246E-2,3.6363068E-1,1.2012444E-1,-5.1644515E-2,5.4404324E-1,-6.6708815E-1,7.4944496E-2,6.6619874E-3],"categories":[],"categories_nodes":[],"categories_segments":[],"categories_sizes":[],"default_left":[0,0,0,0,0,0,0,0,0,0,0,0,0,0,0,0,0,0,0,0,0],"id":12,"left_children":[1,3,-1,5,7,9,11,13,15,-1,17,-1,-1,-1,-1,-1,-1,19,-1,-1,-1],"loss_changes":[3.963837E2,1.30372E2,0E0,4.932231E1,1.2279999E1,5.2485504E0,1.7287034E0,4.907257E0,3.5041554E0,0E0,5.5610382E1,0E0,0E0,0E0,0E0,0E0,0E0,2.4426287E-1,0E0,0E0,0E0],"parents":[2147483647,0,0,1,1,3,3,4,4,5,5,6,6,7,7,8,8,10,10,17,17],"right_children":[2,4,-1,6,8,10,12,14,16,-1,18,-1,-1,-1,-1,-1,-1,20,-1,-1,-1],"split_conditions":[1E0,1E-2,1.3598855E0,8.5E-1,3E-2,7.5E-2,9E-1,2E-2,8E-1,-7.2373605E-1,1.5E-1,-5.766182E-2,7.416306E-2,4.8039246E-2,3.6363068E-1,1.2012444E-1,-5.1644515E-2,1.25E-1,-6.6708815E-1,7.4944496E-2,6.6619874E-3],"split_indices":[0,2,0,0,2,1,0,2,0,0,1,0,0,0,0,0,0,1,0,0,0],"split_type":[0,0,0,0,0,0,0,0,0,0,0,0,0,0,0,0,0,0,0,0,0],"sum_hessian":[1.4E1,1.3E1,1E0,7E0,6E0,5E0,2E0,3E0,3E0,2E0,3E0,1E0,1E0,1E0,2E0,1E0,2E0,2E0,1E0,1E0,1E0],"tree_param":{"num_deleted":"0","num_feature":"5","num_nodes":"21","size_leaf_vector":"1"}},{"base_weights":[1.3092912E0,-5.7751876E-1,1.2918911E0,1.1597152E0,-6.75487E-1,1.9066628E0,-1.4676996E0,2.7056885E-1,3.1614242E0,-4.3612864E-2,-1.7654209E-1,-1.40628815E-2,7.045479E-2,1.4428076E0,3.8262329E-1,3.4644064E-2,-5.4778673E-2,2.451107E-1,-2.8689576E-2],"categories":[],"categories_nodes":[],"categories_segments":[],"categories_sizes":[],"default_left":[0,0,0,0,0,0,0,0,0,0,0,0,0,0,0,0,0,0,0],"id":13,"left_children":[1,3,-1,5,-1,7,9,11,13,-1,-1,15,-1,17,-1,-1,-1,-1,-1],"loss_changes":[3.1413297E2,1.4734328E2,0E0,2.4386364E1,0E0,1.7620785E1,1.5141106E-1,6.27529E-1,1.9224167E-1,0E0,0E0,9.594128E-1,0E0,5.935389E0,0E0,0E0,0E0,0E0,0E0],"parents":[2147483647,0,0,1,1,3,3,5,5,6,6,7,7,8,8,11,11,13,13],"right_children":[2,4,-1,6,-1,8,10,12,14,-1,-1,16,-1,18,-1,-1,-1,-1,-1],"split_conditions":[1E0,1.25E-1,1.2918911E0,4E-2,-6.75487E-1,2E-2,5E-2,9E-1,8.5E-1,-4.3612864E-2,-1.7654209E-1,8.5E-1,7.045479E-2,3E-2,3.8262329E-1,3.4644064E-2,-5.4778673E-2,2.451107E-1,-2.8689576E-2],"split_indices":[0,3,0,2,0,2,2,0,0,0,0,0,0,2,0,0,0,0,0],"split_type":[0,0,0,0,0,0,0,0,0,0,0,0,0,0,0,0,0,0,0],"sum_hessian":[1.3E1,1.2E1,1E0,1E1,2E0,8E0,2E0,4E0,4E0,1E0,1E0,3E0,1E0,2E0,2E0,2E0,1E0,1E0,1E0],"tree_param":{"num_deleted":"0","num_feature":"5","num_nodes":"19","size_leaf_vector":"1"}},{"base_weights":[-5.880655E-1,1.0244349E0,-6.304545E-1,-3.3343124E-1,1.8479913E0,4.217863E-1,-1.6771507E-1,1.1865507E0,2.9083177E-1,6.946506E-2,9.928131E-2,3.9602566E-1,1.8450674E0,-5.203972E-2,6.693192E-2,1.4789258E-1,-4.5791626E-2,2.3285523E-1,4.390488E-2],"categories":[],"categories_nodes":[],"categories_segments":[],"categories_sizes":[],"default_left":[0,0,0,0,0,0,0,0,0,0,0,0,0,0,0,0,0,0,0],"id":14,"left_children":[1,3,-1,5,7,9,-1,11,-1,-1,13,15,17,-1,-1,-1,-1,-1,-1],"loss_changes":[1.2629032E2,1.2917251E1,0E0,5.7814016E0,1.4585342E0,2.8303462E-1,0E0,2.3927498E0,0E0,0E0,1.4080324E0,4.376159E0,1.0170174E0,0E0,0E0,0E0,0E0,0E0,0E0],"parents":[2147483647,0,0,1,1,3,3,4,4,5,5,7,7,10,10,11,11,12,12],"right_children":[2,4,-1,6,8,10,-1,12,-1,-1,14,16,18,-1,-1,-1,-1,-1,-1],"split_conditions":[1.33E-1,2.5E0,-6.304545E-1,2E0,8.5E-1,8.5E-1,-1.6771507E-1,5E0,2.9083177E-1,6.946506E-2,9E-1,8E-1,1E1,-5.203972E-2,6.693192E-2,1.4789258E-1,-4.5791626E-2,2.3285523E-1,4.390488E-2],"split_indices":[3,4,0,4,0,0,0,4,0,0,0,0,4,0,0,0,0,0,0],"split_type":[0,0,0,0,0,0,0,0,0,0,0,0,0,0,0,0,0,0,0],"sum_hessian":[1.2E1,1E1,2E0,4E0,6E0,3E0,1E0,5E0,1E0,1E0,2E0,3E0,2E0,1E0,1E0,1E0,2E0,1E0,1E0],"tree_param":{"num_deleted":"0","num_feature":"5","num_nodes":"19","size_leaf_vector":"1"}},{"base_weights":[9.944757E-2,1.2239498E0,-2.116875E0,-4.7552878E-1,2.0002778E0,2.6960602E0,-3.914261E-2,4.170952E-2,3.3166835E-1],"categories":[],"categories_nodes":[],"categories_segments":[],"categories_sizes":[],"default_left":[0,0,0,0,0,0,0,0,0],"id":15,"left_children":[1,-1,3,-1,5,7,-1,-1,-1],"loss_changes":[3.487847E2,0E0,1.2900212E2,0E0,9.375837E0,4.274143E0,0E0,0E0,0E0],"parents":[2147483647,0,0,2,2,4,4,5,5],"right_children":[2,-1,4,-1,6,8,-1,-1,-1],"split_conditions":[5E-2,1.2239498E0,2.5E0,-4.7552878E-1,4E-2,2E-2,-3.914261E-2,4.170952E-2,3.3166835E-1],"split_indices":[1,0,4,0,2,2,0,0,0],"split_type":[0,0,0,0,0,0,0,0,0],"sum_hessian":[1.1E1,1E0,1E1,6E0,4E0,3E0,1E0,1E0,2E0],"tree_param":{"num_deleted":"0","num_feature":"5","num_nodes":"9","size_leaf_vector":"1"}},{"base_weights":[4.9534115E-1,-1.2554052E0,1.1627522E0,-3.585825E0,2.0610554E0,-4.986769E0,4.113388E-1,7.2446823E-1,3.1561536E-1,-5.4419124E-1,-1.355528E-1,-2.5661087E-2,8.736191E-2,1.424551E-1,1.6256968E-2,-3.718548E-2,3.9624024E-2],"categories":[],"categories_nodes":[],"categories_segments":[],"categories_sizes":[],"default_left":[0,0,0,0,0,0,0,0,0,0,0,0,0,0,0,0,0],"id":16,"left_children":[1,3,-1,5,7,9,11,13,-1,-1,-1,-1,-1,-1,15,-1,-1],"loss_changes":[2.8745197E2,1.0786428E2,0E0,4.6849686E1,6.4956284E0,2.539734E0,1.1505201E0,1.960067E0,0E0,0E0,0E0,0E0,0E0,0E0,5.8977175E-1,0E0,0E0],"parents":[2147483647,0,0,1,1,3,3,4,4,5,5,6,6,7,7,14,14],"right_children":[2,4,-1,6,8,10,12,14,-1,-1,-1,-1,-1,-1,16,-1,-1],"split_conditions":[1E0,2.5E0,1.1627522E0,8.5E-1,8.5E-1,2E0,9E-1,8E-1,3.1561536E-1,-5.4419124E-1,-1.355528E-1,-2.5661087E-2,8.736191E-2,1.424551E-1,3.3333333E0,-3.718548E-2,3.9624024E-2],"split_indices":[0,4,0,0,0,4,0,0,0,0,0,0,0,0,4,0,0],"split_type":[0,0,0,0,0,0,0,0,0,0,0,0,0,0,0,0,0],"sum_hessian":[1.3E1,1.2E1,1E0,7E0,5E0,5E0,2E0,3E0,2E0,4E0,1E0,1E0,1E0,1E0,2E0,1E0,1E0],"tree_param":{"num_deleted":"0","num_feature":"5","num_nodes":"17","size_leaf_vector":"1"}},{"base_weights":[-6.4913803E-1,-3.4086418E0,1.84657E0,-1.6494408E0,-5.2044296E-1,2.9457447E-1,9.892209E-1,8.779659E-1,-5.879534E-1,1.6019363E0,2.8237915E-1,3.9076996E-1,1.1697769E-1,3.764267E-2,2.0264779E-1,-5.257098E-2,1.353323E-1,8.29937E-2,-2.4378205E-2],"categories":[],"categories_nodes":[],"categories_segments":[],"categories_sizes":[],"default_left":[0,0,0,0,0,0,0,0,0,0,0,0,0,0,0,0,0,0,0],"id":17,"left_children":[1,3,5,7,-1,-1,9,11,-1,13,15,17,-1,-1,-1,-1,-1,-1,-1],"loss_changes":[1.0271111E2,1.3529663E1,4.625017E0,5.8617855E1,0E0,0E0,2.1462045E0,1.1156273E-1,0E0,7.98018E-1,4.1731267E0,1.0383466E0,0E0,0E0,0E0,0E0,0E0,0E0,0E0],"parents":[2147483647,0,0,1,1,2,2,3,3,6,6,7,7,9,9,10,10,11,11],"right_children":[2,4,6,8,-1,-1,10,12,-1,14,16,18,-1,-1,-1,-1,-1,-1,-1],"split_conditions":[1E-2,1.25E-1,1E-1,1.25E-1,-5.2044296E-1,2.9457447E-1,3E-2,1E-1,-5.879534E-1,2E-2,1.25E-1,6.7E-2,1.1697769E-1,3.764267E-2,2.0264779E-1,-5.257098E-2,1.353323E-1,8.29937E-2,-2.4378205E-2],"split_indices":[2,3,1,1,0,0,2,1,0,2,1,1,0,0,0,0,0,0,0],"split_type":[0,0,0,0,0,0,0,0,0,0,0,0,0,0,0,0,0,0,0],"sum_hessian":[1.3E1,6E0,7E0,4E0,2E0,2E0,5E0,3E0,1E0,2E0,3E0,2E0,1E0,1E0,1E0,2E0,1E0,1E0,1E0],"tree_param":{"num_deleted":"0","num_feature":"5","num_nodes":"19","size_leaf_vector":"1"}},{"base_weights":[1.473234E0,-2.3810482E-1,1.100465E0,-2.9313717E0,2.1044247E0,-3.8330224E0,7.884407E-2,2.5627227E0,6.3911945E-1,-5.585558E-1,-1.9984989E0,3.57605E-2,3.024601E-1,1.285656E-1,-3.2697678E-2,8.150692E-2,-3.2080448E-1],"categories":[],"categories_nodes":[],"categories_segments":[],"categories_sizes":[],"default_left":[0,0,0,0,0,0,0,0,0,0,0,0,0,0,0,0,0],"id":18,"left_children":[1,3,-1,5,7,9,-1,11,13,-1,15,-1,-1,-1,-1,-1,-1],"loss_changes":[2.1466954E2,8.1877525E1,0E0,2.3145947E1,3.0629444E0,4.9126053E0,0E0,4.010868E0,2.294229E0,0E0,1.6227337E1,0E0,0E0,0E0,0E0,0E0,0E0],"parents":[2147483647,0,0,1,1,3,3,4,4,5,5,7,7,8,8,10,10],"right_children":[2,4,-1,6,8,10,-1,12,14,-1,16,-1,-1,-1,-1,-1,-1],"split_conditions":[1E0,2.5E0,1.100465E0,8.5E-1,4E-2,6.7E-2,7.884407E-2,2E-2,8E-1,-5.585558E-1,7.5E-2,3.57605E-2,3.024601E-1,1.285656E-1,-3.2697678E-2,8.150692E-2,-3.2080448E-1],"split_indices":[0,4,0,0,2,3,0,2,0,0,3,0,0,0,0,0,0],"split_type":[0,0,0,0,0,0,0,0,0,0,0,0,0,0,0,0,0],"sum_hessian":[1.2E1,1.1E1,1E0,5E0,6E0,4E0,1E0,4E0,2E0,1E0,3E0,1E0,3E0,1E0,1E0,1E0,2E0],"tree_param":{"num_deleted":"0","num_feature":"5","num_nodes":"17","size_leaf_vector":"1"}},{"base_weights":[7.435373E-2,-1.6618532E0,1.0454419E0,-3.6842105E0,9.7453946E-1,-5.349097E0,3.1866965E-1,1.8972454E0,-5.805817E-2,-6.1358386E-1,-1.1010647E-1,-2.7101517E-2,7.490196E-2,3.397255E-2,2.303177E-1],"categories":[],"categories_nodes":[],"categories_segments":[],"categories_sizes":[],"default_left":[0,0,0,0,0,0,0,0,0,0,0,0,0,0,0],"id":19,"left_children":[1,3,-1,5,7,9,11,13,-1,-1,-1,-1,-1,-1,-1],"loss_changes":[2.5165892E2,6.757115E1,0E0,4.835498E1,9.711023E0,9.954559E0,9.6430826E-1,1.7465382E0,0E0,0E0,0E0,0E0,0E0,0E0,0E0],"parents":[2147483647,0,0,1,1,3,3,4,4,5,5,6,6,7,7],"right_children":[2,4,-1,6,8,10,12,14,-1,-1,-1,-1,-1,-1,-1],"split_conditions":[1E0,2.5E0,1.0454419E0,8.5E-1,3E-2,1E-2,9E-1,2E-2,-5.805817E-2,-6.1358386E-1,-1.1010647E-1,-2.7101517E-2,7.490196E-2,3.397255E-2,2.303177E-1],"split_indices":[0,4,0,0,2,2,0,2,0,0,0,0,0,0,0],"split_type":[0,0,0,0,0,0,0,0,0,0,0,0,0,0,0],"sum_hessian":[1.2E1,1.1E1,1E0,6E0,5E0,4E0,2E0,3E0,2E0,3E0,1E0,1E0,1E0,1E0,2E0],"tree_param":{"num_deleted":"0","num_feature":"5","num_nodes":"15","size_leaf_vector":"1"}},{"base_weights":[-2.9006276E-1,4.5677683E-1,-4.999489E-1,1.0087427E0,-3.0834064E-1,1.6652193E0,-2.4336854E-1,1.8108968E-1,3.2273866E-2,-9.294119E-2,1.2504025E-1],"categories":[],"categories_nodes":[],"categories_segments":[],"categories_sizes":[],"default_left":[0,0,0,0,0,0,0,0,0,0,0],"id":20,"left_children":[1,3,-1,5,-1,7,9,-1,-1,-1,-1],"loss_changes":[5.1524254E1,2.8513147E1,0E0,1.0269044E1,0E0,9.8010635E-1,6.286097E0,0E0,0E0,0E0,0E0],"parents":[2147483647,0,0,1,1,3,3,5,5,6,6],"right_children":[2,4,-1,6,-1,8,10,-1,-1,-1,-1],"split_conditions":[1.5E-1,1.33E-1,-4.999489E-1,3E-2,-3.0834064E-1,1E1,1.25E-1,1.8108968E-1,3.2273866E-2,-9.294119E-2,1.2504025E-1],"split_indices":[1,3,0,2,0,4,1,0,0,0,0],"split_type":[0,0,0,0,0,0,0,0,0,0,0],"sum_hessian":[1.3E1,1.2E1,1E0,1.1E1,1E0,7E0,4E0,6E0,1E0,3E0,1E0],"tree_param":{"num_deleted":"0","num_feature":"5","num_nodes":"11","size_leaf_vector":"1"}},{"base_weights":[7.3047376E-1,-5.3298163E-1,9.8411524E-1,-2.507895E0,1.5085545E0,-3.4348633E0,1.8200684E-1,7.809448E-1,2.4609223E-1,-3.72202E-1,-9.995403E-2,-3.4801103E-2,6.2102128E-2,2.3400497E-1,1.249883E0,1.18788145E-1,-4.7991436E-2,1.568222E-1,3.0660247E-2],"categories":[],"categories_nodes":[],"categories_segments":[],"categories_sizes":[],"default_left":[0,0,0,0,0,0,0,0,0,0,0,0,0,0,0,0,0,0,0],"id":21,"left_children":[1,3,-1,5,7,9,11,13,-1,-1,-1,-1,-1,15,17,-1,-1,-1,-1],"loss_changes":[1.8942012E2,6.4261154E1,0E0,2.05728E1,3.6217709E0,4.7560883E-1,9.1417867E-1,1.2464068E0,0E0,0E0,0E0,0E0,0E0,3.2940447E0,4.200282E-1,0E0,0E0,0E0,0E0],"parents":[2147483647,0,0,1,1,3,3,4,4,5,5,6,6,7,7,13,13,14,14],"right_children":[2,4,-1,6,8,10,12,14,-1,-1,-1,-1,-1,16,18,-1,-1,-1,-1],"split_conditions":[1E0,2.5E0,9.8411524E-1,8.5E-1,8.5E-1,2E0,9E-1,5E0,2.4609223E-1,-3.72202E-1,-9.995403E-2,-3.4801103E-2,6.2102128E-2,8E-1,1E1,1.18788145E-1,-4.7991436E-2,1.568222E-1,3.0660247E-2],"split_indices":[0,4,0,0,0,4,0,4,0,0,0,0,0,0,4,0,0,0,0],"split_type":[0,0,0,0,0,0,0,0,0,0,0,0,0,0,0,0,0,0,0],"sum_hessian":[1.5E1,1.4E1,1E0,7E0,7E0,5E0,2E0,5E0,2E0,4E0,1E0,1E0,1E0,3E0,2E0,1E0,2E0,1E0,1E0],"tree_param":{"num_deleted":"0","num_feature":"5","num_nodes":"19","size_leaf_vector":"1"}},{"base_weights":[1.2505851E0,-2.0338185E-1,9.3490946E-1,-1.9249274E0,1.3012831E0,-3.7808457E-1,-5.175686E-2,4.4368058E-1,2.2968598E-1,-8.534508E-2,1.17666245E-1,1.1873881E0,-4.479205E-2,2.9127121E-2,1.489811E-1],"categories":[],"categories_nodes":[],"categories_segments":[],"categories_sizes":[],"default_left":[0,0,0,0,0,0,0,0,0,0,0,0,0,0,0],"id":22,"left_children":[1,3,-1,5,7,-1,9,11,-1,-1,-1,13,-1,-1,-1],"loss_changes":[1.5497597E2,3.358907E1,0E0,2.0663023E1,4.957592E0,0E0,4.9434886E0,3.8473074E0,0E0,0E0,0E0,3.7907934E-1,0E0,0E0,0E0],"parents":[2147483647,0,0,1,1,3,3,4,4,6,6,7,7,11,11],"right_children":[2,4,-1,6,8,-1,10,12,-1,-1,-1,14,-1,-1,-1],"split_conditions":[1E0,2.5E0,9.3490946E-1,7.5E-2,8.5E-1,-3.7808457E-1,1.25E-1,3E-2,2.2968598E-1,-8.534508E-2,1.17666245E-1,2E-2,-4.479205E-2,2.9127121E-2,1.489811E-1],"split_indices":[0,4,0,1,0,0,1,2,0,0,0,2,0,0,0],"split_type":[0,0,0,0,0,0,0,0,0,0,0,0,0,0,0],"sum_hessian":[1.2E1,1.1E1,1E0,5E0,6E0,2E0,3E0,4E0,2E0,2E0,1E0,2E0,2E0,1E0,1E0],"tree_param":{"num_deleted":"0","num_feature":"5","num_nodes":"15","size_leaf_vector":"1"}},{"base_weights":[2.020055E0,5.8885264E-1,8.8816416E-1,1.158556E0,-2.5540906E-1,-3.850174E-2,1.677081E0,-7.965546E-2,1.1178284E-1,1.864359E-1,2.767067E-2],"categories":[],"categories_nodes":[],"categories_segments":[],"categories_sizes":[],"default_left":[0,0,0,0,0,0,0,0,0,0,0],"id":23,"left_children":[1,3,-1,5,-1,7,9,-1,-1,-1,-1],"loss_changes":[1.1261386E2,2.2655056E1,0E0,6.271613E0,0E0,4.3966484E0,1.3199348E0,0E0,0E0,0E0,0E0],"parents":[2147483647,0,0,1,1,3,3,5,5,6,6],"right_children":[2,4,-1,6,-1,8,10,-1,-1,-1,-1],"split_conditions":[1E0,1.33E-1,8.8816416E-1,2.5E0,-2.5540906E-1,1.25E-1,1E1,-7.965546E-2,1.1178284E-1,1.864359E-1,2.767067E-2],"split_indices":[0,3,0,4,0,1,4,0,0,0,0],"split_type":[0,0,0,0,0,0,0,0,0,0,0],"sum_hessian":[1.1E1,1E1,1E0,9E0,1E0,3E0,6E0,2E0,1E0,5E0,1E0],"tree_param":{"num_deleted":"0","num_feature":"5","num_nodes":"11","size_leaf_vector":"1"}},{"base_weights":[1.2656858E0,-3.510062E-2,8.4375614E-1,-1.061519E0,1.1682377E0,-2.5728633E0,5.759125E-2,2.6287079E-2,1.296737E0,-4.678135E-1,8.1884004E-2,1.285182E0,-2.4263859E-1,1.6440862E-1,5.17142E-1,1.8789838E-1,-2.4811173E-2,1.0576649E-1,-2.8195191E-2],"categories":[],"categories_nodes":[],"categories_segments":[],"categories_sizes":[],"default_left":[0,0,0,0,0,0,0,0,0,0,0,0,0,0,0,0,0,0,0],"id":24,"left_children":[1,3,-1,5,7,9,11,-1,13,-1,-1,15,-1,-1,17,-1,-1,-1,-1],"loss_changes":[1.2157417E2,1.6061651E1,0E0,1.1987702E1,3.5715866E-1,2.5252016E1,1.8364883E1,0E0,5.037327E-1,0E0,0E0,4.108088E0,0E0,0E0,1.5939963E0,0E0,0E0,0E0,0E0],"parents":[2147483647,0,0,1,1,3,3,4,4,5,5,6,6,8,8,11,11,14,14],"right_children":[2,4,-1,6,8,10,12,-1,14,-1,-1,16,-1,-1,18,-1,-1,-1,-1],"split_conditions":[1E0,1E-2,8.4375614E-1,6.7E-2,2E-2,8.5E-1,1.25E-1,2.6287079E-2,3E-2,-4.678135E-1,8.1884004E-2,8.5E-1,-2.4263859E-1,1.6440862E-1,8E-1,1.8789838E-1,-2.4811173E-2,1.0576649E-1,-2.8195191E-2],"split_indices":[0,2,0,3,2,0,3,0,2,0,0,0,0,0,0,0,0,0,0],"split_type":[0,0,0,0,0,0,0,0,0,0,0,0,0,0,0,0,0,0,0],"sum_hessian":[1.2E1,1.1E1,1E0,6E0,5E0,2E0,4E0,1E0,4E0,1E0,1E0,3E0,1E0,2E0,2E0,2E0,1E0,1E0,1E0],"tree_param":{"num_deleted":"0","num_feature":"5","num_nodes":"19","size_leaf_vector":"1"}},{"base_weights":[6.080118E-1,-1.2219387E0,5.488373E0,-2.809913E0,5.6969196E-1,1.9740424E-1,8.015682E-1,-1.5942047E0,-4.4442272E-1,1.0972595E-1,9.930827E-1,-3.196757E-1,5.3974915E-1,1.0047817E-1,-5.235532E-2,1.2398987E-1,2.4972534E-2,1.66259E-1,-8.529663E-2],"categories":[],"categories_nodes":[],"categories_segments":[],"categories_sizes":[],"default_left":[0,0,0,0,0,0,0,0,0,0,0,0,0,0,0,0,0,0,0],"id":25,"left_children":[1,3,5,7,9,-1,-1,11,-1,13,15,-1,17,-1,-1,-1,-1,-1,-1],"loss_changes":[1.3173793E2,3.2896484E1,1.9703896E1,4.8360863E0,1.0595052E0,0E0,0E0,1.882431E1,0E0,2.7933373E0,2.4078321E-1,0E0,6.1095266E0,0E0,0E0,0E0,0E0,0E0,0E0],"parents":[2147483647,0,0,1,1,2,2,3,3,4,4,7,7,9,9,10,10,12,12],"right_children":[2,4,6,8,10,-1,-1,12,-1,14,16,-1,18,-1,-1,-1,-1,-1,-1],"split_conditions":[8.5E-1,2.5E0,1E0,1.25E-1,5E0,1.9740424E-1,8.015682E-1,7.5E-2,-4.4442272E-1,8E-1,1E1,-3.196757E-1,2E0,1.0047817E-1,-5.235532E-2,1.2398987E-1,2.4972534E-2,1.66259E-1,-8.529663E-2],"split_indices":[0,4,0,1,4,0,0,1,0,0,4,0,4,0,0,0,0,0,0],"split_type":[0,0,0,0,0,0,0,0,0,0,0,0,0,0,0,0,0,0,0],"sum_hessian":[1.3E1,1E1,3E0,5E0,5E0,2E0,1E0,4E0,1E0,3E0,2E0,2E0,2E0,1E0,2E0,1E0,1E0,1E0,1E0],"tree_param":{"num_deleted":"0","num_feature":"5","num_nodes":"19","size_leaf_vector":"1"}},{"base_weights":[1.2612863E0,-1.355648E-1,7.6148987E-1,-7.0564175E-1,1.4298287E-1,-1.6449776E0,1.8695526E-1,-1.9703649E-1,-3.344078E-2,8.002421E-1,-4.8865E-2,2.3723984E-2,9.631234E-2],"categories":[],"categories_nodes":[],"categories_segments":[],"categories_sizes":[],"default_left":[0,0,0,0,0,0,0,0,0,0,0,0,0],"id":26,"left_children":[1,3,-1,5,-1,7,9,-1,-1,11,-1,-1,-1],"loss_changes":[9.865787E1,9.932895E0,0E0,7.0151243E0,0E0,1.0468664E0,2.4627376E0,0E0,0E0,4.6616316E-2,0E0,0E0,0E0],"parents":[2147483647,0,0,1,1,3,3,5,5,6,6,9,9],"right_children":[2,4,-1,6,-1,8,10,-1,-1,12,-1,-1,-1],"split_conditions":[1E0,1.25E-1,7.6148987E-1,2.5E0,1.4298287E-1,8.5E-1,3E-2,-1.9703649E-1,-3.344078E-2,8.5E-1,-4.8865E-2,2.3723984E-2,9.631234E-2],"split_indices":[0,1,0,4,0,0,2,0,0,0,0,0,0],"split_type":[0,0,0,0,0,0,0,0,0,0,0,0,0],"sum_hessian":[1E1,9E0,1E0,7E0,2E0,3E0,4E0,2E0,1E0,2E0,2E0,1E0,1E0],"tree_param":{"num_deleted":"0","num_feature":"5","num_nodes":"13","size_leaf_vector":"1"}},{"base_weights":[5.909023E-1,1.1113828E0,-2.046711E-1,5.3776246E-1,1.4627266E-1,1.0281029E0,-7.117996E-2,1.6779785E-1,2.521515E-1,-3.17688E-2,6.959152E-2],"categories":[],"categories_nodes":[],"categories_segments":[],"categories_sizes":[],"default_left":[0,0,0,0,0,0,0,0,0,0,0],"id":27,"left_children":[1,3,-1,5,-1,7,-1,-1,9,-1,-1],"loss_changes":[1.6002943E1,1.0272417E0,0E0,3.7953572E0,0E0,1.5939827E0,0E0,0E0,9.797062E-1,0E0,0E0],"parents":[2147483647,0,0,1,1,3,3,5,5,8,8],"right_children":[2,4,-1,6,-1,8,-1,-1,10,-1,-1],"split_conditions":[1.33E-1,2.5E0,-2.046711E-1,2E0,1.4627266E-1,8.5E-1,-7.117996E-2,1.6779785E-1,9E-1,-3.17688E-2,6.959152E-2],"split_indices":[3,4,0,4,0,0,0,0,0,0,0],"split_type":[0,0,0,0,0,0,0,0,0,0,0],"sum_hessian":[9E0,8E0,1E0,4E0,4E0,3E0,1E0,1E0,2E0,1E0,1E0],"tree_param":{"num_deleted":"0","num_feature":"5","num_nodes":"11","size_leaf_vector":"1"}},{"base_weights":[1.7380612E-1,-1.0116028E0,7.199356E-1,-3.0767477E-1,-4.3774053E-1,-7.100364E-1,1.0019684E-1,-2.7158356E-1,2.5102562E-1,1.1925898E0,-7.53295E-2,1.7913221E-1,-3.018036E-2],"categories":[],"categories_nodes":[],"categories_segments":[],"categories_sizes":[],"default_left":[0,0,0,0,0,0,0,0,0,0,0,0,0],"id":28,"left_children":[1,3,-1,5,-1,7,-1,-1,9,11,-1,-1,-1],"loss_changes":[1.1554883E2,2.7084576E1,0E0,6.5078855E0,0E0,1.8031021E1,0E0,0E0,7.5177975E0,4.1195936E0,0E0,0E0,0E0],"parents":[2147483647,0,0,1,1,3,3,5,5,8,8,9,9],"right_children":[2,4,-1,6,-1,8,-1,-1,10,12,-1,-1,-1],"split_conditions":[1E0,1.25E-1,7.199356E-1,9E-1,-4.3774053E-1,7.5E-2,1.0019684E-1,-2.7158356E-1,3E-2,8.5E-1,-7.53295E-2,1.7913221E-1,-3.018036E-2],"split_indices":[0,1,0,0,0,1,0,0,2,0,0,0,0],"split_type":[0,0,0,0,0,0,0,0,0,0,0,0,0],"sum_hessian":[1.2E1,1.1E1,1E0,1E1,1E0,8E0,2E0,2E0,6E0,3E0,3E0,2E0,1E0],"tree_param":{"num_deleted":"0","num_feature":"5","num_nodes":"13","size_leaf_vector":"1"}},{"base_weights":[1.3032614E0,1.7821433E-1,6.83939E-1,-5.530195E-1,1.5961285E-1,-2.53478E-1,5.3003055E-1,-3.4618664E-1,1.5216433E-1,6.2675476E-3,-5.033658E-2],"categories":[],"categories_nodes":[],"categories_segments":[],"categories_sizes":[],"default_left":[0,0,0,0,0,0,0,0,0,0,0],"id":29,"left_children":[1,3,-1,5,-1,-1,7,9,-1,-1,-1],"loss_changes":[7.352199E1,1.2287785E1,0E0,1.8514278E1,0E0,0E0,5.739981E0,2.886072E-1,0E0,0E0,0E0],"parents":[2147483647,0,0,1,1,3,3,6,6,7,7],"right_children":[2,4,-1,6,-1,-1,8,10,-1,-1,-1],"split_conditions":[1E0,8.5E-1,6.83939E-1,7.5E-2,1.5961285E-1,-2.53478E-1,1.25E-1,2E-2,1.5216433E-1,6.2675476E-3,-5.033658E-2],"split_indices":[0,0,0,1,0,0,1,2,0,0,0],"split_type":[0,0,0,0,0,0,0,0,0,0,0],"sum_hessian":[1.1E1,1E1,1E0,7E0,3E0,2E0,5E0,3E0,2E0,1E0,2E0],"tree_param":{"num_deleted":"0","num_feature":"5","num_nodes":"11","size_leaf_vector":"1"}},{"base_weights":[1.0270227E0,2.9704412E-2,6.497421E-1,7.4538344E-1,-2.365794E-1,1.0328974E0,5.5888176E-2,1.3692598E0,4.3831062E-1,9.527016E-2,-5.606168E-2,1.7859866E-1,5.9539797E-3,-3.6651995E-2,8.287608E-2],"categories":[],"categories_nodes":[],"categories_segments":[],"categories_sizes":[],"default_left":[0,0,0,0,0,0,0,0,0,0,0,0,0,0,0],"id":30,"left_children":[1,3,-1,5,-1,7,9,11,13,-1,-1,-1,-1,-1,-1],"loss_changes":[7.0731476E1,2.2336319E1,0E0,1.9246683E0,0E0,7.9981565E-1,2.7456603E0,2.0768442E0,1.5607421E0,0E0,0E0,0E0,0E0,0E0,0E0],"parents":[2147483647,0,0,1,1,3,3,5,5,6,6,7,7,8,8],"right_children":[2,4,-1,6,-1,8,10,12,14,-1,-1,-1,-1,-1,-1],"split_conditions":[1E0,1.33E-1,6.497421E-1,3E-2,-2.365794E-1,8.5E-1,8E-1,1E-2,9E-1,9.527016E-2,-5.606168E-2,1.7859866E-1,5.9539797E-3,-3.6651995E-2,8.287608E-2],"split_indices":[0,3,0,2,0,0,0,2,0,0,0,0,0,0,0],"split_type":[0,0,0,0,0,0,0,0,0,0,0,0,0,0,0],"sum_hessian":[1.2E1,1.1E1,1E0,9E0,2E0,6E0,3E0,3E0,3E0,1E0,2E0,2E0,1E0,1E0,2E0],"tree_param":{"num_deleted":"0","num_feature":"5","num_nodes":"15","size_leaf_vector":"1"}},{"base_weights":[1.3163135E0,3.9724794E-1,6.1725503E-1,-8.607391E-1,1.1338339E0,-2.2080739E-1,7.735088E-2,1.7734E0,-5.2324295E-2,2.1054542E-1,5.6564333E-3],"categories":[],"categories_nodes":[],"categories_segments":[],"categories_sizes":[],"default_left":[0,0,0,0,0,0,0,0,0,0,0],"id":31,"left_children":[1,3,-1,5,7,-1,-1,9,-1,-1,-1],"loss_changes":[5.5569565E1,1.2095324E1,0E0,1.271736E1,9.4064E0,0E0,0E0,3.301403E0,0E0,0E0,0E0],"parents":[2147483647,0,0,1,1,3,3,4,4,7,7],"right_children":[2,4,-1,6,8,-1,-1,10,-1,-1,-1],"split_conditions":[1E0,7.5E-2,6.1725503E-1,8.5E-1,4E-2,-2.2080739E-1,7.735088E-2,1E1,-5.2324295E-2,2.1054542E-1,5.6564333E-3],"split_indices":[0,1,0,0,2,0,0,4,0,0,0],"split_type":[0,0,0,0,0,0,0,0,0,0,0],"sum_hessian":[1.2E1,1.1E1,1E0,4E0,7E0,2E0,2E0,5E0,2E0,4E0,1E0],"tree_param":{"num_deleted":"0","num_feature":"5","num_nodes":"11","size_leaf_vector":"1"}},{"base_weights":[5.1800185E-1,5.863922E-1,-4.1615167E-1,3.5132357E-1,-4.42919E-1,1.4793542E-1,-5.046016E-1,-1.0960404E0,6.4933014E-1,-1.341558E-1,-4.851761E-2,5.3737643E-3,9.202576E-2],"categories":[],"categories_nodes":[],"categories_segments":[],"categories_sizes":[],"default_left":[0,0,0,0,0,0,0,0,0,0,0,0,0],"id":32,"left_children":[1,-1,3,5,-1,-1,7,9,11,-1,-1,-1,-1],"loss_changes":[6.7361115E1,0E0,3.851497E1,1.136709E1,0E0,0E0,5.4890513E0,9.8997116E-2,4.3463457E-1,0E0,0E0,0E0,0E0],"parents":[2147483647,0,0,2,2,3,3,6,6,7,7,8,8],"right_children":[2,-1,4,6,-1,-1,8,10,12,-1,-1,-1,-1],"split_conditions":[5E-2,5.863922E-1,1.5E-1,1E-1,-4.42919E-1,1.4793542E-1,5E0,2.5E0,2E-2,-1.341558E-1,-4.851761E-2,5.3737643E-3,9.202576E-2],"split_indices":[1,0,1,3,0,0,4,4,2,0,0,0,0],"split_type":[0,0,0,0,0,0,0,0,0,0,0,0,0],"sum_hessian":[1.2E1,1E0,1.1E1,1E1,1E0,4E0,6E0,4E0,2E0,2E0,2E0,1E0,1E0],"tree_param":{"num_deleted":"0","num_feature":"5","num_nodes":"13","size_leaf_vector":"1"}},{"base_weights":[5.8450496E-1,-1.6956247E-1,5.5707246E-1,4.6473724E-1,-4.2077294E-1,1.0868984E0,-1.971433E-1,1.3956991E-1,1.9757271E-1,-5.301514E-2,6.168645E-1,8.742447E-2,5.1052095E-3],"categories":[],"categories_nodes":[],"categories_segments":[],"categories_sizes":[],"default_left":[0,0,0,0,0,0,0,0,0,0,0,0,0],"id":33,"left_children":[1,3,-1,5,-1,7,-1,-1,9,-1,11,-1,-1],"loss_changes":[5.734377E1,3.7815205E1,0E0,2.1846727E1,0E0,2.7451153E0,0E0,0E0,1.5475465E0,0E0,3.9225483E-1,0E0,0E0],"parents":[2147483647,0,0,1,1,3,3,5,5,8,8,10,10],"right_children":[2,4,-1,6,-1,8,-1,-1,10,-1,12,-1,-1],"split_conditions":[1E0,1.5E-1,5.5707246E-1,1.33E-1,-4.2077294E-1,3.3333333E0,-1.971433E-1,1.3956991E-1,5E0,-5.301514E-2,1E1,8.742447E-2,5.1052095E-3],"split_indices":[0,1,0,3,0,4,0,0,4,0,4,0,0],"split_type":[0,0,0,0,0,0,0,0,0,0,0,0,0],"sum_hessian":[1.4E1,1.3E1,1E0,1.2E1,1E0,1E1,2E0,7E0,3E0,1E0,2E0,1E0,1E0],"tree_param":{"num_deleted":"0","num_feature":"5","num_nodes":"13","size_leaf_vector":"1"}},{"base_weights":[4.7612354E-1,-3.0143416E-1,5.292187E-1,3.3967018E-1,-3.9973432E-1,6.046406E-1,-1.2875023E-1,8.0514765E-1,5.2466393E-2,1.2089638E-1,9.9090576E-2,8.857041E-2,-5.205142E-2,-5.9722137E-2,5.3026836E-2],"categories":[],"categories_nodes":[],"categories_segments":[],"categories_sizes":[],"default_left":[0,0,0,0,0,0,0,0,0,0,0,0,0,0,0],"id":34,"left_children":[1,3,-1,5,-1,7,-1,9,11,-1,13,-1,-1,-1,-1],"loss_changes":[5.4021984E1,3.2160797E1,0E0,5.952307E0,0E0,1.1756201E0,0E0,2.161141E0,2.3707373E0,0E0,1.5176245E0,0E0,0E0,0E0,0E0],"parents":[2147483647,0,0,1,1,3,3,5,5,7,7,8,8,10,10],"right_children":[2,4,-1,6,-1,8,-1,10,12,-1,14,-1,-1,-1,-1],"split_conditions":[1E0,1.5E-1,5.292187E-1,1.33E-1,-3.9973432E-1,3E-2,-1.2875023E-1,8.5E-1,8E-1,1.2089638E-1,9E-1,8.857041E-2,-5.205142E-2,-5.9722137E-2,5.3026836E-2],"split_indices":[0,1,0,3,0,2,0,0,0,0,0,0,0,0,0],"split_type":[0,0,0,0,0,0,0,0,0,0,0,0,0,0,0],"sum_hessian":[1.3E1,1.2E1,1E0,1.1E1,1E0,1E1,1E0,7E0,3E0,4E0,3E0,1E0,2E0,1E0,2E0],"tree_param":{"num_deleted":"0","num_feature":"5","num_nodes":"15","size_leaf_vector":"1"}},{"base_weights":[4.137829E-1,7.315648E-1,-1.2231274E-1,1.148789E0,-4.8581313E-2,2.808342E-2,1.2466425E-1],"categories":[],"categories_nodes":[],"categories_segments":[],"categories_sizes":[],"default_left":[0,0,0,0,0,0,0],"id":35,"left_children":[1,3,-1,5,-1,-1,-1],"loss_changes":[6.0966024E0,5.1293726E0,0E0,2.4442673E-1,0E0,0E0,0E0],"parents":[2147483647,0,0,1,1,3,3],"right_children":[2,4,-1,6,-1,-1,-1],"split_conditions":[1.25E-1,4E-2,-1.2231274E-1,6.7E-2,-4.8581313E-2,2.808342E-2,1.2466425E-1],"split_indices":[3,2,0,1,0,0,0],"split_type":[0,0,0,0,0,0,0],"sum_hessian":[9E0,8E0,1E0,6E0,2E0,1E0,5E0],"tree_param":{"num_deleted":"0","num_feature":"5","num_nodes":"7","size_leaf_vector":"1"}},{"base_weights":[-1.0092192E-1,3.3689985E-1,-1.6726278E-1,-2.1858978E-1,5.725322E-1,-4.6931458E-1,2.667923E-2,1.3007927E-1,1.266594E-1,-7.427979E-3,-6.296921E-2,9.0257645E-2,-2.0493546E-1,7.0775226E-2,-6.1004546E-2],"categories":[],"categories_nodes":[],"categories_segments":[],"categories_sizes":[],"default_left":[0,0,0,0,0,0,0,0,0,0,0,0,0,0,0],"id":36,"left_children":[1,3,-1,5,7,9,-1,11,-1,-1,-1,-1,13,-1,-1],"loss_changes":[9.509159E0,1.564954E0,0E0,6.119988E-1,2.29196E0,1.432907E-1,0E0,1.7377574E0,0E0,0E0,0E0,0E0,2.2804554E0,0E0,0E0],"parents":[2147483647,0,0,1,1,3,3,4,4,5,5,7,7,12,12],"right_children":[2,4,-1,6,8,10,-1,12,-1,-1,-1,-1,14,-1,-1],"split_conditions":[1.33E-1,2E-2,-1.6726278E-1,9E-1,8.5E-1,8.5E-1,2.667923E-2,8E-1,1.266594E-1,-7.427979E-3,-6.296921E-2,9.0257645E-2,3E-2,7.0775226E-2,-6.1004546E-2],"split_indices":[3,2,0,0,0,0,0,0,0,0,0,0,2,0,0],"split_type":[0,0,0,0,0,0,0,0,0,0,0,0,0,0,0],"sum_hessian":[1.2E1,1E1,2E0,3E0,7E0,2E0,1E0,5E0,2E0,1E0,1E0,1E0,4E0,1E0,3E0],"tree_param":{"num_deleted":"0","num_feature":"5","num_nodes":"15","size_leaf_vector":"1"}},{"base_weights":[1.4894867E-1,-6.088544E-1,5.000195E-1,-2.1808422E0,6.462431E-1,-3.0988866E-1,-2.2983551E-1,9.97049E-2,4.6175003E-2,-5.982056E-2,2.534523E-2,4.0119934E-1,-5.0944902E-2,-7.056427E-3,6.723633E-2],"categories":[],"categories_nodes":[],"categories_segments":[],"categories_sizes":[],"default_left":[0,0,0,0,0,0,0,0,0,0,0,0,0,0,0],"id":37,"left_children":[1,3,-1,5,7,-1,9,-1,11,-1,-1,13,-1,-1,-1],"loss_changes":[5.451244E1,2.7058325E1,0E0,1.0034433E1,1.6380205E0,0E0,6.8570286E-1,0E0,9.934308E-1,0E0,0E0,4.3122065E-1,0E0,0E0,0E0],"parents":[2147483647,0,0,1,1,3,3,4,4,6,6,8,8,11,11],"right_children":[2,4,-1,6,8,-1,10,-1,12,-1,-1,14,-1,-1,-1],"split_conditions":[1E0,1E-2,5.000195E-1,8.5E-1,3.3333333E0,-3.0988866E-1,9E-1,9.97049E-2,3E-2,-5.982056E-2,2.534523E-2,2E-2,-5.0944902E-2,-7.056427E-3,6.723633E-2],"split_indices":[0,2,0,0,4,0,0,0,2,0,0,2,0,0,0],"split_type":[0,0,0,0,0,0,0,0,0,0,0,0,0,0,0],"sum_hessian":[1.3E1,1.2E1,1E0,5E0,7E0,3E0,2E0,4E0,3E0,1E0,1E0,2E0,1E0,1E0,1E0],"tree_param":{"num_deleted":"0","num_feature":"5","num_nodes":"15","size_leaf_vector":"1"}},{"base_weights":[2.3555838E-1,-4.7711915E-1,4.7501832E-1,9.99794E-2,-3.701151E-1,-3.666359E-1,3.7911654E-1,-9.9445984E-2,3.834E-2,9.558439E-1,-1.5808868E-1,1.319149E-1,-6.7035677E-3,8.075962E-2,-6.0140897E-2],"categories":[],"categories_nodes":[],"categories_segments":[],"categories_sizes":[],"default_left":[0,0,0,0,0,0,0,0,0,0,0,0,0,0,0],"id":38,"left_children":[1,3,-1,5,-1,7,9,-1,-1,11,13,-1,-1,-1,-1],"loss_changes":[4.7311005E1,2.4557632E1,0E0,1.7019937E0,0E0,2.7357283E0,2.6296759E0,0E0,0E0,1.5748992E0,2.6262338E0,0E0,0E0,0E0,0E0],"parents":[2147483647,0,0,1,1,3,3,5,5,6,6,9,9,10,10],"right_children":[2,4,-1,6,-1,8,10,-1,-1,12,14,-1,-1,-1,-1],"split_conditions":[1E0,1.33E-1,4.7501832E-1,1E-1,-3.701151E-1,9E-1,3E-2,-9.9445984E-2,3.834E-2,1E1,8E-1,1.319149E-1,-6.7035677E-3,8.075962E-2,-6.0140897E-2],"split_indices":[0,1,0,1,0,0,2,0,0,4,0,0,0,0,0],"split_type":[0,0,0,0,0,0,0,0,0,0,0,0,0,0,0],"sum_hessian":[1.3E1,1.2E1,1E0,1.1E1,1E0,4E0,7E0,2E0,2E0,3E0,4E0,2E0,1E0,1E0,3E0],"tree_param":{"num_deleted":"0","num_feature":"5","num_nodes":"15","size_leaf_vector":"1"}},{"base_weights":[-6.0942334E-1,-2.5535583E-2,-3.5160944E-1,8.2244426E-1,-8.6925954E-1,4.3136063E-1,1.3889313E-1,-1.2882309E-1,-3.377161E-1,7.9848576E-1,-5.1856995E-2,-6.3682557E-3,-4.0783312E-2,3.578415E-2,1.0602093E-1],"categories":[],"categories_nodes":[],"categories_segments":[],"categories_sizes":[],"default_left":[0,0,0,0,0,0,0,0,0,0,0,0,0,0,0],"id":39,"left_children":[1,3,-1,5,7,9,-1,-1,11,13,-1,-1,-1,-1,-1],"loss_changes":[2.0276249E1,8.584988E0,0E0,7.301326E-1,9.0115213E-1,2.1577878E0,0E0,0E0,5.0885767E-2,8.19211E-2,0E0,0E0,0E0,0E0,0E0],"parents":[2147483647,0,0,1,1,3,3,4,4,5,5,8,8,9,9],"right_children":[2,4,-1,6,8,10,-1,-1,12,14,-1,-1,-1,-1,-1],"split_conditions":[1.5E-1,1E-1,-3.5160944E-1,3E-2,7.5E-2,7.5E-2,1.3889313E-1,-1.2882309E-1,2E-2,6.7E-2,-5.1856995E-2,-6.3682557E-3,-4.0783312E-2,3.578415E-2,1.0602093E-1],"split_indices":[1,3,0,2,1,3,0,0,2,1,0,0,0,0,0],"split_type":[0,0,0,0,0,0,0,0,0,0,0,0,0,0,0],"sum_hessian":[1.1E1,1E1,1E0,5E0,5E0,4E0,1E0,2E0,3E0,3E0,1E0,1E0,2E0,2E0,1E0],"tree_param":{"num_deleted":"0","num_feature":"5","num_nodes":"15","size_leaf_vector":"1"}},{"base_weights":[2.3214467E-1,-5.639843E-1,4.4947815E-1,4.7675323E-2,-3.3402902E-1,-3.8910723E-1,1.196537E-1,-6.141744E-1,5.9318163E-2,-7.8444354E-2,2.0372009E-2],"categories":[],"categories_nodes":[],"categories_segments":[],"categories_sizes":[],"default_left":[0,0,0,0,0,0,0,0,0,0,0],"id":40,"left_children":[1,3,-1,5,-1,7,-1,9,-1,-1,-1],"loss_changes":[4.3258286E1,1.8838943E1,0E0,5.4836087E0,0E0,2.132965E0,0E0,1.1346421E0,0E0,0E0,0E0],"parents":[2147483647,0,0,1,1,3,3,5,5,7,7],"right_children":[2,4,-1,6,-1,8,-1,10,-1,-1,-1],"split_conditions":[1E0,1.5E-1,4.4947815E-1,1.25E-1,-3.3402902E-1,5E0,1.196537E-1,9E-1,5.9318163E-2,-7.8444354E-2,2.0372009E-2],"split_indices":[0,1,0,1,0,4,0,0,0,0,0],"split_type":[0,0,0,0,0,0,0,0,0,0,0],"sum_hessian":[1.1E1,1E1,1E0,9E0,1E0,7E0,2E0,6E0,1E0,5E0,1E0],"tree_param":{"num_deleted":"0","num_feature":"5","num_nodes":"11","size_leaf_vector":"1"}},{"base_weights":[3.6475882E-1,-2.1919306E-1,4.2700425E-1,2.521421E-1,-3.173275E-1,-3.1707874E-1,7.8534263E-1,-7.93985E-1,5.8345795E-1,-9.015656E-3,9.4628525E-1,-1.08924866E-1,1.9353485E-2,1.3164273E-1,-4.4124033E-2,1.1046524E0,4.1970062E-1,1.2814866E-1,2.8707504E-2,7.277794E-2,-9.822845E-3],"categories":[],"categories_nodes":[],"categories_segments":[],"categories_sizes":[],"default_left":[0,0,0,0,0,0,0,0,0,0,0,0,0,0,0,0,0,0,0,0,0],"id":41,"left_children":[1,3,-1,5,-1,7,9,11,13,-1,15,-1,-1,-1,-1,17,19,-1,-1,-1,-1],"loss_changes":[3.514343E1,2.0293194E1,0E0,4.1946306E0,0E0,3.4695578E0,1.0716496E0,1.6687014E0,2.8340776E0,0E0,3.6738873E-2,0E0,0E0,0E0,0E0,2.1041918E-1,5.5017745E-1,0E0,0E0,0E0,0E0],"parents":[2147483647,0,0,1,1,3,3,5,5,6,6,7,7,8,8,10,10,15,15,16,16],"right_children":[2,4,-1,6,-1,8,10,12,14,-1,16,-1,-1,-1,-1,18,20,-1,-1,-1,-1],"split_conditions":[1E0,1.33E-1,4.2700425E-1,2.5E0,-3.173275E-1,1E-1,2E-2,9E-1,1E-2,-9.015656E-3,4E-2,-1.08924866E-1,1.9353485E-2,1.3164273E-1,-4.4124033E-2,9E-1,8E-1,1.2814866E-1,2.8707504E-2,7.277794E-2,-9.822845E-3],"split_indices":[0,1,0,4,0,1,2,0,2,0,2,0,0,0,0,0,0,0,0,0,0],"split_type":[0,0,0,0,0,0,0,0,0,0,0,0,0,0,0,0,0,0,0,0,0],"sum_hessian":[1.4E1,1.3E1,1E0,1.2E1,1E0,6E0,6E0,4E0,2E0,1E0,5E0,3E0,1E0,1E0,1E0,3E0,2E0,2E0,1E0,1E0,1E0],"tree_param":{"num_deleted":"0","num_feature":"5","num_nodes":"21","size_leaf_vector":"1"}},{"base_weights":[1.092911E0,4.0565416E-1,5.078967E-1,6.8417394E-1,-7.155762E-2,9.5710456E-1,-3.62676E-1,3.0438486E-2,1.1001123E0,-8.564758E-3,-4.583664E-2,1.3009278E0,3.9871597E-1,5.9711713E-2,1.5710959E-1,-9.331703E-3,6.91391E-2],"categories":[],"categories_nodes":[],"categories_segments":[],"categories_sizes":[],"default_left":[0,0,0,0,0,0,0,0,0,0,0,0,0,0,0,0,0],"id":42,"left_children":[1,-1,3,5,-1,7,9,-1,11,-1,-1,13,15,-1,-1,-1,-1],"loss_changes":[2.0478657E1,0E0,3.0776227E0,3.4900103E0,0E0,5.0523853E-1,4.0268928E-2,0E0,4.672575E-1,0E0,0E0,1.2607574E-2,4.9653587E-1,0E0,0E0,0E0,0E0],"parents":[2147483647,0,0,2,2,3,3,5,5,6,6,8,8,11,11,12,12],"right_children":[2,-1,4,6,-1,8,10,-1,12,-1,-1,14,16,-1,-1,-1,-1],"split_conditions":[5E-2,4.0565416E-1,1.33E-1,3.3333333E0,-7.155762E-2,6.7E-2,2E-2,3.0438486E-2,4E-2,-8.564758E-3,-4.583664E-2,1E-1,1.25E-1,5.9711713E-2,1.5710959E-1,-9.331703E-3,6.91391E-2],"split_indices":[1,0,3,4,0,1,2,0,2,0,0,1,1,0,0,0,0],"split_type":[0,0,0,0,0,0,0,0,0,0,0,0,0,0,0,0,0],"sum_hessian":[1.2E1,1E0,1.1E1,1E1,1E0,8E0,2E0,2E0,6E0,1E0,1E0,4E0,2E0,2E0,2E0,1E0,1E0],"tree_param":{"num_deleted":"0","num_feature":"5","num_nodes":"17","size_leaf_vector":"1"}},{"base_weights":[-4.065421E-1,3.8057182E-2,-3.0931664E-1,-1.3001855E-1,1.027483E-1,-7.397626E-1,4.111933E-1,-9.551697E-2,1.6863633E-2,-3.3238985E-2,1.0148493E0,2.9400125E-1,-3.4939957E-1,1.2647744E-1,2.574997E-2,-8.136368E-3,5.2236557E-2,-4.354477E-2,-8.8651655E-3],"categories":[],"categories_nodes":[],"categories_segments":[],"categories_sizes":[],"default_left":[0,0,0,0,0,0,0,0,0,0,0,0,0,0,0,0,0,0,0],"id":43,"left_children":[1,3,-1,5,-1,7,9,-1,-1,11,13,15,17,-1,-1,-1,-1,-1,-1],"loss_changes":[1.6840315E1,2.295472E0,0E0,4.264194E0,0E0,1.3351295E0,1.9117223E0,0E0,0E0,6.2002623E-1,2.421627E-1,2.996615E-1,2.8707445E-2,0E0,0E0,0E0,0E0,0E0,0E0],"parents":[2147483647,0,0,1,1,3,3,5,5,6,6,9,9,10,10,11,11,12,12],"right_children":[2,4,-1,6,-1,8,10,-1,-1,12,14,16,18,-1,-1,-1,-1,-1,-1],"split_conditions":[1.5E-1,1.25E-1,-3.0931664E-1,2.5E0,1.027483E-1,9E-1,8.5E-1,-9.551697E-2,1.6863633E-2,3E-2,9E-1,2E-2,4E-2,1.2647744E-1,2.574997E-2,-8.136368E-3,5.2236557E-2,-4.354477E-2,-8.8651655E-3],"split_indices":[1,1,0,4,0,0,0,0,0,2,0,2,2,0,0,0,0,0,0],"split_type":[0,0,0,0,0,0,0,0,0,0,0,0,0,0,0,0,0,0,0],"sum_hessian":[1.3E1,1.2E1,1E0,1.1E1,1E0,5E0,6E0,4E0,1E0,4E0,2E0,2E0,2E0,1E0,1E0,1E0,1E0,1E0,1E0],"tree_param":{"num_deleted":"0","num_feature":"5","num_nodes":"19","size_leaf_vector":"1"}},{"base_weights":[1.7948996E-1,-3.982852E-1,3.8452837E-1,5.827586E-2,-2.938509E-1,-5.824089E-1,5.991091E-1,-7.62973E-1,1.6020585E-2,9.7120285E-1,7.723808E-2,-9.150677E-2,-7.7297213E-3,1.1318537E-1,2.446251E-2,6.0544968E-2,-3.0064902E-1,-8.421898E-3,-3.6675453E-2],"categories":[],"categories_nodes":[],"categories_segments":[],"categories_sizes":[],"default_left":[0,0,0,0,0,0,0,0,0,0,0,0,0,0,0,0,0,0,0],"id":44,"left_children":[1,3,-1,5,-1,7,9,11,-1,13,15,-1,-1,-1,-1,-1,17,-1,-1],"loss_changes":[3.1183582E1,1.5248219E1,0E0,4.50697E0,0E0,9.267702E-1,1.2842808E0,4.5070577E-1,0E0,1.9002151E-1,9.804452E-1,0E0,0E0,0E0,0E0,0E0,1.2033969E-2,0E0,0E0],"parents":[2147483647,0,0,1,1,3,3,5,5,6,6,7,7,9,9,10,10,16,16],"right_children":[2,4,-1,6,-1,8,10,12,-1,14,16,-1,-1,-1,-1,-1,18,-1,-1],"split_conditions":[1E0,1.33E-1,3.8452837E-1,2E-2,-2.938509E-1,9E-1,4E-2,1E-1,1.6020585E-2,9E-1,8E-1,-9.150677E-2,-7.7297213E-3,1.1318537E-1,2.446251E-2,6.0544968E-2,5E-2,-8.421898E-3,-3.6675453E-2],"split_indices":[0,1,0,2,0,0,2,1,0,0,0,0,0,0,0,0,2,0,0],"split_type":[0,0,0,0,0,0,0,0,0,0,0,0,0,0,0,0,0,0,0],"sum_hessian":[1.3E1,1.2E1,1E0,1.1E1,1E0,5E0,6E0,4E0,1E0,3E0,3E0,3E0,1E0,2E0,1E0,1E0,2E0,1E0,1E0],"tree_param":{"num_deleted":"0","num_feature":"5","num_nodes":"19","size_leaf_vector":"1"}},{"base_weights":[3.847462E-1,-7.285633E-1,2.5151787E0,-3.5048347E-2,-2.791584E-1,9.182256E-1,3.653019E-1,-9.050497E-2,4.939621E-1,1.14494324E-1,2.3239518E-2,1.2236748E-1,5.6152344E-3,-2.8561655E-1,4.396553E-2,-3.4841727E-2,-8.000756E-3],"categories":[],"categories_nodes":[],"categories_segments":[],"categories_sizes":[],"default_left":[0,0,0,0,0,0,0,0,0,0,0,0,0,0,0,0,0],"id":45,"left_children":[1,3,5,7,-1,9,-1,-1,11,-1,-1,-1,13,15,-1,-1,-1],"loss_changes":[2.7922604E1,1.1348044E1,3.9140148E0,3.6687384E0,0E0,2.003901E-1,0E0,0E0,1.7748932E0,0E0,0E0,0E0,6.311979E-1,1.0861173E-2,0E0,0E0,0E0],"parents":[2147483647,0,0,1,1,2,2,3,3,5,5,8,8,12,12,13,13],"right_children":[2,4,6,8,-1,10,-1,-1,12,-1,-1,-1,14,16,-1,-1,-1],"split_conditions":[8.5E-1,1.25E-1,1E0,7.5E-2,-2.791584E-1,9E-1,3.653019E-1,-9.050497E-2,2E0,1.14494324E-1,2.3239518E-2,1.2236748E-1,3.3333333E0,2.5E0,4.396553E-2,-3.4841727E-2,-8.000756E-3],"split_indices":[0,1,0,1,0,0,0,0,4,0,0,0,4,4,0,0,0],"split_type":[0,0,0,0,0,0,0,0,0,0,0,0,0,0,0,0,0],"sum_hessian":[1E1,7E0,3E0,6E0,1E0,2E0,1E0,2E0,4E0,1E0,1E0,1E0,3E0,2E0,1E0,1E0,1E0],"tree_param":{"num_deleted":"0","num_feature":"5","num_nodes":"17","size_leaf_vector":"1"}},{"base_weights":[4.470077E-1,-9.413624E-2,3.4703675E-1,-1.6742859E0,3.8932228E-1,-2.6520044E-1,1.4057541E-2,5.5281025E-1,-5.410347E-2,6.457658E-1,-9.541702E-3,9.101242E-2,1.538763E-1,7.14756E-2,-2.713356E-2],"categories":[],"categories_nodes":[],"categories_segments":[],"categories_sizes":[],"default_left":[0,0,0,0,0,0,0,0,0,0,0,0,0,0,0],"id":46,"left_children":[1,3,-1,5,7,-1,-1,9,-1,11,-1,-1,13,-1,-1],"loss_changes":[2.1595634E1,9.819078E0,0E0,5.6960764E0,1.8201112E0,0E0,0E0,6.039238E-1,0E0,9.0023446E-1,0E0,0E0,1.1479098E0,0E0,0E0],"parents":[2147483647,0,0,1,1,3,3,4,4,7,7,9,9,12,12],"right_children":[2,4,-1,6,8,-1,-1,10,-1,12,-1,-1,14,-1,-1],"split_conditions":[1E0,6.7E-2,3.4703675E-1,8.5E-1,1.33E-1,-2.6520044E-1,1.4057541E-2,1E1,-5.410347E-2,4E-2,-9.541702E-3,9.101242E-2,8E-1,7.14756E-2,-2.713356E-2],"split_indices":[0,3,0,0,3,0,0,4,0,2,0,0,0,0,0],"split_type":[0,0,0,0,0,0,0,0,0,0,0,0,0,0,0],"sum_hessian":[1.2E1,1.1E1,1E0,2E0,9E0,1E0,1E0,8E0,1E0,7E0,1E0,4E0,3E0,1E0,2E0],"tree_param":{"num_deleted":"0","num_feature":"5","num_nodes":"15","size_leaf_vector":"1"}},{"base_weights":[2.3094147E-1,-2.9928812E-1,3.2968482E-1,-9.3449837E-1,4.916719E-1,-2.5194034E-1,-2.5044695E-1,1.09539986E-1,8.3729047E-1,1.2171078E-1,-7.8737944E-2,-9.064483E-3,2.064832E-1,1.0421906E-1,2.1374512E-2,3.721657E-2,-6.244087E-3],"categories":[],"categories_nodes":[],"categories_segments":[],"categories_sizes":[],"default_left":[0,0,0,0,0,0,0,0,0,0,0,0,0,0,0,0,0],"id":47,"left_children":[1,3,-1,5,7,-1,9,11,13,-1,-1,-1,15,-1,-1,-1,-1],"loss_changes":[2.2119955E1,6.4885774E0,0E0,6.9581194E0,7.0071447E-1,0E0,5.6861925E0,9.634289E-2,1.6053033E-1,0E0,0E0,0E0,1.5690635E-1,0E0,0E0,0E0,0E0],"parents":[2147483647,0,0,1,1,3,3,4,4,6,6,7,7,8,8,12,12],"right_children":[2,4,-1,6,8,-1,10,12,14,-1,-1,-1,16,-1,-1,-1,-1],"split_conditions":[1E0,2.5E0,3.2968482E-1,6.7E-2,8.5E-1,-2.5194034E-1,7.5E-2,2E-2,9E-1,1.2171078E-1,-7.8737944E-2,-9.064483E-3,3E-2,1.0421906E-1,2.1374512E-2,3.721657E-2,-6.244087E-3],"split_indices":[0,4,0,3,0,0,3,2,0,0,0,0,2,0,0,0,0],"split_type":[0,0,0,0,0,0,0,0,0,0,0,0,0,0,0,0,0],"sum_hessian":[1.2E1,1.1E1,1E0,6E0,5E0,1E0,5E0,3E0,2E0,1E0,4E0,1E0,2E0,1E0,1E0,1E0,1E0],"tree_param":{"num_deleted":"0","num_feature":"5","num_nodes":"17","size_leaf_vector":"1"}},{"base_weights":[5.019484E-1,-1.5625902E-1,2.7480596E-1,3.0680162E-1,-2.3934327E-1,-7.561519E-2,6.6705894E-1,1.5417379E-1,1.1854299E-1,6.821404E-2,-1.3060455E-1,1.782964E-2,-3.9597068E-2],"categories":[],"categories_nodes":[],"categories_segments":[],"categories_sizes":[],"default_left":[0,0,0,0,0,0,0,0,0,0,0,0,0],"id":48,"left_children":[1,3,-1,5,-1,-1,7,-1,9,-1,11,-1,-1],"loss_changes":[1.96487E1,1.2129726E1,0E0,4.3337655E0,0E0,0E0,3.6554408E0,0E0,9.3160397E-1,0E0,4.8045933E-1,0E0,0E0],"parents":[2147483647,0,0,1,1,3,3,6,6,8,8,10,10],"right_children":[2,4,-1,6,-1,-1,8,-1,10,-1,12,-1,-1],"split_conditions":[8.5E-1,1.5E-1,2.7480596E-1,7.5E-2,-2.3934327E-1,-7.561519E-2,1E-2,1.5417379E-1,8E-1,6.821404E-2,3E-2,1.782964E-2,-3.9597068E-2],"split_indices":[0,1,0,1,0,0,2,0,0,0,2,0,0],"split_type":[0,0,0,0,0,0,0,0,0,0,0,0,0],"sum_hessian":[1.2E1,1E1,2E0,9E0,1E0,2E0,7E0,2E0,5E0,1E0,4E0,2E0,2E0],"tree_param":{"num_deleted":"0","num_feature":"5","num_nodes":"13","size_leaf_vector":"1"}},{"base_weights":[-1.7750709E-1,2.1976714E-1,-2.2737618E-1,-1.1521742E-1,1.1514651E-1,9.804726E-2,-4.0631007E-2,-3.140503E-1,1.0792675E-1,-6.485952E-2,1.2517802E-2],"categories":[],"categories_nodes":[],"categories_segments":[],"categories_sizes":[],"default_left":[0,0,0,0,0,0,0,0,0,0,0],"id":49,"left_children":[1,3,-1,5,-1,7,-1,9,-1,-1,-1],"loss_changes":[1.0493154E1,3.5658176E0,0E0,5.985556E-1,0E0,2.7650948E0,0E0,8.158978E-1,0E0,0E0,0E0],"parents":[2147483647,0,0,1,1,3,3,5,5,7,7],"right_children":[2,4,-1,6,-1,8,-1,10,-1,-1,-1],"split_conditions":[1.5E-1,1.25E-1,-2.2737618E-1,3E-2,1.1514651E-1,1E-1,-4.0631007E-2,9E-1,1.0792675E-1,-6.485952E-2,1.2517802E-2],"split_indices":[1,1,0,2,0,1,0,0,0,0,0],"split_type":[0,0,0,0,0,0,0,0,0,0,0],"sum_hessian":[1.1E1,1E1,1E0,8E0,2E0,5E0,3E0,4E0,1E0,2E0,2E0],"tree_param":{"num_deleted":"0","num_feature":"5","num_nodes":"11","size_leaf_vector":"1"}},{"base_weights":[7.53691E-1,2.7887276E-1,2.9883462E-1,4.7165823E-1,-1.764164E-1,6.5457374E-1,-4.043751E-2,9.445953E-2,-4.945221E-2,9.7884846E-1,1.6665554E-1,-1.4899063E-2,2.9067993E-2,1.2655348E-1,5.9394836E-3,5.9046175E-2,-1.7143376E-1,-1.9205094E-3,-2.3794556E-2],"categories":[],"categories_nodes":[],"categories_segments":[],"categories_sizes":[],"default_left":[0,0,0,0,0,0,0,0,0,0,0,0,0,0,0,0,0,0,0],"id":50,"left_children":[1,3,-1,5,7,9,-1,11,-1,13,15,-1,-1,-1,-1,-1,17,-1,-1],"loss_changes":[1.1899292E1,1.0487127E0,0E0,1.5466139E0,3.9138103E-1,9.444063E-1,0E0,1.8661825E-1,0E0,9.792123E-1,6.743625E-1,0E0,0E0,0E0,0E0,0E0,2.5805235E-2,0E0,0E0],"parents":[2147483647,0,0,1,1,3,3,4,4,5,5,7,7,9,9,10,10,16,16],"right_children":[2,4,-1,6,8,10,-1,12,-1,14,16,-1,-1,-1,-1,-1,18,-1,-1],"split_conditions":[1E0,3.3333333E0,2.9883462E-1,1.33E-1,3E-2,4E-2,-4.043751E-2,2E-2,-4.945221E-2,9E-1,8E-1,-1.4899063E-2,2.9067993E-2,1.2655348E-1,5.9394836E-3,5.9046175E-2,5E-2,-1.9205094E-3,-2.3794556E-2],"split_indices":[0,4,0,3,2,2,0,2,0,0,0,0,0,0,0,0,2,0,0],"split_type":[0,0,0,0,0,0,0,0,0,0,0,0,0,0,0,0,0,0,0],"sum_hessian":[1.1E1,1E1,1E0,7E0,3E0,6E0,1E0,2E0,1E0,3E0,3E0,1E0,1E0,2E0,1E0,1E0,2E0,1E0,1E0],"tree_param":{"num_deleted":"0","num_feature":"5","num_nodes":"19","size_leaf_vector":"1"}},{"base_weights":[3.449979E-1,6.872621E-1,-2.2233506E-1,3.0337027E-1,2.8389284E-1,5.318586E-1,-6.3554384E-2,3.1243727E-1,1.0128365E-1,1.1277008E-1,4.49617E-1,4.90654E-2,-3.0270386E-2,5.3380966E-2,5.6423186E-3],"categories":[],"categories_nodes":[],"categories_segments":[],"categories_sizes":[],"default_left":[0,0,0,0,0,0,0,0,0,0,0,0,0,0,0],"id":51,"left_children":[1,3,-1,5,-1,7,-1,9,-1,11,13,-1,-1,-1,-1],"loss_changes":[1.471383E1,1.0702852E1,0E0,3.126922E0,0E0,8.444569E-1,0E0,1.9580919E-1,0E0,9.335274E-1,1.3540101E-1,0E0,0E0,0E0,0E0],"parents":[2147483647,0,0,1,1,3,3,5,5,7,7,9,9,10,10],"right_children":[2,4,-1,6,-1,8,-1,10,-1,12,14,-1,-1,-1,-1],"split_conditions":[1.5E-1,1E0,-2.2233506E-1,1.33E-1,2.8389284E-1,1.25E-1,-6.3554384E-2,2.5E0,1.0128365E-1,8.5E-1,9E-1,4.90654E-2,-3.0270386E-2,5.3380966E-2,5.6423186E-3],"split_indices":[1,0,0,3,0,1,0,4,0,0,0,0,0,0,0],"split_type":[0,0,0,0,0,0,0,0,0,0,0,0,0,0,0],"sum_hessian":[1.4E1,1.3E1,1E0,1.2E1,1E0,1E1,2E0,8E0,2E0,4E0,4E0,2E0,2E0,3E0,1E0],"tree_param":{"num_deleted":"0","num_feature":"5","num_nodes":"15","size_leaf_vector":"1"}},{"base_weights":[7.9358324E-2,-3.6352572E-1,2.6969835E-1,-1.2540297E-2,-2.1121827E-1,-3.3043206E-1,9.453151E-2,-4.037404E-1,1.2801743E-2,-6.0278703E-2,-2.3692703E-1,5.4148356E-3,-3.9600182E-2],"categories":[],"categories_nodes":[],"categories_segments":[],"categories_sizes":[],"default_left":[0,0,0,0,0,0,0,0,0,0,0,0,0],"id":52,"left_children":[1,3,-1,5,-1,7,-1,9,-1,-1,11,-1,-1],"loss_changes":[1.6051378E1,7.33855E0,0E0,3.6617994E0,0E0,3.5415947E-1,0E0,1.2281251E-1,0E0,0E0,2.992594E-1,0E0,0E0],"parents":[2147483647,0,0,1,1,3,3,5,5,7,7,10,10],"right_children":[2,4,-1,6,-1,8,-1,10,-1,-1,12,-1,-1],"split_conditions":[1E0,1.5E-1,2.6969835E-1,1.25E-1,-2.1121827E-1,9E-1,9.453151E-2,1E-1,1.2801743E-2,-6.0278703E-2,3E-2,5.4148356E-3,-3.9600182E-2],"split_indices":[0,1,0,1,0,0,0,1,0,0,2,0,0],"split_type":[0,0,0,0,0,0,0,0,0,0,0,0,0],"sum_hessian":[1.2E1,1.1E1,1E0,1E1,1E0,8E0,2E0,7E0,1E0,2E0,5E0,2E0,3E0],"tree_param":{"num_deleted":"0","num_feature":"5","num_nodes":"13","size_leaf_vector":"1"}},{"base_weights":[6.7589685E-2,-3.5380015E-1,2.562134E-1,-2.1132382E-2,-2.0065728E-1,4.7964555E-1,-3.75812E-1,8.604069E-2,1.6935349E-1,-5.5298872E-2,-1.9434357E-1,-3.1630707E-1,8.131676E-2,2.4674607E-2,-3.663025E-1,-5.2165985E-2,4.719925E-3,-4.766884E-2,-1.7061107E-2],"categories":[],"categories_nodes":[],"categories_segments":[],"categories_sizes":[],"default_left":[0,0,0,0,0,0,0,0,0,0,0,0,0,0,0,0,0,0,0],"id":53,"left_children":[1,3,-1,5,-1,7,9,-1,11,-1,13,15,-1,-1,17,-1,-1,-1,-1],"loss_changes":[1.4571764E1,6.5554867E0,0E0,2.1340294E0,0E0,4.4502318E-1,1.17594E-1,0E0,1.5079111E0,0E0,4.6963018E-1,2.4856308E-1,0E0,0E0,5.077958E-3,0E0,0E0,0E0,0E0],"parents":[2147483647,0,0,1,1,3,3,5,5,6,6,8,8,10,10,11,11,14,14],"right_children":[2,4,-1,6,-1,8,10,-1,12,-1,14,16,-1,-1,18,-1,-1,-1,-1],"split_conditions":[1E0,1.5E-1,2.562134E-1,1E-1,-2.0065728E-1,8.5E-1,7.5E-2,8.604069E-2,3E-2,-5.5298872E-2,3E-2,9E-1,8.131676E-2,2.4674607E-2,4E-2,-5.2165985E-2,4.719925E-3,-4.766884E-2,-1.7061107E-2],"split_indices":[0,1,0,3,0,0,1,0,2,0,2,0,0,0,2,0,0,0,0],"split_type":[0,0,0,0,0,0,0,0,0,0,0,0,0,0,0,0,0,0,0],"sum_hessian":[1.2E1,1.1E1,1E0,1E1,1E0,4E0,6E0,1E0,3E0,2E0,4E0,2E0,1E0,1E0,3E0,1E0,1E0,1E0,2E0],"tree_param":{"num_deleted":"0","num_feature":"5","num_nodes":"19","size_leaf_vector":"1"}},{"base_weights":[6.50269E-1,-8.009393E-2,2.1376927E-1,4.7156524E-2,-2.5063133E-1,-3.9452133E-1,2.3440933E-2,-4.9829736E-2,-1.5923817E-1,-1.6607285E-3,-2.2224998E-2],"categories":[],"categories_nodes":[],"categories_segments":[],"categories_sizes":[],"default_left":[0,0,0,0,0,0,0,0,0,0,0],"id":54,"left_children":[1,3,-1,-1,5,7,-1,-1,9,-1,-1],"loss_changes":[9.948449E0,7.767387E-1,0E0,0E0,5.1123446E-1,4.2735755E-2,0E0,0E0,2.3271322E-2,0E0,0E0],"parents":[2147483647,0,0,1,1,4,4,5,5,8,8],"right_children":[2,4,-1,-1,6,8,-1,-1,10,-1,-1],"split_conditions":[8.5E-1,8E-1,2.1376927E-1,4.7156524E-2,5E0,4E-2,2.3440933E-2,-4.9829736E-2,5E-2,-1.6607285E-3,-2.2224998E-2],"split_indices":[0,0,0,0,4,2,0,0,2,0,0],"split_type":[0,0,0,0,0,0,0,0,0,0,0],"sum_hessian":[8E0,6E0,2E0,1E0,5E0,4E0,1E0,2E0,2E0,1E0,1E0],"tree_param":{"num_deleted":"0","num_feature":"5","num_nodes":"11","size_leaf_vector":"1"}},{"base_weights":[-1.7638342E-1,9.948378E-2,-1.8813287E-1,-3.2609623E-2,8.423024E-2,1.0573921E-1,-4.8290253E-2,1.8890285E-1,-1.512769E-1,3.7105942E-1,5.397034E-3,-1.5777588E-3,-2.1113778E-2,7.800395E-2,-4.2794038E-2,-3.26067E-2,6.656265E-2],"categories":[],"categories_nodes":[],"categories_segments":[],"categories_sizes":[],"default_left":[0,0,0,0,0,0,0,0,0,0,0,0,0,0,0,0,0],"id":55,"left_children":[1,3,-1,5,-1,7,-1,9,11,13,15,-1,-1,-1,-1,-1,-1],"loss_changes":[6.7719E0,1.3030457E0,0E0,7.986317E-1,0E0,2.4232061E-1,0E0,2.6541167E-1,2.1002077E-2,1.6409103E0,1.3112503E0,0E0,0E0,0E0,0E0,0E0,0E0],"parents":[2147483647,0,0,1,1,3,3,5,5,7,7,8,8,9,9,10,10],"right_children":[2,4,-1,6,-1,8,-1,10,12,14,16,-1,-1,-1,-1,-1,-1],"split_conditions":[1.5E-1,1.25E-1,-1.8813287E-1,1.25E-1,8.423024E-2,4E-2,-4.8290253E-2,8.5E-1,5E-2,3E-2,3E-2,-1.5777588E-3,-2.1113778E-2,7.800395E-2,-4.2794038E-2,-3.26067E-2,6.656265E-2],"split_indices":[1,1,0,3,0,2,0,0,2,2,2,0,0,0,0,0,0],"split_type":[0,0,0,0,0,0,0,0,0,0,0,0,0,0,0,0,0],"sum_hessian":[1.3E1,1.2E1,1E0,1.1E1,1E0,9E0,2E0,7E0,2E0,3E0,4E0,1E0,1E0,2E0,1E0,3E0,1E0],"tree_param":{"num_deleted":"0","num_feature":"5","num_nodes":"17","size_leaf_vector":"1"}},{"base_weights":[-3.8212794E-1,-6.288834E-2,-1.787262E-1,-2.476955E-1,8.001881E-2,-4.0143663E-1,-4.4415284E-2,-5.161333E-2,2.867508E-3,6.147957E-2,-2.3399735E-2,-4.0486655E-3,1.8368913E-2],"categories":[],"categories_nodes":[],"categories_segments":[],"categories_sizes":[],"default_left":[0,0,0,0,0,0,0,0,0,0,0,0,0],"id":56,"left_children":[1,3,-1,5,-1,7,9,-1,-1,11,-1,-1,-1],"loss_changes":[4.821921E0,1.7932299E0,0E0,2.634428E-1,0E0,2.6146215E-1,1.1476488E-1,0E0,0E0,5.728194E-2,0E0,0E0,0E0],"parents":[2147483647,0,0,1,1,3,3,5,5,6,6,9,9],"right_children":[2,4,-1,6,-1,8,10,-1,-1,12,-1,-1,-1],"split_conditions":[1.5E-1,1.25E-1,-1.787262E-1,2.5E0,8.001881E-2,9E-1,1E1,-5.161333E-2,2.867508E-3,3.3333333E0,-2.3399735E-2,-4.0486655E-3,1.8368913E-2],"split_indices":[1,1,0,4,0,0,4,0,0,4,0,0,0],"split_type":[0,0,0,0,0,0,0,0,0,0,0,0,0],"sum_hessian":[1E1,9E0,1E0,8E0,1E0,4E0,4E0,3E0,1E0,3E0,1E0,2E0,1E0],"tree_param":{"num_deleted":"0","num_feature":"5","num_nodes":"13","size_leaf_vector":"1"}},{"base_weights":[2.4833076E-1,-1.5491451E-1,2.3420143E-1,-4.5995203E-1,1.7594211E-1,-5.6283873E-2,2.7240755E-3,3.7742233E-1,-4.1572955E-2,4.9363613E-2,-4.371643E-3],"categories":[],"categories_nodes":[],"categories_segments":[],"categories_sizes":[],"default_left":[0,0,0,0,0,0,0,0,0,0,0],"id":57,"left_children":[1,3,-1,5,7,-1,-1,9,-1,-1,-1],"loss_changes":[1.0494028E1,1.1910856E0,0E0,3.1608617E-1,8.7216645E-1,0E0,0E0,2.6629072E-1,0E0,0E0,0E0],"parents":[2147483647,0,0,1,1,3,3,4,4,7,7],"right_children":[2,4,-1,6,8,-1,-1,10,-1,-1,-1],"split_conditions":[1E0,2E-2,2.3420143E-1,9E-1,3.3333333E0,-5.6283873E-2,2.7240755E-3,9E-1,-4.1572955E-2,4.9363613E-2,-4.371643E-3],"split_indices":[0,2,0,0,4,0,0,0,0,0,0],"split_type":[0,0,0,0,0,0,0,0,0,0,0],"sum_hessian":[1.1E1,1E1,1E0,5E0,5E0,4E0,1E0,4E0,1E0,3E0,1E0],"tree_param":{"num_deleted":"0","num_feature":"5","num_nodes":"11","size_leaf_vector":"1"}},{"base_weights":[-5.368101E-2,-1.8954118E-1,7.883205E-2,-4.2465082E-1,3.9058685E-2,-5.199326E-2,2.5878907E-3,-1.7258224E-1,3.7877402E-1,-2.883924E-1,7.5531006E-4,6.0969163E-2,-4.153061E-3,-3.7645341E-3,-3.9494324E-2,1.952896E-2,-1.9415665E-2],"categories":[],"categories_nodes":[],"categories_segments":[],"categories_sizes":[],"default_left":[0,0,0,0,0,0,0,0,0,0,0,0,0,0,0,0,0],"id":58,"left_children":[1,3,-1,5,7,-1,-1,9,11,13,15,-1,-1,-1,-1,-1,-1],"loss_changes":[1.6365474E0,6.615387E-1,0E0,2.7101874E-1,5.686533E-1,0E0,0E0,1.0058907E-1,3.1648806E-1,6.528415E-2,1.5166797E-1,0E0,0E0,0E0,0E0,0E0,0E0],"parents":[2147483647,0,0,1,1,3,3,4,4,7,7,8,8,9,9,10,10],"right_children":[2,4,-1,6,8,-1,-1,10,12,14,16,-1,-1,-1,-1,-1,-1],"split_conditions":[1.25E-1,2.5E0,7.883205E-2,9E-1,8.5E-1,-5.199326E-2,2.5878907E-3,5E0,9E-1,3.3333333E0,1E1,6.0969163E-2,-4.153061E-3,-3.7645341E-3,-3.9494324E-2,1.952896E-2,-1.9415665E-2],"split_indices":[1,4,0,0,0,0,0,4,0,4,4,0,0,0,0,0,0],"split_type":[0,0,0,0,0,0,0,0,0,0,0,0,0,0,0,0,0],"sum_hessian":[1.2E1,1.1E1,1E0,5E0,6E0,4E0,1E0,4E0,2E0,2E0,2E0,1E0,1E0,1E0,1E0,1E0,1E0],"tree_param":{"num_deleted":"0","num_feature":"5","num_nodes":"17","size_leaf_vector":"1"}},{"base_weights":[9.523157E-2,-2.6743603E-1,2.2236215E-1,1.901037E-2,-1.7091732E-1,-3.4575143E-1,3.806038E-1,-5.1119234E-2,-9.913127E-3,1.1581446E-1,-2.977028E-1,2.4585724E-3,-3.9455416E-3,-3.730952E-2,-3.5762787E-3],"categories":[],"categories_nodes":[],"categories_segments":[],"categories_sizes":[],"default_left":[0,0,0,0,0,0,0,0,0,0,0,0,0,0,0],"id":59,"left_children":[1,3,-1,5,-1,7,9,-1,11,-1,13,-1,-1,-1,-1],"loss_changes":[1.062935E1,4.988257E0,0E0,1.5824444E0,0E0,3.2830077E-1,3.5092492E0,0E0,4.027565E-3,0E0,6.5650225E-2,0E0,0E0,0E0,0E0],"parents":[2147483647,0,0,1,1,3,3,5,5,6,6,8,8,10,10],"right_children":[2,4,-1,6,-1,8,10,-1,12,-1,14,-1,-1,-1,-1],"split_conditions":[1E0,1.5E-1,2.2236215E-1,1E-1,-1.7091732E-1,9E-1,1E-2,-5.1119234E-2,1E-2,1.1581446E-1,4E-2,2.4585724E-3,-3.9455416E-3,-3.730952E-2,-3.5762787E-3],"split_indices":[0,1,0,1,0,0,2,0,2,0,2,0,0,0,0],"split_type":[0,0,0,0,0,0,0,0,0,0,0,0,0,0,0],"sum_hessian":[1.2E1,1.1E1,1E0,1E1,1E0,5E0,5E0,3E0,2E0,2E0,3E0,1E0,1E0,2E0,1E0],"tree_param":{"num_deleted":"0","num_feature":"5","num_nodes":"15","size_leaf_vector":"1"}},{"base_weights":[-2.6064873E-1,1.0876742E-2,-1.6237144E-1,-2.077179E-1,6.6303514E-2,-4.4459995E-2,7.07077E-2,-2.6034293E-1,3.781891E-1,-3.5654068E-2,-3.3973695E-3,6.0476687E-2,-3.7483217E-3],"categories":[],"categories_nodes":[],"categories_segments":[],"categories_sizes":[],"default_left":[0,0,0,0,0,0,0,0,0,0,0,0,0],"id":60,"left_children":[1,3,-1,5,-1,-1,7,9,11,-1,-1,-1,-1],"loss_changes":[4.4589453E0,1.7058659E0,0E0,6.2502277E-1,0E0,0E0,6.0741836E-1,5.3215638E-2,3.0521494E-1,0E0,0E0,0E0,0E0],"parents":[2147483647,0,0,1,1,3,3,6,6,7,7,8,8],"right_children":[2,4,-1,6,-1,-1,8,10,12,-1,-1,-1,-1],"split_conditions":[1.5E-1,1.25E-1,-1.6237144E-1,2E-2,6.6303514E-2,-4.4459995E-2,8.5E-1,4E-2,9E-1,-3.5654068E-2,-3.3973695E-3,6.0476687E-2,-3.7483217E-3],"split_indices":[1,1,0,2,0,0,0,2,0,0,0,0,0],"split_type":[0,0,0,0,0,0,0,0,0,0,0,0,0],"sum_hessian":[1.1E1,1E1,1E0,8E0,2E0,4E0,4E0,2E0,2E0,1E0,1E0,1E0,1E0],"tree_param":{"num_deleted":"0","num_feature":"5","num_nodes":"13","size_leaf_vector":"1"}},{"base_weights":[5.296506E-1,1.5568161E-1,2.1346703E-1,-2.2810173E-1,3.5274616E-1,-2.803955E-2,-3.56102E-3,7.4744415E-1,-1.301384E-1,1.01810835E-1,-3.2274246E-3,5.229187E-2,-3.387146E-2,-1.4356613E-2,2.2200394E-2],"categories":[],"categories_nodes":[],"categories_segments":[],"categories_sizes":[],"default_left":[0,0,0,0,0,0,0,0,0,0,0,0,0,0,0],"id":61,"left_children":[1,3,-1,5,7,-1,-1,9,11,-1,-1,13,-1,-1,-1],"loss_changes":[6.270175E0,8.367628E-1,0E0,3.0279502E-2,1.4314263E0,0E0,0E0,8.770263E-1,1.6991445E-1,0E0,0E0,1.3159065E-1,0E0,0E0,0E0],"parents":[2147483647,0,0,1,1,3,3,4,4,7,7,8,8,11,11],"right_children":[2,4,-1,6,8,-1,-1,10,12,-1,-1,14,-1,-1,-1],"split_conditions":[1E0,7.5E-2,2.1346703E-1,8.5E-1,3.3333333E0,-2.803955E-2,-3.56102E-3,4E-2,3E-2,1.01810835E-1,-3.2274246E-3,2E-2,-3.387146E-2,-1.4356613E-2,2.2200394E-2],"split_indices":[0,1,0,0,4,0,0,2,2,0,0,2,0,0,0],"split_type":[0,0,0,0,0,0,0,0,0,0,0,0,0,0,0],"sum_hessian":[1E1,9E0,1E0,3E0,6E0,2E0,1E0,3E0,3E0,2E0,1E0,2E0,1E0,1E0,1E0],"tree_param":{"num_deleted":"0","num_feature":"5","num_nodes":"15","size_leaf_vector":"1"}},{"base_weights":[1.5113243E-1,2.0279351E-1,-1.7426236E-1,9.961076E-2,-1.5934335E-1,1.9878006E-1,-1.2363052E-1,-2.5316238E-2,5.807126E-1,4.9677532E-2,-3.2177735E-2,-2.3982772E-1,5.2362062E-2,9.017296E-2,-3.066063E-3,-1.3638687E-2,2.1090318E-2,-4.5119287E-3,-5.0933074E-2],"categories":[],"categories_nodes":[],"categories_segments":[],"categories_sizes":[],"default_left":[0,0,0,0,0,0,0,0,0,0,0,0,0,0,0,0,0,0,0],"id":62,"left_children":[1,-1,3,5,-1,7,9,11,13,15,-1,17,-1,-1,-1,-1,-1,-1,-1],"loss_changes":[8.292517E0,0E0,4.8227963E0,2.681008E-1,0E0,6.994188E-1,1.5334687E-1,8.320983E-1,6.1643124E-1,1.1875948E-1,0E0,2.3939192E-1,0E0,0E0,0E0,0E0,0E0,0E0,0E0],"parents":[2147483647,0,0,2,2,3,3,5,5,6,6,7,7,8,8,9,9,11,11],"right_children":[2,-1,4,6,-1,8,10,12,14,16,-1,18,-1,-1,-1,-1,-1,-1,-1],"split_conditions":[5E-2,2.0279351E-1,1.25E-1,3.3333333E0,-1.5934335E-1,1E-1,3E-2,3E-2,1E-2,2E-2,-3.2177735E-2,7.5E-2,5.2362062E-2,9.017296E-2,-3.066063E-3,-1.3638687E-2,2.1090318E-2,-4.5119287E-3,-5.0933074E-2],"split_indices":[1,0,1,4,0,1,2,2,2,2,0,1,0,0,0,0,0,0,0],"split_type":[0,0,0,0,0,0,0,0,0,0,0,0,0,0,0,0,0,0,0],"sum_hessian":[1.2E1,1E0,1.1E1,1E1,1E0,7E0,3E0,5E0,2E0,2E0,1E0,4E0,1E0,1E0,1E0,1E0,1E0,3E0,1E0],"tree_param":{"num_deleted":"0","num_feature":"5","num_nodes":"19","size_leaf_vector":"1"}},{"base_weights":[-1.7283154E-1,8.668587E-2,-1.5137616E-1,-1.3534673E-1,2.9427084E-1,-3.613922E-1,4.9744036E-2,8.566437E-2,1.0467529E-2,-4.3595314E-2,-3.157425E-3,3.5168458E-2,-1.6275788E-2],"categories":[],"categories_nodes":[],"categories_segments":[],"categories_sizes":[],"default_left":[0,0,0,0,0,0,0,0,0,0,0,0,0],"id":63,"left_children":[1,3,-1,5,7,9,-1,-1,11,-1,-1,-1,-1],"loss_changes":[4.3071575E0,5.468256E-1,0E0,1.0380031E0,9.486527E-1,1.0919279E-1,0E0,0E0,3.5277674E-1,0E0,0E0,0E0,0E0],"parents":[2147483647,0,0,1,1,3,3,4,4,5,5,8,8],"right_children":[2,4,-1,6,8,10,-1,-1,12,-1,-1,-1,-1],"split_conditions":[1.33E-1,1E-1,-1.5137616E-1,3E-2,1E-2,9E-1,4.9744036E-2,8.566437E-2,8E-1,-4.3595314E-2,-3.157425E-3,3.5168458E-2,-1.6275788E-2],"split_indices":[1,1,0,2,2,0,0,0,0,0,0,0,0],"split_type":[0,0,0,0,0,0,0,0,0,0,0,0,0],"sum_hessian":[1.1E1,1E1,1E0,5E0,5E0,4E0,1E0,1E0,4E0,3E0,1E0,1E0,3E0],"tree_param":{"num_deleted":"0","num_feature":"5","num_nodes":"13","size_leaf_vector":"1"}},{"base_weights":[-2.0937538E-1,-4.2390088E-3,-1.4380741E-1,-2.6176962E-1,1.8943882E-1,-4.032574E-2,1.4137268E-2,8.1381224E-2,-1.6016278E-2,5.120087E-3,-2.9994964E-3,3.3409882E-2,-1.3005193E-1,5.8044434E-2,-2.3861123E-2,-1.2142944E-2,2.084961E-2],"categories":[],"categories_nodes":[],"categories_segments":[],"categories_sizes":[],"default_left":[0,0,0,0,0,0,0,0,0,0,0,0,0,0,0,0,0],"id":64,"left_children":[1,3,-1,5,7,-1,9,-1,11,-1,-1,-1,13,15,-1,-1,-1],"loss_changes":[3.522615E0,6.980029E-1,0E0,2.3992562E-1,1.0392799E0,0E0,6.4428663E-3,0E0,3.229294E-1,0E0,0E0,0E0,1.3636771E-1,1.0632399E-1,0E0,0E0,0E0],"parents":[2147483647,0,0,1,1,3,3,4,4,6,6,8,8,12,12,13,13],"right_children":[2,4,-1,6,8,-1,10,-1,12,-1,-1,-1,14,16,-1,-1,-1],"split_conditions":[1.33E-1,1E-1,-1.4380741E-1,9E-1,1E-2,-4.032574E-2,1E-2,8.1381224E-2,8E-1,5.120087E-3,-2.9994964E-3,3.3409882E-2,3E-2,2E-2,-2.3861123E-2,-1.2142944E-2,2.084961E-2],"split_indices":[1,1,0,0,2,0,2,0,0,0,0,0,2,2,0,0,0],"split_type":[0,0,0,0,0,0,0,0,0,0,0,0,0,0,0,0,0],"sum_hessian":[1.3E1,1.2E1,1E0,5E0,7E0,3E0,2E0,1E0,6E0,1E0,1E0,1E0,5E0,2E0,3E0,1E0,1E0],"tree_param":{"num_deleted":"0","num_feature":"5","num_nodes":"17","size_leaf_vector":"1"}},{"base_weights":[1.8503101E-1,-1.2047577E-1,1.9255562E-1,1.169666E-1,-1.366171E-1,-3.817749E-2,8.342037E-2,-2.8137907E-1,2.612999E-1,-3.5711136E-2,4.8641204E-3,3.4087276E-1,-2.8495789E-3,1.26008345E-2,4.92733E-2],"categories":[],"categories_nodes":[],"categories_segments":[],"categories_sizes":[],"default_left":[0,0,0,0,0,0,0,0,0,0,0,0,0,0,0],"id":65,"left_children":[1,3,-1,5,-1,7,-1,9,11,-1,-1,13,-1,-1,-1],"loss_changes":[7.144632E0,3.709166E0,0E0,1.2558739E0,0E0,8.0185807E-1,0E0,1.6732949E-1,1.2501281E-1,0E0,0E0,6.842896E-2,0E0,0E0,0E0],"parents":[2147483647,0,0,1,1,3,3,5,5,7,7,8,8,11,11],"right_children":[2,4,-1,6,-1,8,-1,10,12,-1,-1,14,-1,-1,-1],"split_conditions":[1E0,1.5E-1,1.9255562E-1,1.25E-1,-1.366171E-1,2.5E0,8.342037E-2,9E-1,9E-1,-3.5711136E-2,4.8641204E-3,8.5E-1,-2.8495789E-3,1.26008345E-2,4.92733E-2],"split_indices":[0,1,0,1,0,4,0,0,0,0,0,0,0,0,0],"split_type":[0,0,0,0,0,0,0,0,0,0,0,0,0,0,0],"sum_hessian":[1.2E1,1.1E1,1E0,1E1,1E0,9E0,1E0,5E0,4E0,4E0,1E0,3E0,1E0,2E0,1E0],"tree_param":{"num_deleted":"0","num_feature":"5","num_nodes":"15","size_leaf_vector":"1"}},{"base_weights":[-1.420378E-1,4.6707448E-2,-1.297863E-1,1.3039571E-1,-2.757187E-2,-5.8636256E-2,3.6896133E-1,-2.2444153E-1,4.680977E-2,7.909756E-2,6.571388E-2,-3.4622956E-2,1.2756348E-2,2.7568435E-2,-9.617106E-2,4.620743E-3,-2.7072907E-3,-1.5357971E-3,-1.2889862E-2],"categories":[],"categories_nodes":[],"categories_segments":[],"categories_sizes":[],"default_left":[0,0,0,0,0,0,0,0,0,0,0,0,0,0,0,0,0,0,0],"id":66,"left_children":[1,3,-1,5,-1,7,9,11,-1,-1,13,-1,15,-1,17,-1,-1,-1,-1],"loss_changes":[3.114811E0,3.8673526E-1,0E0,5.176963E-1,0E0,7.164075E-1,5.878957E-1,1.7774376E-1,0E0,0E0,1.6247709E-1,0E0,5.247964E-3,0E0,5.9548244E-3,0E0,0E0,0E0,0E0],"parents":[2147483647,0,0,1,1,3,3,5,5,6,6,7,7,10,10,12,12,14,14],"right_children":[2,4,-1,6,-1,8,10,12,-1,-1,14,-1,16,-1,18,-1,-1,-1,-1],"split_conditions":[1.33E-1,3.3333333E0,-1.297863E-1,1E-1,-2.757187E-2,3E-2,1E-2,9E-1,4.680977E-2,7.909756E-2,8E-1,-3.4622956E-2,1E-2,2.7568435E-2,5E-2,4.620743E-3,-2.7072907E-3,-1.5357971E-3,-1.2889862E-2],"split_indices":[1,4,0,1,0,2,2,0,0,0,0,0,2,0,2,0,0,0,0],"split_type":[0,0,0,0,0,0,0,0,0,0,0,0,0,0,0,0,0,0,0],"sum_hessian":[1.3E1,1.2E1,1E0,1E1,2E0,6E0,4E0,5E0,1E0,1E0,3E0,3E0,2E0,1E0,2E0,1E0,1E0,1E0,1E0],"tree_param":{"num_deleted":"0","num_feature":"5","num_nodes":"19","size_leaf_vector":"1"}},{"base_weights":[-1.546239E-1,7.650757E-2,-1.2329693E-1,1.4681584E-1,-2.781334E-2,-8.624573E-2,3.5051423E-1,-1.558609E-1,1.2118022E-2,7.5142674E-2,6.2429428E-2,-2.0939637E-2,-2.439499E-3,4.3895724E-3,-2.571869E-3,2.6190186E-2,-9.1362E-2,-1.458931E-3,-1.2245369E-2],"categories":[],"categories_nodes":[],"categories_segments":[],"categories_sizes":[],"default_left":[0,0,0,0,0,0,0,0,0,0,0,0,0,0,0,0,0,0,0],"id":67,"left_children":[1,3,-1,5,-1,7,9,11,13,-1,15,-1,-1,-1,-1,-1,17,-1,-1],"loss_changes":[2.8359666E0,2.9017627E-1,0E0,4.5749873E-1,0E0,3.6126774E-2,5.305728E-1,1.6006045E-2,4.7360314E-3,0E0,1.4663647E-1,0E0,0E0,0E0,0E0,0E0,5.374465E-3,0E0,0E0],"parents":[2147483647,0,0,1,1,3,3,5,5,6,6,7,7,8,8,10,10,16,16],"right_children":[2,4,-1,6,-1,8,10,12,14,-1,16,-1,-1,-1,-1,-1,18,-1,-1],"split_conditions":[1.33E-1,3.3333333E0,-1.2329693E-1,7.5E-2,-2.781334E-2,8.5E-1,1E-2,6.7E-2,1E-2,7.5142674E-2,8E-1,-2.0939637E-2,-2.439499E-3,4.3895724E-3,-2.571869E-3,2.6190186E-2,5E-2,-1.458931E-3,-1.2245369E-2],"split_indices":[1,4,0,1,0,0,2,1,2,0,0,0,0,0,0,0,2,0,0],"split_type":[0,0,0,0,0,0,0,0,0,0,0,0,0,0,0,0,0,0,0],"sum_hessian":[1E1,9E0,1E0,8E0,1E0,4E0,4E0,2E0,2E0,1E0,3E0,1E0,1E0,1E0,1E0,1E0,2E0,1E0,1E0],"tree_param":{"num_deleted":"0","num_feature":"5","num_nodes":"19","size_leaf_vector":"1"}},{"base_weights":[1.8563652E-1,-1.2926413E-1,1.8247719E-1,-3.1309587E-1,2.0510538E-2,-1.6921712E-2,-4.4430543E-2,2.4880601E-2,-5.9006374E-2,-1.5125942E-1,8.366648E-2,-2.5529226E-3,-2.64225E-2,2.1946335E-2,-9.396362E-3],"categories":[],"categories_nodes":[],"categories_segments":[],"categories_sizes":[],"default_left":[0,0,0,0,0,0,0,0,0,0,0,0,0,0,0],"id":68,"left_children":[1,3,-1,5,7,-1,-1,-1,9,11,13,-1,-1,-1,-1],"loss_changes":[6.4298553E0,3.0928844E-1,0E0,1.9207269E-2,1.417546E-1,0E0,0E0,0E0,9.162738E-2,5.0067283E-2,9.2986405E-2,0E0,0E0,0E0,0E0],"parents":[2147483647,0,0,1,1,3,3,4,4,8,8,9,9,10,10],"right_children":[2,4,-1,6,8,-1,-1,-1,10,12,14,-1,-1,-1,-1],"split_conditions":[1E0,2.5E0,1.8247719E-1,8.5E-1,8E-1,-1.6921712E-2,-4.4430543E-2,2.4880601E-2,5E0,3.3333333E0,1E1,-2.5529226E-3,-2.64225E-2,2.1946335E-2,-9.396362E-3],"split_indices":[0,4,0,0,0,0,0,0,4,4,4,0,0,0,0],"split_type":[0,0,0,0,0,0,0,0,0,0,0,0,0,0,0],"sum_hessian":[1.1E1,1E1,1E0,4E0,6E0,3E0,1E0,1E0,5E0,3E0,2E0,2E0,1E0,1E0,1E0],"tree_param":{"num_deleted":"0","num_feature":"5","num_nodes":"15","size_leaf_vector":"1"}},{"base_weights":[2.5011063E-1,3.5647076E-2,1.733532E-1,-7.906761E-1,2.2359496E-1,-1.162859E-1,-2.3155212E-3,9.274979E-2,8.76449E-2,1.462101E-1,-1.3678741E-1,2.465259E-1,-6.589508E-2,-1.4715195E-3,-1.9046593E-2,3.734646E-2,5.7955743E-3,7.948304E-3,-2.5101472E-2],"categories":[],"categories_nodes":[],"categories_segments":[],"categories_sizes":[],"default_left":[0,0,0,0,0,0,0,0,0,0,0,0,0,0,0,0,0,0,0],"id":69,"left_children":[1,3,-1,5,7,-1,-1,-1,9,11,13,15,17,-1,-1,-1,-1,-1,-1],"loss_changes":[5.0284414E0,2.5063767E0,0E0,8.3004797E-1,1.1627529E0,0E0,0E0,0E0,1.7772678E-1,2.2901987E-1,1.6855218E-2,1.4591351E-1,1.2760077E-1,0E0,0E0,0E0,0E0,0E0,0E0],"parents":[2147483647,0,0,1,1,3,3,4,4,8,8,9,9,10,10,11,11,12,12],"right_children":[2,4,-1,6,8,-1,-1,-1,10,12,14,16,18,-1,-1,-1,-1,-1,-1],"split_conditions":[1E0,6.7E-2,1.733532E-1,8.5E-1,7.5E-2,-1.162859E-1,-2.3155212E-3,9.274979E-2,1.33E-1,3.3333333E0,1.5E-1,4E-2,3E-2,-1.4715195E-3,-1.9046593E-2,3.734646E-2,5.7955743E-3,7.948304E-3,-2.5101472E-2],"split_indices":[0,3,0,0,3,0,0,0,3,4,3,2,2,0,0,0,0,0,0],"split_type":[0,0,0,0,0,0,0,0,0,0,0,0,0,0,0,0,0,0,0],"sum_hessian":[1.5E1,1.4E1,1E0,2E0,1.2E1,1E0,1E0,1E0,1.1E1,9E0,2E0,6E0,3E0,1E0,1E0,3E0,3E0,2E0,1E0],"tree_param":{"num_deleted":"0","num_feature":"5","num_nodes":"19","size_leaf_vector":"1"}},{"base_weights":[1.3931996E-1,4.3291378E-1,-1.1047154E-1,6.543449E-1,4.7896385E-2,3.4063976E-2,1.05651096E-1,1.2602107E-1,-9.323883E-3,-1.3978959E-3,6.507492E-3,-1.5481949E-3,2.0451356E-2],"categories":[],"categories_nodes":[],"categories_segments":[],"categories_sizes":[],"default_left":[0,0,0,0,0,0,0,0,0,0,0,0,0],"id":70,"left_children":[1,3,-1,5,7,9,-1,11,-1,-1,-1,-1,-1],"loss_changes":[3.7654164E0,6.5069795E-1,0E0,1.2112908E0,5.5854633E-2,5.3792493E-3,0E0,3.6487035E-2,0E0,0E0,0E0,0E0,0E0],"parents":[2147483647,0,0,1,1,3,3,4,4,5,5,7,7],"right_children":[2,4,-1,6,8,10,-1,12,-1,-1,-1,-1,-1],"split_conditions":[1.5E-1,2E0,-1.1047154E-1,7.5E-2,1E1,8.5E-1,1.05651096E-1,3.3333333E0,-9.323883E-3,-1.3978959E-3,6.507492E-3,-1.5481949E-3,2.0451356E-2],"split_indices":[1,4,0,1,4,0,0,4,0,0,0,0,0],"split_type":[0,0,0,0,0,0,0,0,0,0,0,0,0],"sum_hessian":[8E0,7E0,1E0,4E0,3E0,2E0,2E0,2E0,1E0,1E0,1E0,1E0,1E0],"tree_param":{"num_deleted":"0","num_feature":"5","num_nodes":"13","size_leaf_vector":"1"}},{"base_weights":[2.8851482E-1,5.7846658E-2,1.6436005E-1,2.3758061E-1,-1.04948044E-1,6.179371E-1,4.213545E-2,8.380661E-2,-2.1224977E-3,2.2864628E-1,-8.922768E-2,-1.2901688E-1,6.508179E-2,-1.8669605E-1,7.047272E-2,-1.8024445E-2,-1.3280868E-3,-8.31337E-3,-2.4869157E-2,1.9428635E-2,-8.857727E-3],"categories":[],"categories_nodes":[],"categories_segments":[],"categories_sizes":[],"default_left":[0,0,0,0,0,0,0,0,0,0,0,0,0,0,0,0,0,0,0,0,0],"id":71,"left_children":[1,3,-1,5,-1,7,9,-1,-1,11,13,15,-1,17,19,-1,-1,-1,-1,-1,-1],"loss_changes":[4.2809744E0,2.8366518E0,0E0,8.6602896E-1,0E0,5.805805E-1,2.4090737E-1,0E0,0E0,6.879474E-1,1.06551394E-1,1.5392821E-2,0E0,5.006969E-3,7.628703E-2,0E0,0E0,0E0,0E0,0E0,0E0],"parents":[2147483647,0,0,1,1,3,3,5,5,6,6,9,9,10,10,11,11,13,13,14,14],"right_children":[2,4,-1,6,-1,8,10,-1,-1,12,14,16,-1,18,20,-1,-1,-1,-1,-1,-1],"split_conditions":[1E0,1.5E-1,1.6436005E-1,1E-1,-1.04948044E-1,9E-1,2E0,8.380661E-2,-2.1224977E-3,7.5E-2,5E0,6.7E-2,6.508179E-2,3.3333333E0,1E1,-1.8024445E-2,-1.3280868E-3,-8.31337E-3,-2.4869157E-2,1.9428635E-2,-8.857727E-3],"split_indices":[0,1,0,3,0,0,4,0,0,1,4,1,0,4,4,0,0,0,0,0,0],"split_type":[0,0,0,0,0,0,0,0,0,0,0,0,0,0,0,0,0,0,0,0,0],"sum_hessian":[1.3E1,1.2E1,1E0,1.1E1,1E0,3E0,8E0,2E0,1E0,3E0,5E0,2E0,1E0,3E0,2E0,1E0,1E0,2E0,1E0,1E0,1E0],"tree_param":{"num_deleted":"0","num_feature":"5","num_nodes":"21","size_leaf_vector":"1"}},{"base_weights":[2.4759088E-1,4.221589E-2,1.5614204E-1,-6.227506E-1,2.0493953E-1,-9.970074E-2,6.288147E-3,7.863941E-2,8.0589645E-2,1.4476919E-1,-6.791687E-2,2.4255688E-1,-9.90626E-2,6.694794E-2,-2.3625566E-2,4.03773E-2,6.100559E-3,-5.3549197E-2,3.8689803E-2,-8.414841E-3,1.845703E-2],"categories":[],"categories_nodes":[],"categories_segments":[],"categories_sizes":[],"default_left":[0,0,0,0,0,0,0,0,0,0,0,0,0,0,0,0,0,0,0,0,0],"id":72,"left_children":[1,3,-1,5,7,-1,-1,-1,9,11,13,15,17,19,-1,-1,-1,-1,-1,-1,-1],"loss_changes":[3.9814994E0,1.6425068E0,0E0,8.325006E-1,8.0427057E-1,0E0,0E0,0E0,1.1467415E-1,2.147783E-1,1.0662874E-1,1.5098152E-1,8.434432E-1,6.884823E-2,0E0,0E0,0E0,0E0,0E0,0E0,0E0],"parents":[2147483647,0,0,1,1,3,3,4,4,8,8,9,9,10,10,11,11,12,12,13,13],"right_children":[2,4,-1,6,8,-1,-1,-1,10,12,14,16,18,20,-1,-1,-1,-1,-1,-1,-1],"split_conditions":[1E0,6.7E-2,1.5614204E-1,8.5E-1,7.5E-2,-9.970074E-2,6.288147E-3,7.863941E-2,3.3333333E0,8.5E-1,3E-2,1E-2,1E-2,2E-2,-2.3625566E-2,4.03773E-2,6.100559E-3,-5.3549197E-2,3.8689803E-2,-8.414841E-3,1.845703E-2],"split_indices":[0,3,0,0,3,0,0,0,4,0,2,2,2,2,0,0,0,0,0,0,0],"split_type":[0,0,0,0,0,0,0,0,0,0,0,0,0,0,0,0,0,0,0,0,0],"sum_hessian":[1.4E1,1.3E1,1E0,2E0,1.1E1,1E0,1E0,1E0,1E1,7E0,3E0,5E0,2E0,2E0,1E0,2E0,3E0,1E0,1E0,1E0,1E0],"tree_param":{"num_deleted":"0","num_feature":"5","num_nodes":"21","size_leaf_vector":"1"}},{"base_weights":[2.251276E-1,-3.3365886E-3,1.4833489E-1,1.6857043E-1,-9.471569E-2,-1.2285445E-2,6.54948E-2,1.1248398E-1,-2.9931894E-1,3.7031174E-1,-1.7346478E-1,-5.087166E-2,5.973816E-3,-3.2806396E-3,5.1561993E-2,-2.2444153E-2,-8.165869E-3],"categories":[],"categories_nodes":[],"categories_segments":[],"categories_sizes":[],"default_left":[0,0,0,0,0,0,0,0,0,0,0,0,0,0,0,0,0],"id":73,"left_children":[1,3,-1,5,-1,7,-1,9,11,13,15,-1,-1,-1,-1,-1,-1],"loss_changes":[3.7419095E0,2.106655E0,0E0,9.756528E-1,0E0,3.559856E-1,0E0,5.8031476E-1,2.559469E-1,2.5122106E-1,3.9231032E-4,0E0,0E0,0E0,0E0,0E0,0E0],"parents":[2147483647,0,0,1,1,3,3,5,5,7,7,8,8,9,9,10,10],"right_children":[2,4,-1,6,-1,8,-1,10,12,14,16,-1,-1,-1,-1,-1,-1],"split_conditions":[1E0,1.5E-1,1.4833489E-1,1.25E-1,-9.471569E-2,8.5E-1,6.54948E-2,3E-2,9E-1,7.5E-2,4E-2,-5.087166E-2,5.973816E-3,-3.2806396E-3,5.1561993E-2,-2.2444153E-2,-8.165869E-3],"split_indices":[0,1,0,1,0,0,0,2,0,1,2,0,0,0,0,0,0],"split_type":[0,0,0,0,0,0,0,0,0,0,0,0,0,0,0,0,0],"sum_hessian":[1.2E1,1.1E1,1E0,1E1,1E0,8E0,2E0,6E0,2E0,3E0,3E0,1E0,1E0,1E0,2E0,1E0,2E0],"tree_param":{"num_deleted":"0","num_feature":"5","num_nodes":"17","size_leaf_vector":"1"}},{"base_weights":[-1.2475433E-1,-2.5106558E-1,5.177002E-2,-3.239792E-1,5.6751254E-3,2.0259857E-2,-3.658676E-2,-1.633339E-2,-4.832802E-2,1.4956283E-2,-1.484909E-1,-2.1321869E-2,-9.5176697E-4],"categories":[],"categories_nodes":[],"categories_segments":[],"categories_sizes":[],"default_left":[0,0,0,0,0,0,0,0,0,0,0,0,0],"id":74,"left_children":[1,3,5,7,-1,-1,9,-1,-1,-1,11,-1,-1],"loss_changes":[2.3596774E-1,1.5305048E-1,7.404605E-2,4.901874E-2,0E0,0E0,1.0553236E-1,0E0,0E0,0E0,2.4956949E-2,0E0,0E0],"parents":[2147483647,0,0,1,1,2,2,3,3,6,6,10,10],"right_children":[2,4,6,8,-1,-1,10,-1,-1,-1,12,-1,-1],"split_conditions":[2E-2,9E-1,8E-1,8.5E-1,5.6751254E-3,2.0259857E-2,3E-2,-1.633339E-2,-4.832802E-2,1.4956283E-2,4E-2,-2.1321869E-2,-9.5176697E-4],"split_indices":[2,0,0,0,0,0,2,0,0,0,2,0,0],"split_type":[0,0,0,0,0,0,0,0,0,0,0,0,0],"sum_hessian":[9E0,5E0,4E0,4E0,1E0,1E0,3E0,3E0,1E0,1E0,2E0,1E0,1E0],"tree_param":{"num_deleted":"0","num_feature":"5","num_nodes":"13","size_leaf_vector":"1"}},{"base_weights":[4.2388013E-1,6.4459455E-1,-8.916321E-2,1.0345604E-1,2.1219063E-1,3.716494E-1,3.9548874E-2,-2.299881E-3,5.8047295E-2,1.9246673E-2,-7.557932E-2,-1.0432816E-2,-9.0408325E-4],"categories":[],"categories_nodes":[],"categories_segments":[],"categories_sizes":[],"default_left":[0,0,0,0,0,0,0,0,0,0,0,0,0],"id":75,"left_children":[1,3,-1,-1,5,7,9,-1,-1,-1,11,-1,-1],"loss_changes":[3.768619E0,1.4667039E0,0E0,0E0,1.504772E-1,2.6058564E-1,8.496714E-2,0E0,0E0,0E0,4.795499E-3,0E0,0E0],"parents":[2147483647,0,0,1,1,4,4,5,5,6,6,10,10],"right_children":[2,4,-1,-1,6,8,10,-1,-1,-1,12,-1,-1],"split_conditions":[1.5E-1,1E-1,-8.916321E-2,1.0345604E-1,2E0,7.5E-2,8E-1,-2.299881E-3,5.8047295E-2,1.9246673E-2,2.5E0,-1.0432816E-2,-9.0408325E-4],"split_indices":[1,3,0,0,4,1,0,0,0,0,4,0,0],"split_type":[0,0,0,0,0,0,0,0,0,0,0,0,0],"sum_hessian":[1E1,9E0,1E0,4E0,5E0,2E0,3E0,1E0,1E0,1E0,2E0,1E0,1E0],"tree_param":{"num_deleted":"0","num_feature":"5","num_nodes":"13","size_leaf_vector":"1"}},{"base_weights":[1.0673347E-1,3.833453E-3,6.707668E-2,-8.802732E-2,8.202362E-2,-2.6525402E-1,1.7761739E-1,5.5144884E-2,-8.812205E-2,-1.3108571E-2,-5.108452E-2,3.519249E-2,-8.549881E-3,-1.5490341E-1,3.0293783E-2,-2.1848679E-3,2.1858215E-4,-7.180023E-2,-2.0210648E-2,1.4253998E-2,-9.709931E-3,-9.911156E-3,-8.588791E-4],"categories":[],"categories_nodes":[],"categories_segments":[],"categories_sizes":[],"default_left":[0,0,0,0,0,0,0,0,0,0,0,0,0,0,0,0,0,0,0,0,0,0,0],"id":76,"left_children":[1,3,-1,5,7,9,11,-1,13,15,-1,-1,-1,17,19,-1,-1,21,-1,-1,-1,-1,-1],"loss_changes":[7.519362E-1,9.341163E-2,0E0,3.2958972E-1,6.0768944E-1,2.4100238E-1,1.6767856E-1,0E0,5.2140433E-2,4.4878118E-4,0E0,0E0,0E0,1.1795983E-3,5.6738704E-2,0E0,0E0,4.3279165E-3,0E0,0E0,0E0,0E0,0E0],"parents":[2147483647,0,0,1,1,3,3,4,4,5,5,6,6,8,8,9,9,13,13,14,14,17,17],"right_children":[2,4,-1,6,8,10,12,-1,14,16,-1,-1,-1,18,20,-1,-1,22,-1,-1,-1,-1,-1],"split_conditions":[1.25E-1,1E-1,6.707668E-2,2E0,2E0,7.5E-2,9E-1,5.5144884E-2,5E0,8.5E-1,-5.108452E-2,3.519249E-2,-8.549881E-3,3.3333333E0,1E1,-2.1848679E-3,2.1858215E-4,2.5E0,-2.0210648E-2,1.4253998E-2,-9.709931E-3,-9.911156E-3,-8.588791E-4],"split_indices":[1,1,0,4,4,1,0,0,4,0,0,0,0,4,4,0,0,4,0,0,0,0,0],"split_type":[0,0,0,0,0,0,0,0,0,0,0,0,0,0,0,0,0,0,0,0,0,0,0],"sum_hessian":[1.2E1,1.1E1,1E0,5E0,6E0,3E0,2E0,1E0,5E0,2E0,1E0,1E0,1E0,3E0,2E0,1E0,1E0,2E0,1E0,1E0,1E0,1E0,1E0],"tree_param":{"num_deleted":"0","num_feature":"5","num_nodes":"23","size_leaf_vector":"1"}},{"base_weights":[5.2806856E-3,-2.9513338E-1,1.3545036E-1,-6.9332314E-1,1.9515356E-2,-2.075577E-3,-9.105937E-2,-9.727955E-3,1.6873677E-1,3.343277E-2,-8.122253E-3],"categories":[],"categories_nodes":[],"categories_segments":[],"categories_sizes":[],"default_left":[0,0,0,0,0,0,0,0,0,0,0],"id":77,"left_children":[1,3,-1,5,7,-1,-1,-1,9,-1,-1],"loss_changes":[4.453015E0,1.1411396E0,0E0,5.6561613E-1,1.2098444E-1,0E0,0E0,0E0,1.5132794E-1,0E0,0E0],"parents":[2147483647,0,0,1,1,3,3,4,4,8,8],"right_children":[2,4,-1,6,8,-1,-1,-1,10,-1,-1],"split_conditions":[1E0,2E0,1.3545036E-1,7.5E-2,8.5E-1,-2.075577E-3,-9.105937E-2,-9.727955E-3,9E-1,3.343277E-2,-8.122253E-3],"split_indices":[0,4,0,1,0,0,0,0,0,0,0],"split_type":[0,0,0,0,0,0,0,0,0,0,0],"sum_hessian":[9E0,8E0,1E0,3E0,5E0,1E0,2E0,3E0,2E0,1E0,1E0],"tree_param":{"num_deleted":"0","num_feature":"5","num_nodes":"11","size_leaf_vector":"1"}},{"base_weights":[1.949016E-1,1.1928265E-2,1.2867776E-1,1.5209866E-1,-8.3505824E-2,4.1787926E-2,6.827583E-2,1.1207792E-1,-1.8301137E-2,-7.197571E-2,3.601389E-1,-2.1341553E-2,3.176117E-2,5.6940652E-2,1.0058085E-2],"categories":[],"categories_nodes":[],"categories_segments":[],"categories_sizes":[],"default_left":[0,0,0,0,0,0,0,0,0,0,0,0,0,0,0],"id":78,"left_children":[1,3,-1,5,-1,7,-1,9,-1,11,13,-1,-1,-1,-1],"loss_changes":[2.7816293E0,1.6704028E0,0E0,6.7391837E-1,0E0,1.9432409E-1,0E0,4.3682992E-1,0E0,3.984023E-1,1.5999705E-1,0E0,0E0,0E0,0E0],"parents":[2147483647,0,0,1,1,3,3,5,5,7,7,9,9,10,10],"right_children":[2,4,-1,6,-1,8,-1,10,-1,12,14,-1,-1,-1,-1],"split_conditions":[1E0,1.5E-1,1.2867776E-1,1.33E-1,-8.3505824E-2,3.3333333E0,6.827583E-2,1E-1,-1.8301137E-2,3E-2,1E-2,-2.1341553E-2,3.176117E-2,5.6940652E-2,1.0058085E-2],"split_indices":[0,1,0,1,0,4,0,1,0,2,2,0,0,0,0],"split_type":[0,0,0,0,0,0,0,0,0,0,0,0,0,0,0],"sum_hessian":[1.3E1,1.2E1,1E0,1.1E1,1E0,1E1,1E0,8E0,2E0,5E0,3E0,4E0,1E0,1E0,2E0],"tree_param":{"num_deleted":"0","num_feature":"5","num_nodes":"15","size_leaf_vector":"1"}},{"base_weights":[-2.6037693E-3,1.0299657E-1,-7.9330444E-2,-3.8901109E-3,5.3184E-1,-1.0193961E-1,9.471512E-2,1.4913941E-2,6.4862065E-2,-2.3681183E-1,1.5682729E-1,5.409355E-2,-6.981087E-2,-8.146286E-2,-4.2910386E-2,3.0173112E-2,-6.6490173E-3,-1.4031696E-2,4.746755E-2,3.157298E-4,-1.6766166E-2,1.4942932E-2,-7.8227995E-3],"categories":[],"categories_nodes":[],"categories_segments":[],"categories_sizes":[],"default_left":[0,0,0,0,0,0,0,0,0,0,0,0,0,0,0,0,0,0,0,0,0,0,0],"id":79,"left_children":[1,3,-1,5,7,9,11,-1,-1,13,15,-1,17,19,-1,-1,-1,-1,21,-1,-1,-1,-1],"loss_changes":[1.4176798E0,6.896337E-1,0E0,1.3534173E-1,3.7341177E-2,2.814418E-1,5.5166715E-1,0E0,0E0,1.1440581E-1,1.17140815E-1,0E0,5.6273557E-2,2.9705986E-2,0E0,0E0,0E0,0E0,5.0137978E-2,0E0,0E0,0E0,0E0],"parents":[2147483647,0,0,1,1,3,3,4,4,5,5,6,6,9,9,10,10,12,12,13,13,18,18],"right_children":[2,4,-1,6,8,10,12,-1,-1,14,16,-1,18,20,-1,-1,-1,-1,22,-1,-1,-1,-1],"split_conditions":[1.5E-1,1.25E-1,-7.9330444E-2,1E-1,8E-1,2E0,2E0,1.4913941E-2,6.4862065E-2,7.5E-2,9E-1,5.409355E-2,5E0,1.5E-1,-4.2910386E-2,3.0173112E-2,-6.6490173E-3,-1.4031696E-2,1E1,3.157298E-4,-1.6766166E-2,1.4942932E-2,-7.8227995E-3],"split_indices":[1,1,0,1,0,4,4,0,0,1,0,0,4,3,0,0,0,0,4,0,0,0,0],"split_type":[0,0,0,0,0,0,0,0,0,0,0,0,0,0,0,0,0,0,0,0,0,0,0],"sum_hessian":[1.5E1,1.4E1,1E0,1.2E1,2E0,6E0,6E0,1E0,1E0,4E0,2E0,1E0,5E0,3E0,1E0,1E0,1E0,3E0,2E0,2E0,1E0,1E0,1E0],"tree_param":{"num_deleted":"0","num_feature":"5","num_nodes":"23","size_leaf_vector":"1"}},{"base_weights":[8.775997E-2,-1.2649502E-1,1.2222824E-1,-6.122284E-1,1.3218355E-1,-7.741928E-2,-6.3167573E-3,3.364563E-1,8.016586E-3,-9.2048646E-4,5.138893E-2,-4.716263E-2,1.4195633E-2,1.41681675E-2,-1.2979412E-1,-5.907822E-3,-1.7097091E-2],"categories":[],"categories_nodes":[],"categories_segments":[],"categories_sizes":[],"default_left":[0,0,0,0,0,0,0,0,0,0,0,0,0,0,0,0,0],"id":80,"left_children":[1,3,-1,5,7,-1,-1,9,11,-1,-1,13,-1,-1,15,-1,-1],"loss_changes":[3.0715377E0,1.4630635E0,0E0,3.068093E-1,2.0021418E-1,0E0,0E0,1.8872538E-1,5.1039174E-2,0E0,0E0,9.641187E-2,0E0,0E0,1.5467629E-3,0E0,0E0],"parents":[2147483647,0,0,1,1,3,3,4,4,7,7,8,8,11,11,14,14],"right_children":[2,4,-1,6,8,-1,-1,10,12,-1,-1,14,-1,-1,16,-1,-1],"split_conditions":[1E0,1E-1,1.2222824E-1,9E-1,2E0,-7.741928E-2,-6.3167573E-3,7.5E-2,5E0,-9.2048646E-4,5.138893E-2,8E-1,1.4195633E-2,1.41681675E-2,3.3333333E0,-5.907822E-3,-1.7097091E-2],"split_indices":[0,3,0,0,4,0,0,1,4,0,0,0,0,0,4,0,0],"split_type":[0,0,0,0,0,0,0,0,0,0,0,0,0,0,0,0,0],"sum_hessian":[1.1E1,1E1,1E0,3E0,7E0,2E0,1E0,2E0,5E0,1E0,1E0,4E0,1E0,1E0,3E0,2E0,1E0],"tree_param":{"num_deleted":"0","num_feature":"5","num_nodes":"17","size_leaf_vector":"1"}},{"base_weights":[3.523955E-1,1.1611672E-1,1.5540162E-1,-1.6836472E-1,3.9930663E-1,-2.5984764E-2,-3.689423E-2,7.6206334E-2,2.7412415E-2,5.3596497E-3,-6.0009E-3,-5.3181965E-2,1.3459778E-2,1.6784668E-3,-8.7451935E-4,-8.141709E-3,1.6441346E-4],"categories":[],"categories_nodes":[],"categories_segments":[],"categories_sizes":[],"default_left":[0,0,0,0,0,0,0,0,0,0,0,0,0,0,0,0,0],"id":81,"left_children":[1,-1,3,5,7,9,-1,-1,11,13,-1,15,-1,-1,-1,-1,-1],"loss_changes":[1.5721065E0,0E0,8.5691136E-1,1.3320425E-1,7.885528E-1,4.587507E-3,0E0,0E0,4.1712325E-2,6.302294E-4,0E0,4.777925E-3,0E0,0E0,0E0,0E0,0E0],"parents":[2147483647,0,0,2,2,3,3,4,4,5,5,8,8,9,9,11,11],"right_children":[2,-1,4,6,8,10,-1,-1,12,14,-1,16,-1,-1,-1,-1,-1],"split_conditions":[5E-2,1.1611672E-1,1E-1,7.5E-2,1E-2,1E-2,-3.689423E-2,7.6206334E-2,1.25E-1,6.7E-2,-6.0009E-3,2E-2,1.3459778E-2,1.6784668E-3,-8.7451935E-4,-8.141709E-3,1.6441346E-4],"split_indices":[1,0,1,1,2,2,0,0,1,1,0,2,0,0,0,0,0],"split_type":[0,0,0,0,0,0,0,0,0,0,0,0,0,0,0,0,0],"sum_hessian":[1E1,1E0,9E0,4E0,5E0,3E0,1E0,2E0,3E0,2E0,1E0,2E0,1E0,1E0,1E0,1E0,1E0],"tree_param":{"num_deleted":"0","num_feature":"5","num_nodes":"17","size_leaf_vector":"1"}},{"base_weights":[6.4001255E-2,-1.5022011E-1,1.1031075E-1,4.2936538E-4,-7.530327E-2,1.1698096E-1,-2.7166748E-1,2.945226E-1,-1.2940216E-2,-3.504944E-2,-5.7006837E-3,-8.308411E-4,4.5009233E-2,1.2786865E-2,-8.01096E-3],"categories":[],"categories_nodes":[],"categories_segments":[],"categories_sizes":[],"default_left":[0,0,0,0,0,0,0,0,0,0,0,0,0,0,0],"id":82,"left_children":[1,3,-1,5,-1,7,9,11,13,-1,-1,-1,-1,-1,-1],"loss_changes":[2.6142952E0,9.084573E-1,0E0,3.1719983E-1,0E0,1.6527611E-1,3.0782536E-2,1.4507356E-1,5.7533726E-2,0E0,0E0,0E0,0E0,0E0,0E0],"parents":[2147483647,0,0,1,1,3,3,5,5,6,6,7,7,8,8],"right_children":[2,4,-1,6,-1,8,10,12,14,-1,-1,-1,-1,-1,-1],"split_conditions":[1E0,1.33E-1,1.1031075E-1,8.5E-1,-7.530327E-2,1E-2,9E-1,7.5E-2,8E-1,-3.504944E-2,-5.7006837E-3,-8.308411E-4,4.5009233E-2,1.2786865E-2,-8.01096E-3],"split_indices":[0,1,0,0,0,2,0,1,0,0,0,0,0,0,0],"split_type":[0,0,0,0,0,0,0,0,0,0,0,0,0,0,0],"sum_hessian":[1E1,9E0,1E0,8E0,1E0,6E0,2E0,2E0,4E0,1E0,1E0,1E0,1E0,1E0,3E0],"tree_param":{"num_deleted":"0","num_feature":"5","num_nodes":"15","size_leaf_vector":"1"}},{"base_weights":[6.952632E-2,1.3649708E-1,-1.5456135E-2,2.2324917E-1,-1.1142349E-1,3.673792E-1,2.3306847E-2,-7.892609E-4,-1.5924264E-2,5.2594375E-2,-5.415726E-3,1.21475225E-2,-4.9907684E-2,5.5675505E-4,-8.042908E-3],"categories":[],"categories_nodes":[],"categories_segments":[],"categories_sizes":[],"default_left":[0,0,0,0,0,0,0,0,0,0,0,0,0,0,0],"id":83,"left_children":[1,3,-1,5,7,9,11,-1,-1,-1,-1,-1,13,-1,-1],"loss_changes":[1.861777E-1,2.1844381E-1,0E0,1.9316137E-1,1.3595432E-2,2.9584664E-1,3.481195E-2,0E0,0E0,0E0,0E0,0E0,5.527337E-3,0E0,0E0],"parents":[2147483647,0,0,1,1,3,3,4,4,5,5,6,6,12,12],"right_children":[2,4,-1,6,8,10,12,-1,-1,-1,-1,-1,14,-1,-1],"split_conditions":[3.3333333E0,1.33E-1,-1.5456135E-2,4E-2,1.5E-1,9E-1,8E-1,-7.892609E-4,-1.5924264E-2,5.2594375E-2,-5.415726E-3,1.21475225E-2,5E-2,5.5675505E-4,-8.042908E-3],"split_indices":[4,3,0,2,3,0,0,0,0,0,0,0,2,0,0],"split_type":[0,0,0,0,0,0,0,0,0,0,0,0,0,0,0],"sum_hessian":[1E1,8E0,2E0,6E0,2E0,3E0,3E0,1E0,1E0,2E0,1E0,1E0,2E0,1E0,1E0],"tree_param":{"num_deleted":"0","num_feature":"5","num_nodes":"15","size_leaf_vector":"1"}},{"base_weights":[1.2082966E-1,-4.421107E-2,1.0506592E-1,8.662033E-2,-7.4167825E-2,-3.0347824E-2,6.281509E-2,-1.8738556E-1,1.6416702E-1,-2.3346405E-1,2.150345E-3,3.210246E-2,-4.7412872E-2,-1.1219597E-2,-3.592682E-2,5.289078E-4,-7.6408386E-3],"categories":[],"categories_nodes":[],"categories_segments":[],"categories_sizes":[],"default_left":[0,0,0,0,0,0,0,0,0,0,0,0,0,0,0,0,0],"id":84,"left_children":[1,3,-1,5,-1,7,-1,9,11,13,-1,-1,15,-1,-1,-1,-1],"loss_changes":[2.0414274E0,1.1592518E0,0E0,7.1582323E-1,0E0,3.3622423E-1,0E0,6.277202E-2,1.8116021E-1,3.59717E-2,0E0,0E0,4.9884897E-3,0E0,0E0,0E0,0E0],"parents":[2147483647,0,0,1,1,3,3,5,5,7,7,8,8,9,9,12,12],"right_children":[2,4,-1,6,-1,8,-1,10,12,14,-1,-1,16,-1,-1,-1,-1],"split_conditions":[1E0,1.5E-1,1.0506592E-1,1.25E-1,-7.4167825E-2,2E-2,6.281509E-2,9E-1,4E-2,8.5E-1,2.150345E-3,3.210246E-2,5E-2,-1.1219597E-2,-3.592682E-2,5.289078E-4,-7.6408386E-3],"split_indices":[0,1,0,1,0,2,0,0,2,0,0,0,2,0,0,0,0],"split_type":[0,0,0,0,0,0,0,0,0,0,0,0,0,0,0,0,0],"sum_hessian":[1.2E1,1.1E1,1E0,1E1,1E0,9E0,1E0,5E0,4E0,4E0,1E0,2E0,2E0,3E0,1E0,1E0,1E0],"tree_param":{"num_deleted":"0","num_feature":"5","num_nodes":"17","size_leaf_vector":"1"}},{"base_weights":[2.9272345E-1,1.5076256E-1,9.98127E-2,5.5969585E-2,5.9674263E-2,-3.6686707E-2,1.14157E-1,-2.0534706E-1,3.1897735E-2,4.0690042E-2,-2.4503071E-3,-4.6259563E-2,-3.413048E-2,8.3995825E-3,-3.6538698E-2,-1.8882751E-4,-6.750107E-3,4.69691E-3,-1.0786693E-2],"categories":[],"categories_nodes":[],"categories_segments":[],"categories_sizes":[],"default_left":[0,0,0,0,0,0,0,0,0,0,0,0,0,0,0,0,0,0,0],"id":85,"left_children":[1,3,-1,5,-1,7,9,11,-1,-1,13,15,-1,-1,17,-1,-1,-1,-1],"loss_changes":[1.151336E0,4.7390988E-1,0E0,6.349377E-2,0E0,3.654332E-1,2.3994917E-1,7.072809E-2,0E0,0E0,2.0749953E-2,2.7000783E-3,0E0,0E0,3.4848724E-2,0E0,0E0,0E0,0E0],"parents":[2147483647,0,0,1,1,3,3,5,5,6,6,7,7,10,10,11,11,14,14],"right_children":[2,4,-1,6,-1,8,10,12,-1,-1,14,16,-1,-1,18,-1,-1,-1,-1],"split_conditions":[1E0,1.33E-1,9.98127E-2,1E-1,5.9674263E-2,3E-2,1E-2,7.5E-2,3.1897735E-2,4.0690042E-2,8E-1,8.5E-1,-3.413048E-2,8.3995825E-3,3E-2,-1.8882751E-4,-6.750107E-3,4.69691E-3,-1.0786693E-2],"split_indices":[0,1,0,1,0,2,2,1,0,0,0,0,0,0,2,0,0,0,0],"split_type":[0,0,0,0,0,0,0,0,0,0,0,0,0,0,0,0,0,0,0],"sum_hessian":[1.2E1,1.1E1,1E0,1E1,1E0,4E0,6E0,3E0,1E0,1E0,5E0,2E0,1E0,1E0,4E0,1E0,1E0,2E0,2E0],"tree_param":{"num_deleted":"0","num_feature":"5","num_nodes":"19","size_leaf_vector":"1"}},{"base_weights":[1.7372449E-1,3.230504E-1,-7.344303E-2,9.090767E-2,-1.03440285E-2,1.1959076E-1,-1.1222305E-1,-9.82488E-2,3.865547E-2,-1.4918773E-2,-3.7850697E-2,-1.4557838E-2,-1.794815E-4,1.0417938E-3,-6.719399E-3],"categories":[],"categories_nodes":[],"categories_segments":[],"categories_sizes":[],"default_left":[0,0,0,0,0,0,0,0,0,0,0,0,0,0,0],"id":86,"left_children":[1,3,-1,-1,5,7,9,11,-1,-1,13,-1,-1,-1,-1],"loss_changes":[1.8645906E0,2.1585603E0,0E0,0E0,1.19321875E-1,2.7059978E-1,8.098893E-3,1.3434095E-2,0E0,0E0,4.9491045E-3,0E0,0E0,0E0,0E0],"parents":[2147483647,0,0,1,1,4,4,5,5,6,6,7,7,10,10],"right_children":[2,4,-1,-1,6,8,10,12,-1,-1,14,-1,-1,-1,-1],"split_conditions":[1.5E-1,1E-1,-7.344303E-2,9.090767E-2,1E-2,7.5E-2,4E-2,6.7E-2,3.865547E-2,-1.4918773E-2,5E-2,-1.4557838E-2,-1.794815E-4,1.0417938E-3,-6.719399E-3],"split_indices":[1,3,0,0,2,1,2,1,0,0,2,0,0,0,0],"split_type":[0,0,0,0,0,0,0,0,0,0,0,0,0,0,0],"sum_hessian":[1.1E1,1E1,1E0,3E0,7E0,3E0,4E0,2E0,1E0,2E0,2E0,1E0,1E0,1E0,1E0],"tree_param":{"num_deleted":"0","num_feature":"5","num_nodes":"15","size_leaf_vector":"1"}},{"base_weights":[8.626506E-2,-3.6539894E-2,9.027672E-2,6.798906E-2,-6.977081E-2,-1.3253848E-2,5.2145194E-2,-1.09527044E-1,1.0127386E-1,-2.1253738E-1,9.866587E-2,3.6722757E-2,-2.5362397E-2,-8.082676E-3,-3.6968995E-2,2.57576E-2,-1.0957718E-2,-9.605027E-3,5.3779604E-3],"categories":[],"categories_nodes":[],"categories_segments":[],"categories_sizes":[],"default_left":[0,0,0,0,0,0,0,0,0,0,0,0,0,0,0,0,0,0,0],"id":87,"left_children":[1,3,-1,5,-1,7,-1,9,11,13,15,-1,17,-1,-1,-1,-1,-1,-1],"loss_changes":[1.5370445E0,1.0149937E0,0E0,4.8583958E-1,0E0,1.434036E-1,0E0,1.7109235E-1,2.1139005E-1,7.361248E-2,1.2750025E-1,0E0,3.313744E-2,0E0,0E0,0E0,0E0,0E0,0E0],"parents":[2147483647,0,0,1,1,3,3,5,5,7,7,8,8,9,9,10,10,12,12],"right_children":[2,4,-1,6,-1,8,-1,10,12,14,16,-1,18,-1,-1,-1,-1,-1,-1],"split_conditions":[1E0,1.5E-1,9.027672E-2,1.25E-1,-6.977081E-2,1E-1,5.2145194E-2,2E0,2E0,7.5E-2,9E-1,3.6722757E-2,5E0,-8.082676E-3,-3.6968995E-2,2.57576E-2,-1.0957718E-2,-9.605027E-3,5.3779604E-3],"split_indices":[0,1,0,1,0,1,0,4,4,1,0,0,4,0,0,0,0,0,0],"split_type":[0,0,0,0,0,0,0,0,0,0,0,0,0,0,0,0,0,0,0],"sum_hessian":[1.4E1,1.3E1,1E0,1.2E1,1E0,1.1E1,1E0,6E0,5E0,4E0,2E0,1E0,4E0,3E0,1E0,1E0,1E0,2E0,2E0],"tree_param":{"num_deleted":"0","num_feature":"5","num_nodes":"19","size_leaf_vector":"1"}},{"base_weights":[3.0779975E-2,1.3512039E-1,-6.628227E-2,6.3817345E-2,4.953785E-2,-7.4765205E-2,1.1831877E-1,-1.0181427E-2,-1.3425827E-2,3.488655E-2,4.589224E-2,2.3365021E-4,-1.7608643E-3,-1.746532E-2,2.4469757E-2,-5.4567717E-3,5.019379E-3],"categories":[],"categories_nodes":[],"categories_segments":[],"categories_sizes":[],"default_left":[0,0,0,0,0,0,0,0,0,0,0,0,0,0,0,0,0],"id":88,"left_children":[1,3,-1,5,-1,7,9,11,-1,-1,13,-1,-1,15,-1,-1,-1],"loss_changes":[1.102752E0,3.0232376E-1,0E0,9.948148E-2,0E0,1.4002206E-2,1.3426907E-1,3.200627E-4,0E0,0E0,1.0504028E-1,0E0,0E0,2.0311166E-2,0E0,0E0,0E0],"parents":[2147483647,0,0,1,1,3,3,5,5,6,6,7,7,10,10,13,13],"right_children":[2,4,-1,6,-1,8,10,12,-1,-1,14,-1,-1,16,-1,-1,-1],"split_conditions":[1.5E-1,1.33E-1,-6.628227E-2,7.5E-2,4.953785E-2,1.5E-1,2E0,8.5E-1,-1.3425827E-2,3.488655E-2,8.5E-1,2.3365021E-4,-1.7608643E-3,5E0,2.4469757E-2,-5.4567717E-3,5.019379E-3],"split_indices":[1,1,0,1,0,3,4,0,0,0,0,0,0,4,0,0,0],"split_type":[0,0,0,0,0,0,0,0,0,0,0,0,0,0,0,0,0],"sum_hessian":[1.3E1,1.2E1,1E0,1.1E1,1E0,3E0,8E0,2E0,1E0,1E0,7E0,1E0,1E0,6E0,1E0,4E0,2E0],"tree_param":{"num_deleted":"0","num_feature":"5","num_nodes":"17","size_leaf_vector":"1"}},{"base_weights":[1.9287664E-1,4.0462494E-2,8.585091E-2,8.462429E-2,-9.0789795E-2,2.3200321E-1,-5.0203703E-2,-3.6864854E-2,2.3246383E-2,3.0785752E-2,2.2201538E-4,-1.4644242E-2,1.0466576E-2,-5.630493E-3,5.1492057E-3],"categories":[],"categories_nodes":[],"categories_segments":[],"categories_sizes":[],"default_left":[0,0,0,0,0,0,0,0,0,0,0,0,0,0,0],"id":89,"left_children":[1,3,-1,5,7,9,11,-1,-1,-1,-1,-1,13,-1,-1],"loss_changes":[1.0812323E0,6.5646395E-2,0E0,1.7061386E-1,